{"training":false,"trainingInProgress":false,"inputCount":2,"hiddenLayerInputCount":4,"hiddenLayers":1,"outputs":[1,0,1],"layers":[{"inputs":[0.016528032098899473,-0.808464552211669],"outputs":[-0.0003705468403264144,-0.000017240923147953704,-0.0005357595047345826,0.1238321489294924],"biases":[-0.008992367075807346,-0.0005944846135274356,-0.02528890976174164,-0.03546959416673299],"weights":[[-2.7233203814440237,-0.0007190486648654202,-4.925062234445477,5.736768344516195],[-0.032086968721264875,0.0006472004578253176,-0.09697822314600399,-0.12363417251554992]],"error":[-0.0007681464058597241,5.447957913378739e-8,-0.0030088056561501405,-0.00001976920428461892],"dW":[[0.0007112598943339052,-5.003276766853609e-8,0.0027751026726836503,0.000018303953084068567],[0.00036814357708373743,-2.5896640887005247e-8,0.0014363754133124031,0.000009474009172768693]],"dB":[-0.0007851334159916804,5.5229316462309186e-8,-0.0030633329089533815,-0.000020205054896993297],"velDw":[[0,0,0,0],[0,0,0,0]]},{"inputs":[-0.0003705468403264144,-0.000017240923147953704,-0.0005357595047345826,0.1238321489294924],"outputs":[1.2957366570647588,-6.3629252536149234,-1.4023201254628075],"biases":[0.46325427539240627,-1.6654709905441134,-0.34802722425771093],"weights":[[-2.079663580002957,1.1838140982193985,-0.03211479461855666],[0.000849997912885246,0.000851358390536387,0.0002345903732478956],[-3.746335231585694,2.1415622803934795,-0.12763336121169142],[-4.522720328836092,2.4270332604111498,-0.08310850856131809]],"error":[8.435095680064892e-18,-0.000017176391006887597,0.02328561527206906],"dW":[[3.580976755681301e-17,-0.000057671081834931075,0.05822229003773749],[-1.2222348408033022e-22,1.9683904793193923e-10,-1.9872039460345202e-7],[6.476412534402286e-17,-0.00010430163130093448,0.1052985245949379],[-7.571302322796597e-19,0.0000012193466354180008,-0.0012310008968974464]],"dB":[1.453235743675687e-17,-0.00002340413893108954,0.02362783082220686],"velDw":[[0,0,0],[0,0,0],[0,0,0],[0,0,0]],"sigmoidOutputs":[0.785116595059421,0.0017213471224875195,0.19744820067911742]}],"cost":0.004386511862005624,"epic":[]}