{"training":true,"trainingInProgress":false,"inputCount":10,"hiddenLayerInputCount":7,"hiddenLayers":2,"outputs":[-1301.4202628606743,1177.8071965973636,1870.4809356511873,-850.8839892115024],"layers":[{"inputs":[-80.27497035294562,-42.24146455719804,-0.39175001576312585,-1.2730367222189212,-0.745104074672831,-663.5965646053614,-398.3915957392727,-0.745104074672831,-663.5965646053614,-398.3915957392727],"outputs":[358.43935245066183,335.9867243897691,-377.64769683398464,-60.417765332113554,-45.33991679283074,900.29475104988,690.3798829349836],"biases":[-2.6794348102507968,-15.884972157382794,18.627859919687346,10.956134344779784,-2.731671663530836,14.806259650262405,-9.425172396183301],"weights":[[0.15639028244379372,-0.8107480685685198,0.7519772546418773,-0.2091478532281721,-0.5631206866635166,-0.9724205441368257,-0.7552184733709766],[0.5008011533873598,0.02395298650048705,-0.04972296488803596,0.7043791781490725,-0.9413344108469939,-0.8385664044592118,0.46084902974269326],[-0.9147056730243028,-0.5028740105036906,-0.290650938664464,-0.2198557488259909,0.4102881613555185,-0.4319530331738046,0.48848729025587234],[-0.3519284926509125,0.5283340835829347,0.06097243509850103,-0.9297276883423016,0.4095491721304847,-0.7651178403056231,0.2840447783546518],[-0.3251031260338455,0.6954983768623064,-0.7575026941714855,0.800117858126058,-0.8516053764883444,0.5122440465367679,-0.9549393886953352],[-0.9592845755555957,-0.7090614695509947,0.6209377983287034,0.5978861742589989,0.7724320642593852,-0.07050942385653025,-0.04428540456483043],[0.9880984615020016,0.9403278498059744,0.5487716464852588,0.06534573473068273,0.43759213034593625,-0.8871712367946472,-0.9114959936960936],[0.7469617497355012,-0.7919953109039477,0.6692123872544484,0.2385958657287135,-0.8093743222037539,0.6467609807743868,0.5496372881981988],[-0.18997971740103936,0.016830455434326375,0.5757129303707262,0.47940979620631574,0.007817141391200266,-0.31071033337518883,-0.09713076113034225],[-0.12413103453561525,-0.8695609018405472,0.8457528003084374,-0.8220058682215232,-0.8986219721931428,-0.0804522589334371,-0.7197660650399524]]},{"inputs":[358.43935245066183,335.9867243897691,-377.64769683398464,-60.417765332113554,-45.33991679283074,900.29475104988,690.3798829349836],"outputs":[438.70382116902977,592.7820119139053,-227.07453175173643,-3.300602969536729,685.1172834680638,1648.9584035896853,1018.9092439390613],"biases":[-12.304369024263057,7.019337292292434,8.604312651863445,14.745214179736912,-10.26220872677178,13.116816307150245,-0.3492363618194574],"weights":[[-0.6694687308251677,0.9877586092460553,-0.5873592137117822,-0.7935787914151964,0.9907785820162387,0.2001706332654014,0.8324800362186919],[0.6771376348586466,-0.3474353863951556,-0.714282058167564,-0.6121166973284551,0.9006737096901118,-0.5394906352666009,-0.1446972281750718],[-0.9261012888915503,0.4058544570002982,0.7569859454631382,-0.5828417787926476,0.49471017603838496,-0.7025756982119506,-0.4285015645870689],[-0.35061542401241996,-0.2699723874805928,-0.017016338636549166,-0.20995713004184147,0.0870220435704645,-0.6478696472651488,0.1904775221804209],[0.3515094756990631,0.4614864018291698,0.30860838524938483,0.35638642255427144,0.3097361848678435,0.8617368306102526,-0.15082723654168229],[-0.5078650057159755,0.19070150874493863,-0.23179552739714948,0.9097000166188072,-0.0529867236799928,0.9195335224359868,0.6035326560600689],[0.9263469181043082,0.4237143050332768,-0.8209011200739469,-0.9621645614179246,0.5113637122136747,0.8305634401671134,0.10293819884970312]]},{"inputs":[438.70382116902977,592.7820119139053,-227.07453175173643,-3.300602969536729,685.1172834680638,1648.9584035896853,1018.9092439390613],"outputs":[-1301.4202628606743,1177.8071965973636,1870.4809356511873,-850.8839892115024],"biases":[-4.626756262782683,-15.236014614648138,5.091153301907813,3.9718893167171814],"weights":[[0.8357071951779436,0.32957361123230444,0.5627535233049308,0.5647709487501593],[-0.5701777550518989,-0.12045115042396448,-0.6847814223782833,0.896547611344418],[0.7410386640147884,0.455976117488212,0.9915441081333756,0.6349829120112285],[0.5016221119948712,-0.8524970073104596,0.3775468481772337,-0.7788333322167549],[-0.6322119937528492,0.8497336357414074,0.1354690974615247,-0.31497044104567284],[0.012443917514287417,0.8828816517860729,0.9658941973764092,-0.9593262565938256],[-0.7018517811465821,-0.7125267954930505,0.5248316535275541,0.27616486007638086]]}],"costFrames":[]}