{"training":true,"inputCount":10,"hiddenLayerInputCount":7,"hiddenLayers":1,"outputs":[1,1.845960812142007e-123,1,2.2191062115254996e-214],"layers":[{"inputs":[null,null,null,null,null,null,null,null,null,null],"outputs":[null,null,null,null,null,null,null],"biases":[-0.974347990182707,-0.792342979621744,0.41121297989077843,0.5586636037613757,-0.3182637868869864,0.16010938214390058,-0.6803981706166029],"weights":[[-0.44239565426025873,-0.6247999168455642,-0.47345122013149643,-0.4370818779762249,0.24986621431530587,0.7457806408652288,-0.7103732568216403],[0.02346406449650007,0.5041522348216187,0.6563592213001059,0.6475384179586894,-0.18244982845381363,0.12835852429971228,-0.6095470409871477],[-0.34400646744677443,0.9765852912773139,-0.08839954353779222,-0.9927699308054814,-0.7600637705893953,-0.4325603929594908,0.25862520988425364],[-0.6899090162536758,0.5497774895858081,0.4736377314084408,-0.9807755360908201,0.28877738248309415,0.78231830788444,-0.8490823767055313],[-0.5291152659563005,-0.37610167076085177,-0.27237104464061535,0.5804591067477762,-0.0783060979298078,0.31339654582144894,0.5276492923637206],[0.45916479909016306,0.0069603902222787895,-0.9520933604384261,-0.0007003827767717574,-0.04006418065379891,0.21016892492935701,-0.4860086718891272],[0.6417601396730837,0.8861433495726765,0.9954246499983481,-0.07520161213929044,0.8639318295571545,0.9747655076462522,-0.33104387001112556],[-0.8944360018134123,0.18109503645074687,-0.9229699270635463,0.645716413873302,0.2679011454934055,0.7717005448010972,-0.7049630533804478],[0.6549734363598192,-0.3430233041226134,-0.5738104777381381,0.5917916332512989,0.014569296245805496,0.47407279158011373,0.5460801891131883],[0.2501127646732173,-0.4441099720175019,0.24315957074725159,0.14956373946669288,-0.7864761409297585,0.49111558929313315,0.3519468885307444]]},{"inputs":[null,null,null,null,null,null,null],"outputs":[null,null,null,null,null,null,null],"biases":[0.3090525544406755,-0.18890845092698916,-0.731349651080289,-0.6228973606426926,-0.34560935638409496,-0.48775482231811296,-0.7259195018711164],"weights":[[0.8150432140019532,0.04148433898717996,0.13940836082055608,0.9732400344844041,-0.18314513139843935,0.9764426954058423,0.6968184080532449],[-0.25956625072788664,0.6301079152756337,0.4071313289991738,-0.7715999162626308,0.9316068593094076,-0.4527151054952041,0.8752510534544553],[-0.125917547174774,-0.019734530925899163,0.048256528544782684,0.31653026070692336,0.30007031538302864,-0.752250409795099,0.20808773495983712],[0.15851253128601095,-0.4894532713078983,-0.15939473371483448,-0.28977821478778876,-0.6958464163311102,0.9223629702971725,-0.20655642584907064],[-0.4061043100795485,0.6613491845658523,0.681150666518316,0.11165609714968072,-0.756321784562485,-0.6361470614825344,0.2944322269749513],[0.6227138667756527,-0.19822950590311628,-0.30583237345864744,0.9964878490908844,0.15768947719433535,0.19033939255632704,0.24046918238121084],[0.5069005533166209,-0.4494643489510448,0.016569074093649272,-0.28976543374170016,-0.7594668199928987,-0.3032004842063978,-0.9795400509370296]]},{"inputs":[null,null,null,null,null,null,null],"outputs":[null,null,null,null],"biases":[0.9323917083871944,-0.7946870237504255,0.07844248972464651,-0.527422981283252],"weights":[[0.7635645040046135,0.15706065596921182,-0.2648456004009967,0.7257200873651903],[-0.06735701291109053,-0.9627596603469735,-0.3772968055581676,0.23049887938107738],[0.6108348956238798,0.6238613317023056,-0.48243136713361245,-0.31383373477133003],[0.7893964819267001,-0.09590306669425264,0.29096125705292697,-0.3407103323094476],[0.2998131729768543,0.19521692971435,0.076374897205435,-0.769249140605434],[0.9849802973801394,0.2634940487089572,0.20560631653686112,0.28265214588363485],[0.25596959830803745,-0.5399686855692163,0.8455556900162986,-0.007028017963199185]]}],"costFrames":[[1,1.0594796797744634e-267,1,0],[1,3.407140881593249e-248,1,0],[1,1.8797440933560363e-234,1,0],[1,4.923363458499169e-282,1,0],[1,3.778031066680961e-256,1,0],[1,9.283075256302059e-242,1,0],[1,1.0319608630722964e-260,1,0],[1,1.3392770817191947e-221,1,0],[1,1.3992376140721747e-240,1,0],[1,2.22184583287749e-227,1,0],[1,6.08239440435306e-242,1,0],[1,1,1,1],[1,1,1,1],[1,1,1,1],[1,1,1,0],[1,1,1,0],[1,1,1,0],[1,1,1,0]]}