{"training":true,"trainingInProgress":true,"inputCount":10,"hiddenLayerInputCount":7,"hiddenLayers":1,"outputs":[-573.7873644877117,-156.1802630060651,191.87207801877554,-196.35523672449742],"layers":[{"inputs":[-380.0419755136952,-128.265925936075,-0.36353302197813836,0.4400459205649944,1.164188658629712,5.554397021644036,-319.11272187116214,1.164188658629712,5.554397021644036,-319.11272187116214],"outputs":[608.5676825661523,-117.1361812272592,-66.40079545403373,415.1142358470308,260.4692033790577,416.1120505034858,100.05836243800556],"biases":[-19.865679453846926,16.741369793556842,14.31385709305318,6.095686919386818,8.029702592520778,10.12431791573771,14.318536217675103],"weights":[[-0.5992745480433723,0.5508946860701143,-0.20609197936032264,0.2878833495502544,0.1984863063684259,-0.7843344899944313,-0.4416212002547939],[-0.18243615235413513,0.12226515413116412,-0.10436388785578532,0.2385582859301092,-0.4342130969331506,0.2789634739773934,-0.8582519821143042],[-0.884055845254968,0.6676591195161019,0.606941287722321,-0.40964893820218506,0.5116986141526487,-0.7112808073669574,0.6438470616892704],[0.438350508307753,-0.8361646029992638,-0.8421901055949921,0.7973981832891437,-0.16351592315774388,0.8433995630231033,-0.948679736684481],[0.9057765342082771,-0.6534921016766773,-0.7828155967324011,-0.4790135261063071,-0.48325651592081065,-0.332109573462706,0.6952787730242085],[0.9469190332775548,0.05297624823978975,-0.33682059358466865,-0.488629419641603,-0.5982276205662638,0.4802926052087477,-0.9229525372710163],[-0.7735751319617603,0.08251516010755888,0.5440354427894294,-0.70860208004041,-0.21925450684933745,0.16649475126206403,0.2314401844346765],[0.3341453943919839,0.09030116555727408,-0.017503150654437416,-0.1839701448539155,-0.22924862588881156,-0.6260145484723698,-0.2419486436267646],[0.5530678980491306,-0.9191088286886475,-0.3525553637486656,-0.01970253931552879,0.14119813864405373,0.29264901637239915,0.751115284878014],[-0.9367463649319538,0.9978873547434308,0.9914183809273711,-0.8496545852153277,-0.41856571783596186,-0.3193023682954266,0.7712395694929488]],"singularOutputs":[[207.88380365963314,-192.62173500052631,92.6374600666779,-103.31206996119153,-67.40342539215234,308.204346956748,182.15312959123617],[3.5346625520710653,1.0589165892061505,27.700187803164177,-24.50321251516157,63.72444752422203,-25.657190376316823,124.40302139003802],[-19.544295960823952,16.49865365618789,14.093213892564181,6.2446078358415935,7.8436832489758395,10.38289197711487,14.084476549647457],[-19.672785100888508,16.373418971086167,13.943254772745902,6.446578737009143,7.957748077587794,10.495452452852325,13.901073569624424],[-18.811184685468724,15.98058170028076,13.402512053538867,5.538024804963627,7.4671008374768615,9.737679716890076,15.127971879815869],[-14.606115195672027,17.035620908997807,12.44302179121812,3.3816451262418448,4.706908878582324,12.792053731626833,9.192091393538163],[226.99198647831383,-9.590267544001009,-159.29477384986455,232.21962540464915,77.99660505573222,-43.00627533676165,-59.536970987638284],[-19.476671175362426,16.846497386359665,14.293480123570996,5.881510963221424,7.762813942254578,9.395518878268977,14.036862350793982],[-16.793720768155907,11.63627445292188,12.355624630682962,5.98625119369382,8.813973113266991,11.749806740663619,18.490528718912856],[279.0620027625058,-301.6971800994333,-302.06036095778086,277.2312742577633,141.59934809311142,112.01776576239955,-231.7938220179631]]},{"inputs":[608.5676825661523,-117.1361812272592,-66.40079545403373,415.1142358470308,260.4692033790577,416.1120505034858,100.05836243800556],"outputs":[626.9045505636838,-367.93651719464816,-58.09768477268148,-316.9997159869016,-19.099895705857463,-39.853766291440316,315.6257861001874],"biases":[4.271900867831967,14.499618720018141,17.089205840284755,-0.028157686698357054,-5.649997958490927,-11.540488411119917,-9.085127427954568],"weights":[[0.9179919025384355,-0.1765585096119897,-0.017786509558580965,-0.7139624033386369,0.36397439181480107,-0.6929942469925401,-0.5233708843854001],[0.25665719948632115,0.462259460903931,-0.1685813168491055,-0.42947544961879625,0.45988204075482875,-0.8019271822957998,0.9368555488980084],[-0.48908807406401644,-0.3400271388308491,-0.9876334407960934,0.7273567965385126,-0.930707549285978,0.17236560825932834,-0.6725049207315423],[-0.24251451644835265,-0.8907123865657647,-0.6149373514568435,0.34835946675155904,-0.7940703140483378,0.8639476332200897,0.821956430661311],[-0.9259673655047624,-0.9358678917869532,0.24688158621356604,-0.39476820146986724,-0.8111529224746061,0.13933259436384993,0.31872937093241527],[0.6837700156558788,-0.3942223294524301,-0.7021752218894415,-0.5824197579356891,0.44120865505452844,-0.07065666351800681,0.9519259105080724],[0.932069159233391,0.30867580314615695,0.1949316850310674,-0.8101351751371515,0.540745402518245,-0.30554301535006,-0.5748618915615715]],"singularOutputs":[[562.9321056101408,-92.94818431188415,6.264910937278422,-434.5226029258531,215.85305418166726,-433.2743913350457,-327.59173366097514],[-25.791943364478566,-39.64768926643986,36.83617752225158,50.27895641250759,-59.51882402751035,82.39419934534621,-118.82480878743507],[36.74773803276402,37.07769121434568,82.66885192614967,-48.32522755575336,56.14972364917231,-22.985701908457685,35.56973425537174],[-96.39932730943812,-355.24777298871436,-238.18004290351982,144.5808161539542,-335.27988958347845,347.0964731648885,332.1206881855685],[-236.91408118019828,-229.26514552176775,81.39425593029046,-102.85311664293803,-216.93035349404616,24.751361447569458,73.93405791231984],[288.7968441552003,-149.54104314269327,-275.0943655528709,-242.38003741506182,177.94224019613407,-40.94157754933257,387.0227151209572],[97.53321461969372,45.38521410705877,36.59375103177444,-81.08895666434856,48.456101513364835,-42.11262218141732,-66.60486692561975]]},{"inputs":[626.9045505636838,-367.93651719464816,-58.09768477268148,-316.9997159869016,-19.099895705857463,-39.853766291440316,315.6257861001874],"outputs":[-573.7873644877117,-156.1802630060651,191.87207801877554,-196.35523672449742],"biases":[-15.715956751990255,2.847596503953369,-1.0307212465882962,7.954252428132271],"weights":[[-0.5461526971451505,0.4385706741591804,0.7778806986843483,-0.18786674509046364],[-0.2136195552363216,0.4943801396596146,0.9946781597060763,0.6861437013536844],[-0.08905428218975553,-0.1817646657778984,0.4279994950685042,-0.8593865937527227],[-0.3134879838006943,0.3105648351853112,-0.17056689899315858,-0.8988060534292488],[-0.5838124324746681,-0.3318918992526214,-0.8604413340591606,-0.49267562531892417],[0.4286736355163403,0.7548332311340464,0.22308592491480783,0.39244081187424573],[-0.9460711118061704,-0.4990789259720887,0.12882721352060744,-0.6666838248556648]],"singularOutputs":[[-358.10156789491447,277.78954787812614,486.62622855428737,-109.82026496866698],[62.88247840633168,-179.05291025260897,-367.00913905842407,-244.50307134298717],[-10.542109137672416,13.407702759129515,-25.896500993945097,57.88262384984644],[83.65964507813626,-95.60136804530919,53.0389372910095,292.87551609251204],[-4.565200179941142,9.18669716529739,15.403618494950532,17.36430548854183],[-32.80021563716055,-27.23535067867567,-9.921535561052849,-7.685991971527013],[-314.32039512249105,-154.67458183202433,39.63046929195012,-202.46835387221657]]}],"costFrames":[{"costs":[347755.3446015736,19538.45576532614,57347.559672117255,57490.05535084058],"network":{"training":true,"trainingInProgress":false,"inputCount":10,"hiddenLayerInputCount":7,"hiddenLayers":1,"outputs":[-589.707846820418,-138.7800263461348,239.4735051568696,-239.7708392420575],"layers":[{"inputs":[-380.0419755136952,-128.265925936075,-0.36353302197813836,0.4400459205649944,1.164188658629712,5.554397021644036,-319.11272187116214,1.164188658629712,5.554397021644036,-319.11272187116214],"outputs":[608.5676825661523,-117.1361812272592,-66.40079545403373,415.1142358470308,260.4692033790577,416.1120505034858,100.05836243800556],"biases":[-19.865679453846926,16.741369793556842,14.31385709305318,6.095686919386818,8.029702592520778,10.12431791573771,14.318536217675103],"weights":[[-0.5992745480433723,0.5508946860701143,-0.20609197936032264,0.2878833495502544,0.1984863063684259,-0.7843344899944313,-0.4416212002547939],[-0.18243615235413513,0.12226515413116412,-0.10436388785578532,0.2385582859301092,-0.4342130969331506,0.2789634739773934,-0.8582519821143042],[-0.884055845254968,0.6676591195161019,0.606941287722321,-0.40964893820218506,0.5116986141526487,-0.7112808073669574,0.6438470616892704],[0.438350508307753,-0.8361646029992638,-0.8421901055949921,0.7973981832891437,-0.16351592315774388,0.8433995630231033,-0.948679736684481],[0.9057765342082771,-0.6534921016766773,-0.7828155967324011,-0.4790135261063071,-0.48325651592081065,-0.332109573462706,0.6952787730242085],[0.9469190332775548,0.05297624823978975,-0.33682059358466865,-0.488629419641603,-0.5982276205662638,0.4802926052087477,-0.9229525372710163],[-0.7735751319617603,0.08251516010755888,0.5440354427894294,-0.70860208004041,-0.21925450684933745,0.16649475126206403,0.2314401844346765],[0.3341453943919839,0.09030116555727408,-0.017503150654437416,-0.1839701448539155,-0.22924862588881156,-0.6260145484723698,-0.2419486436267646],[0.5530678980491306,-0.9191088286886475,-0.3525553637486656,-0.01970253931552879,0.14119813864405373,0.29264901637239915,0.751115284878014],[-0.9367463649319538,0.9978873547434308,0.9914183809273711,-0.8496545852153277,-0.41856571783596186,-0.3193023682954266,0.7712395694929488]],"singularOutputs":[[207.88380365963314,-192.62173500052631,92.6374600666779,-103.31206996119153,-67.40342539215234,308.204346956748,182.15312959123617],[3.5346625520710653,1.0589165892061505,27.700187803164177,-24.50321251516157,63.72444752422203,-25.657190376316823,124.40302139003802],[-19.544295960823952,16.49865365618789,14.093213892564181,6.2446078358415935,7.8436832489758395,10.38289197711487,14.084476549647457],[-19.672785100888508,16.373418971086167,13.943254772745902,6.446578737009143,7.957748077587794,10.495452452852325,13.901073569624424],[-18.811184685468724,15.98058170028076,13.402512053538867,5.538024804963627,7.4671008374768615,9.737679716890076,15.127971879815869],[-14.606115195672027,17.035620908997807,12.44302179121812,3.3816451262418448,4.706908878582324,12.792053731626833,9.192091393538163],[226.99198647831383,-9.590267544001009,-159.29477384986455,232.21962540464915,77.99660505573222,-43.00627533676165,-59.536970987638284],[-19.476671175362426,16.846497386359665,14.293480123570996,5.881510963221424,7.762813942254578,9.395518878268977,14.036862350793982],[-16.793720768155907,11.63627445292188,12.355624630682962,5.98625119369382,8.813973113266991,11.749806740663619,18.490528718912856],[279.0620027625058,-301.6971800994333,-302.06036095778086,277.2312742577633,141.59934809311142,112.01776576239955,-231.7938220179631]]},{"inputs":[608.5676825661523,-117.1361812272592,-66.40079545403373,415.1142358470308,260.4692033790577,416.1120505034858,100.05836243800556],"outputs":[626.9045505636838,-367.93651719464816,-58.09768477268148,-316.9997159869016,-19.099895705857463,-39.853766291440316,315.6257861001874],"biases":[4.271900867831967,14.499618720018141,17.089205840284755,-0.028157686698357054,-5.649997958490927,-11.540488411119917,-9.085127427954568],"weights":[[0.9179919025384355,-0.1765585096119897,-0.017786509558580965,-0.7139624033386369,0.36397439181480107,-0.6929942469925401,-0.5233708843854001],[0.25665719948632115,0.462259460903931,-0.1685813168491055,-0.42947544961879625,0.45988204075482875,-0.8019271822957998,0.9368555488980084],[-0.48908807406401644,-0.3400271388308491,-0.9876334407960934,0.7273567965385126,-0.930707549285978,0.17236560825932834,-0.6725049207315423],[-0.24251451644835265,-0.8907123865657647,-0.6149373514568435,0.34835946675155904,-0.7940703140483378,0.8639476332200897,0.821956430661311],[-0.9259673655047624,-0.9358678917869532,0.24688158621356604,-0.39476820146986724,-0.8111529224746061,0.13933259436384993,0.31872937093241527],[0.6837700156558788,-0.3942223294524301,-0.7021752218894415,-0.5824197579356891,0.44120865505452844,-0.07065666351800681,0.9519259105080724],[0.932069159233391,0.30867580314615695,0.1949316850310674,-0.8101351751371515,0.540745402518245,-0.30554301535006,-0.5748618915615715]],"singularOutputs":[[562.9321056101408,-92.94818431188415,6.264910937278422,-434.5226029258531,215.85305418166726,-433.2743913350457,-327.59173366097514],[-25.791943364478566,-39.64768926643986,36.83617752225158,50.27895641250759,-59.51882402751035,82.39419934534621,-118.82480878743507],[36.74773803276402,37.07769121434568,82.66885192614967,-48.32522755575336,56.14972364917231,-22.985701908457685,35.56973425537174],[-96.39932730943812,-355.24777298871436,-238.18004290351982,144.5808161539542,-335.27988958347845,347.0964731648885,332.1206881855685],[-236.91408118019828,-229.26514552176775,81.39425593029046,-102.85311664293803,-216.93035349404616,24.751361447569458,73.93405791231984],[288.7968441552003,-149.54104314269327,-275.0943655528709,-242.38003741506182,177.94224019613407,-40.94157754933257,387.0227151209572],[97.53321461969372,45.38521410705877,36.59375103177444,-81.08895666434856,48.456101513364835,-42.11262218141732,-66.60486692561975]]},{"inputs":[626.9045505636838,-367.93651719464816,-58.09768477268148,-316.9997159869016,-19.099895705857463,-39.853766291440316,315.6257861001874],"outputs":[-573.7873644877117,-156.1802630060651,191.87207801877554,-196.35523672449742],"biases":[-15.715956751990255,2.847596503953369,-1.0307212465882962,7.954252428132271],"weights":[[-0.5461526971451505,0.4385706741591804,0.7778806986843483,-0.18786674509046364],[-0.2136195552363216,0.4943801396596146,0.9946781597060763,0.6861437013536844],[-0.08905428218975553,-0.1817646657778984,0.4279994950685042,-0.8593865937527227],[-0.3134879838006943,0.3105648351853112,-0.17056689899315858,-0.8988060534292488],[-0.5838124324746681,-0.3318918992526214,-0.8604413340591606,-0.49267562531892417],[0.4286736355163403,0.7548332311340464,0.22308592491480783,0.39244081187424573],[-0.9460711118061704,-0.4990789259720887,0.12882721352060744,-0.6666838248556648]],"singularOutputs":[[-358.10156789491447,277.78954787812614,486.62622855428737,-109.82026496866698],[62.88247840633168,-179.05291025260897,-367.00913905842407,-244.50307134298717],[-10.542109137672416,13.407702759129515,-25.896500993945097,57.88262384984644],[83.65964507813626,-95.60136804530919,53.0389372910095,292.87551609251204],[-4.565200179941142,9.18669716529739,15.403618494950532,17.36430548854183],[-32.80021563716055,-27.23535067867567,-9.921535561052849,-7.685991971527013],[-314.32039512249105,-154.67458183202433,39.63046929195012,-202.46835387221657]]}],"costFrames":null}},{"costs":[420382.7487512182,5321.236915247932,199093.12231498072,5628.160482275536],"network":{"training":true,"trainingInProgress":false,"inputCount":10,"hiddenLayerInputCount":7,"hiddenLayers":1,"outputs":[-648.3692996674181,-71.94680880784253,446.1985234343349,-75.02106692306859],"layers":[{"inputs":[-380.0419755136952,-128.265925936075,-0.36353302197813836,0.4400459205649944,1.164188658629712,5.554397021644036,-319.11272187116214,1.164188658629712,5.554397021644036,-319.11272187116214],"outputs":[608.5676825661523,-117.1361812272592,-66.40079545403373,415.1142358470308,260.4692033790577,416.1120505034858,100.05836243800556],"biases":[-19.865679453846926,16.741369793556842,14.31385709305318,6.095686919386818,8.029702592520778,10.12431791573771,14.318536217675103],"weights":[[-0.5992745480433723,0.5508946860701143,-0.20609197936032264,0.2878833495502544,0.1984863063684259,-0.7843344899944313,-0.4416212002547939],[-0.18243615235413513,0.12226515413116412,-0.10436388785578532,0.2385582859301092,-0.4342130969331506,0.2789634739773934,-0.8582519821143042],[-0.884055845254968,0.6676591195161019,0.606941287722321,-0.40964893820218506,0.5116986141526487,-0.7112808073669574,0.6438470616892704],[0.438350508307753,-0.8361646029992638,-0.8421901055949921,0.7973981832891437,-0.16351592315774388,0.8433995630231033,-0.948679736684481],[0.9057765342082771,-0.6534921016766773,-0.7828155967324011,-0.4790135261063071,-0.48325651592081065,-0.332109573462706,0.6952787730242085],[0.9469190332775548,0.05297624823978975,-0.33682059358466865,-0.488629419641603,-0.5982276205662638,0.4802926052087477,-0.9229525372710163],[-0.7735751319617603,0.08251516010755888,0.5440354427894294,-0.70860208004041,-0.21925450684933745,0.16649475126206403,0.2314401844346765],[0.3341453943919839,0.09030116555727408,-0.017503150654437416,-0.1839701448539155,-0.22924862588881156,-0.6260145484723698,-0.2419486436267646],[0.5530678980491306,-0.9191088286886475,-0.3525553637486656,-0.01970253931552879,0.14119813864405373,0.29264901637239915,0.751115284878014],[-0.9367463649319538,0.9978873547434308,0.9914183809273711,-0.8496545852153277,-0.41856571783596186,-0.3193023682954266,0.7712395694929488]],"singularOutputs":[[207.88380365963314,-192.62173500052631,92.6374600666779,-103.31206996119153,-67.40342539215234,308.204346956748,182.15312959123617],[3.5346625520710653,1.0589165892061505,27.700187803164177,-24.50321251516157,63.72444752422203,-25.657190376316823,124.40302139003802],[-19.544295960823952,16.49865365618789,14.093213892564181,6.2446078358415935,7.8436832489758395,10.38289197711487,14.084476549647457],[-19.672785100888508,16.373418971086167,13.943254772745902,6.446578737009143,7.957748077587794,10.495452452852325,13.901073569624424],[-18.811184685468724,15.98058170028076,13.402512053538867,5.538024804963627,7.4671008374768615,9.737679716890076,15.127971879815869],[-14.606115195672027,17.035620908997807,12.44302179121812,3.3816451262418448,4.706908878582324,12.792053731626833,9.192091393538163],[226.99198647831383,-9.590267544001009,-159.29477384986455,232.21962540464915,77.99660505573222,-43.00627533676165,-59.536970987638284],[-19.476671175362426,16.846497386359665,14.293480123570996,5.881510963221424,7.762813942254578,9.395518878268977,14.036862350793982],[-16.793720768155907,11.63627445292188,12.355624630682962,5.98625119369382,8.813973113266991,11.749806740663619,18.490528718912856],[279.0620027625058,-301.6971800994333,-302.06036095778086,277.2312742577633,141.59934809311142,112.01776576239955,-231.7938220179631]]},{"inputs":[608.5676825661523,-117.1361812272592,-66.40079545403373,415.1142358470308,260.4692033790577,416.1120505034858,100.05836243800556],"outputs":[626.9045505636838,-367.93651719464816,-58.09768477268148,-316.9997159869016,-19.099895705857463,-39.853766291440316,315.6257861001874],"biases":[4.271900867831967,14.499618720018141,17.089205840284755,-0.028157686698357054,-5.649997958490927,-11.540488411119917,-9.085127427954568],"weights":[[0.9179919025384355,-0.1765585096119897,-0.017786509558580965,-0.7139624033386369,0.36397439181480107,-0.6929942469925401,-0.5233708843854001],[0.25665719948632115,0.462259460903931,-0.1685813168491055,-0.42947544961879625,0.45988204075482875,-0.8019271822957998,0.9368555488980084],[-0.48908807406401644,-0.3400271388308491,-0.9876334407960934,0.7273567965385126,-0.930707549285978,0.17236560825932834,-0.6725049207315423],[-0.24251451644835265,-0.8907123865657647,-0.6149373514568435,0.34835946675155904,-0.7940703140483378,0.8639476332200897,0.821956430661311],[-0.9259673655047624,-0.9358678917869532,0.24688158621356604,-0.39476820146986724,-0.8111529224746061,0.13933259436384993,0.31872937093241527],[0.6837700156558788,-0.3942223294524301,-0.7021752218894415,-0.5824197579356891,0.44120865505452844,-0.07065666351800681,0.9519259105080724],[0.932069159233391,0.30867580314615695,0.1949316850310674,-0.8101351751371515,0.540745402518245,-0.30554301535006,-0.5748618915615715]],"singularOutputs":[[562.9321056101408,-92.94818431188415,6.264910937278422,-434.5226029258531,215.85305418166726,-433.2743913350457,-327.59173366097514],[-25.791943364478566,-39.64768926643986,36.83617752225158,50.27895641250759,-59.51882402751035,82.39419934534621,-118.82480878743507],[36.74773803276402,37.07769121434568,82.66885192614967,-48.32522755575336,56.14972364917231,-22.985701908457685,35.56973425537174],[-96.39932730943812,-355.24777298871436,-238.18004290351982,144.5808161539542,-335.27988958347845,347.0964731648885,332.1206881855685],[-236.91408118019828,-229.26514552176775,81.39425593029046,-102.85311664293803,-216.93035349404616,24.751361447569458,73.93405791231984],[288.7968441552003,-149.54104314269327,-275.0943655528709,-242.38003741506182,177.94224019613407,-40.94157754933257,387.0227151209572],[97.53321461969372,45.38521410705877,36.59375103177444,-81.08895666434856,48.456101513364835,-42.11262218141732,-66.60486692561975]]},{"inputs":[626.9045505636838,-367.93651719464816,-58.09768477268148,-316.9997159869016,-19.099895705857463,-39.853766291440316,315.6257861001874],"outputs":[-573.7873644877117,-156.1802630060651,191.87207801877554,-196.35523672449742],"biases":[-15.715956751990255,2.847596503953369,-1.0307212465882962,7.954252428132271],"weights":[[-0.5461526971451505,0.4385706741591804,0.7778806986843483,-0.18786674509046364],[-0.2136195552363216,0.4943801396596146,0.9946781597060763,0.6861437013536844],[-0.08905428218975553,-0.1817646657778984,0.4279994950685042,-0.8593865937527227],[-0.3134879838006943,0.3105648351853112,-0.17056689899315858,-0.8988060534292488],[-0.5838124324746681,-0.3318918992526214,-0.8604413340591606,-0.49267562531892417],[0.4286736355163403,0.7548332311340464,0.22308592491480783,0.39244081187424573],[-0.9460711118061704,-0.4990789259720887,0.12882721352060744,-0.6666838248556648]],"singularOutputs":[[-358.10156789491447,277.78954787812614,486.62622855428737,-109.82026496866698],[62.88247840633168,-179.05291025260897,-367.00913905842407,-244.50307134298717],[-10.542109137672416,13.407702759129515,-25.896500993945097,57.88262384984644],[83.65964507813626,-95.60136804530919,53.0389372910095,292.87551609251204],[-4.565200179941142,9.18669716529739,15.403618494950532,17.36430548854183],[-32.80021563716055,-27.23535067867567,-9.921535561052849,-7.685991971527013],[-314.32039512249105,-154.67458183202433,39.63046929195012,-202.46835387221657]]}],"costFrames":null}},{"costs":[323276.336278204,2015.8187508331307,43093.9121736219,22700.17430160012],"network":{"training":true,"trainingInProgress":false,"inputCount":10,"hiddenLayerInputCount":7,"hiddenLayers":1,"outputs":[-568.5739497006559,-44.897870226026654,207.59073238856763,-149.6657701722595],"layers":[{"inputs":[-380.0419755136952,-128.265925936075,-0.36353302197813836,0.4400459205649944,1.164188658629712,5.554397021644036,-319.11272187116214,1.164188658629712,5.554397021644036,-319.11272187116214],"outputs":[608.5676825661523,-117.1361812272592,-66.40079545403373,415.1142358470308,260.4692033790577,416.1120505034858,100.05836243800556],"biases":[-19.865679453846926,16.741369793556842,14.31385709305318,6.095686919386818,8.029702592520778,10.12431791573771,14.318536217675103],"weights":[[-0.5992745480433723,0.5508946860701143,-0.20609197936032264,0.2878833495502544,0.1984863063684259,-0.7843344899944313,-0.4416212002547939],[-0.18243615235413513,0.12226515413116412,-0.10436388785578532,0.2385582859301092,-0.4342130969331506,0.2789634739773934,-0.8582519821143042],[-0.884055845254968,0.6676591195161019,0.606941287722321,-0.40964893820218506,0.5116986141526487,-0.7112808073669574,0.6438470616892704],[0.438350508307753,-0.8361646029992638,-0.8421901055949921,0.7973981832891437,-0.16351592315774388,0.8433995630231033,-0.948679736684481],[0.9057765342082771,-0.6534921016766773,-0.7828155967324011,-0.4790135261063071,-0.48325651592081065,-0.332109573462706,0.6952787730242085],[0.9469190332775548,0.05297624823978975,-0.33682059358466865,-0.488629419641603,-0.5982276205662638,0.4802926052087477,-0.9229525372710163],[-0.7735751319617603,0.08251516010755888,0.5440354427894294,-0.70860208004041,-0.21925450684933745,0.16649475126206403,0.2314401844346765],[0.3341453943919839,0.09030116555727408,-0.017503150654437416,-0.1839701448539155,-0.22924862588881156,-0.6260145484723698,-0.2419486436267646],[0.5530678980491306,-0.9191088286886475,-0.3525553637486656,-0.01970253931552879,0.14119813864405373,0.29264901637239915,0.751115284878014],[-0.9367463649319538,0.9978873547434308,0.9914183809273711,-0.8496545852153277,-0.41856571783596186,-0.3193023682954266,0.7712395694929488]],"singularOutputs":[[207.88380365963314,-192.62173500052631,92.6374600666779,-103.31206996119153,-67.40342539215234,308.204346956748,182.15312959123617],[3.5346625520710653,1.0589165892061505,27.700187803164177,-24.50321251516157,63.72444752422203,-25.657190376316823,124.40302139003802],[-19.544295960823952,16.49865365618789,14.093213892564181,6.2446078358415935,7.8436832489758395,10.38289197711487,14.084476549647457],[-19.672785100888508,16.373418971086167,13.943254772745902,6.446578737009143,7.957748077587794,10.495452452852325,13.901073569624424],[-18.811184685468724,15.98058170028076,13.402512053538867,5.538024804963627,7.4671008374768615,9.737679716890076,15.127971879815869],[-14.606115195672027,17.035620908997807,12.44302179121812,3.3816451262418448,4.706908878582324,12.792053731626833,9.192091393538163],[226.99198647831383,-9.590267544001009,-159.29477384986455,232.21962540464915,77.99660505573222,-43.00627533676165,-59.536970987638284],[-19.476671175362426,16.846497386359665,14.293480123570996,5.881510963221424,7.762813942254578,9.395518878268977,14.036862350793982],[-16.793720768155907,11.63627445292188,12.355624630682962,5.98625119369382,8.813973113266991,11.749806740663619,18.490528718912856],[279.0620027625058,-301.6971800994333,-302.06036095778086,277.2312742577633,141.59934809311142,112.01776576239955,-231.7938220179631]]},{"inputs":[608.5676825661523,-117.1361812272592,-66.40079545403373,415.1142358470308,260.4692033790577,416.1120505034858,100.05836243800556],"outputs":[626.9045505636838,-367.93651719464816,-58.09768477268148,-316.9997159869016,-19.099895705857463,-39.853766291440316,315.6257861001874],"biases":[4.271900867831967,14.499618720018141,17.089205840284755,-0.028157686698357054,-5.649997958490927,-11.540488411119917,-9.085127427954568],"weights":[[0.9179919025384355,-0.1765585096119897,-0.017786509558580965,-0.7139624033386369,0.36397439181480107,-0.6929942469925401,-0.5233708843854001],[0.25665719948632115,0.462259460903931,-0.1685813168491055,-0.42947544961879625,0.45988204075482875,-0.8019271822957998,0.9368555488980084],[-0.48908807406401644,-0.3400271388308491,-0.9876334407960934,0.7273567965385126,-0.930707549285978,0.17236560825932834,-0.6725049207315423],[-0.24251451644835265,-0.8907123865657647,-0.6149373514568435,0.34835946675155904,-0.7940703140483378,0.8639476332200897,0.821956430661311],[-0.9259673655047624,-0.9358678917869532,0.24688158621356604,-0.39476820146986724,-0.8111529224746061,0.13933259436384993,0.31872937093241527],[0.6837700156558788,-0.3942223294524301,-0.7021752218894415,-0.5824197579356891,0.44120865505452844,-0.07065666351800681,0.9519259105080724],[0.932069159233391,0.30867580314615695,0.1949316850310674,-0.8101351751371515,0.540745402518245,-0.30554301535006,-0.5748618915615715]],"singularOutputs":[[562.9321056101408,-92.94818431188415,6.264910937278422,-434.5226029258531,215.85305418166726,-433.2743913350457,-327.59173366097514],[-25.791943364478566,-39.64768926643986,36.83617752225158,50.27895641250759,-59.51882402751035,82.39419934534621,-118.82480878743507],[36.74773803276402,37.07769121434568,82.66885192614967,-48.32522755575336,56.14972364917231,-22.985701908457685,35.56973425537174],[-96.39932730943812,-355.24777298871436,-238.18004290351982,144.5808161539542,-335.27988958347845,347.0964731648885,332.1206881855685],[-236.91408118019828,-229.26514552176775,81.39425593029046,-102.85311664293803,-216.93035349404616,24.751361447569458,73.93405791231984],[288.7968441552003,-149.54104314269327,-275.0943655528709,-242.38003741506182,177.94224019613407,-40.94157754933257,387.0227151209572],[97.53321461969372,45.38521410705877,36.59375103177444,-81.08895666434856,48.456101513364835,-42.11262218141732,-66.60486692561975]]},{"inputs":[626.9045505636838,-367.93651719464816,-58.09768477268148,-316.9997159869016,-19.099895705857463,-39.853766291440316,315.6257861001874],"outputs":[-573.7873644877117,-156.1802630060651,191.87207801877554,-196.35523672449742],"biases":[-15.715956751990255,2.847596503953369,-1.0307212465882962,7.954252428132271],"weights":[[-0.5461526971451505,0.4385706741591804,0.7778806986843483,-0.18786674509046364],[-0.2136195552363216,0.4943801396596146,0.9946781597060763,0.6861437013536844],[-0.08905428218975553,-0.1817646657778984,0.4279994950685042,-0.8593865937527227],[-0.3134879838006943,0.3105648351853112,-0.17056689899315858,-0.8988060534292488],[-0.5838124324746681,-0.3318918992526214,-0.8604413340591606,-0.49267562531892417],[0.4286736355163403,0.7548332311340464,0.22308592491480783,0.39244081187424573],[-0.9460711118061704,-0.4990789259720887,0.12882721352060744,-0.6666838248556648]],"singularOutputs":[[-358.10156789491447,277.78954787812614,486.62622855428737,-109.82026496866698],[62.88247840633168,-179.05291025260897,-367.00913905842407,-244.50307134298717],[-10.542109137672416,13.407702759129515,-25.896500993945097,57.88262384984644],[83.65964507813626,-95.60136804530919,53.0389372910095,292.87551609251204],[-4.565200179941142,9.18669716529739,15.403618494950532,17.36430548854183],[-32.80021563716055,-27.23535067867567,-9.921535561052849,-7.685991971527013],[-314.32039512249105,-154.67458183202433,39.63046929195012,-202.46835387221657]]}],"costFrames":null}},{"costs":[347221.6022588587,7031.1668089361865,19333.41734944907,103399.81853641848],"network":{"training":true,"trainingInProgress":false,"inputCount":10,"hiddenLayerInputCount":7,"hiddenLayers":1,"outputs":[-589.2551249321966,-83.85205309911133,139.0446595502649,-320.5584216536996],"layers":[{"inputs":[-380.0419755136952,-128.265925936075,-0.36353302197813836,0.4400459205649944,1.164188658629712,5.554397021644036,-319.11272187116214,1.164188658629712,5.554397021644036,-319.11272187116214],"outputs":[608.5676825661523,-117.1361812272592,-66.40079545403373,415.1142358470308,260.4692033790577,416.1120505034858,100.05836243800556],"biases":[-19.865679453846926,16.741369793556842,14.31385709305318,6.095686919386818,8.029702592520778,10.12431791573771,14.318536217675103],"weights":[[-0.5992745480433723,0.5508946860701143,-0.20609197936032264,0.2878833495502544,0.1984863063684259,-0.7843344899944313,-0.4416212002547939],[-0.18243615235413513,0.12226515413116412,-0.10436388785578532,0.2385582859301092,-0.4342130969331506,0.2789634739773934,-0.8582519821143042],[-0.884055845254968,0.6676591195161019,0.606941287722321,-0.40964893820218506,0.5116986141526487,-0.7112808073669574,0.6438470616892704],[0.438350508307753,-0.8361646029992638,-0.8421901055949921,0.7973981832891437,-0.16351592315774388,0.8433995630231033,-0.948679736684481],[0.9057765342082771,-0.6534921016766773,-0.7828155967324011,-0.4790135261063071,-0.48325651592081065,-0.332109573462706,0.6952787730242085],[0.9469190332775548,0.05297624823978975,-0.33682059358466865,-0.488629419641603,-0.5982276205662638,0.4802926052087477,-0.9229525372710163],[-0.7735751319617603,0.08251516010755888,0.5440354427894294,-0.70860208004041,-0.21925450684933745,0.16649475126206403,0.2314401844346765],[0.3341453943919839,0.09030116555727408,-0.017503150654437416,-0.1839701448539155,-0.22924862588881156,-0.6260145484723698,-0.2419486436267646],[0.5530678980491306,-0.9191088286886475,-0.3525553637486656,-0.01970253931552879,0.14119813864405373,0.29264901637239915,0.751115284878014],[-0.9367463649319538,0.9978873547434308,0.9914183809273711,-0.8496545852153277,-0.41856571783596186,-0.3193023682954266,0.7712395694929488]],"singularOutputs":[[207.88380365963314,-192.62173500052631,92.6374600666779,-103.31206996119153,-67.40342539215234,308.204346956748,182.15312959123617],[3.5346625520710653,1.0589165892061505,27.700187803164177,-24.50321251516157,63.72444752422203,-25.657190376316823,124.40302139003802],[-19.544295960823952,16.49865365618789,14.093213892564181,6.2446078358415935,7.8436832489758395,10.38289197711487,14.084476549647457],[-19.672785100888508,16.373418971086167,13.943254772745902,6.446578737009143,7.957748077587794,10.495452452852325,13.901073569624424],[-18.811184685468724,15.98058170028076,13.402512053538867,5.538024804963627,7.4671008374768615,9.737679716890076,15.127971879815869],[-14.606115195672027,17.035620908997807,12.44302179121812,3.3816451262418448,4.706908878582324,12.792053731626833,9.192091393538163],[226.99198647831383,-9.590267544001009,-159.29477384986455,232.21962540464915,77.99660505573222,-43.00627533676165,-59.536970987638284],[-19.476671175362426,16.846497386359665,14.293480123570996,5.881510963221424,7.762813942254578,9.395518878268977,14.036862350793982],[-16.793720768155907,11.63627445292188,12.355624630682962,5.98625119369382,8.813973113266991,11.749806740663619,18.490528718912856],[279.0620027625058,-301.6971800994333,-302.06036095778086,277.2312742577633,141.59934809311142,112.01776576239955,-231.7938220179631]]},{"inputs":[608.5676825661523,-117.1361812272592,-66.40079545403373,415.1142358470308,260.4692033790577,416.1120505034858,100.05836243800556],"outputs":[626.9045505636838,-367.93651719464816,-58.09768477268148,-316.9997159869016,-19.099895705857463,-39.853766291440316,315.6257861001874],"biases":[4.271900867831967,14.499618720018141,17.089205840284755,-0.028157686698357054,-5.649997958490927,-11.540488411119917,-9.085127427954568],"weights":[[0.9179919025384355,-0.1765585096119897,-0.017786509558580965,-0.7139624033386369,0.36397439181480107,-0.6929942469925401,-0.5233708843854001],[0.25665719948632115,0.462259460903931,-0.1685813168491055,-0.42947544961879625,0.45988204075482875,-0.8019271822957998,0.9368555488980084],[-0.48908807406401644,-0.3400271388308491,-0.9876334407960934,0.7273567965385126,-0.930707549285978,0.17236560825932834,-0.6725049207315423],[-0.24251451644835265,-0.8907123865657647,-0.6149373514568435,0.34835946675155904,-0.7940703140483378,0.8639476332200897,0.821956430661311],[-0.9259673655047624,-0.9358678917869532,0.24688158621356604,-0.39476820146986724,-0.8111529224746061,0.13933259436384993,0.31872937093241527],[0.6837700156558788,-0.3942223294524301,-0.7021752218894415,-0.5824197579356891,0.44120865505452844,-0.07065666351800681,0.9519259105080724],[0.932069159233391,0.30867580314615695,0.1949316850310674,-0.8101351751371515,0.540745402518245,-0.30554301535006,-0.5748618915615715]],"singularOutputs":[[562.9321056101408,-92.94818431188415,6.264910937278422,-434.5226029258531,215.85305418166726,-433.2743913350457,-327.59173366097514],[-25.791943364478566,-39.64768926643986,36.83617752225158,50.27895641250759,-59.51882402751035,82.39419934534621,-118.82480878743507],[36.74773803276402,37.07769121434568,82.66885192614967,-48.32522755575336,56.14972364917231,-22.985701908457685,35.56973425537174],[-96.39932730943812,-355.24777298871436,-238.18004290351982,144.5808161539542,-335.27988958347845,347.0964731648885,332.1206881855685],[-236.91408118019828,-229.26514552176775,81.39425593029046,-102.85311664293803,-216.93035349404616,24.751361447569458,73.93405791231984],[288.7968441552003,-149.54104314269327,-275.0943655528709,-242.38003741506182,177.94224019613407,-40.94157754933257,387.0227151209572],[97.53321461969372,45.38521410705877,36.59375103177444,-81.08895666434856,48.456101513364835,-42.11262218141732,-66.60486692561975]]},{"inputs":[626.9045505636838,-367.93651719464816,-58.09768477268148,-316.9997159869016,-19.099895705857463,-39.853766291440316,315.6257861001874],"outputs":[-573.7873644877117,-156.1802630060651,191.87207801877554,-196.35523672449742],"biases":[-15.715956751990255,2.847596503953369,-1.0307212465882962,7.954252428132271],"weights":[[-0.5461526971451505,0.4385706741591804,0.7778806986843483,-0.18786674509046364],[-0.2136195552363216,0.4943801396596146,0.9946781597060763,0.6861437013536844],[-0.08905428218975553,-0.1817646657778984,0.4279994950685042,-0.8593865937527227],[-0.3134879838006943,0.3105648351853112,-0.17056689899315858,-0.8988060534292488],[-0.5838124324746681,-0.3318918992526214,-0.8604413340591606,-0.49267562531892417],[0.4286736355163403,0.7548332311340464,0.22308592491480783,0.39244081187424573],[-0.9460711118061704,-0.4990789259720887,0.12882721352060744,-0.6666838248556648]],"singularOutputs":[[-358.10156789491447,277.78954787812614,486.62622855428737,-109.82026496866698],[62.88247840633168,-179.05291025260897,-367.00913905842407,-244.50307134298717],[-10.542109137672416,13.407702759129515,-25.896500993945097,57.88262384984644],[83.65964507813626,-95.60136804530919,53.0389372910095,292.87551609251204],[-4.565200179941142,9.18669716529739,15.403618494950532,17.36430548854183],[-32.80021563716055,-27.23535067867567,-9.921535561052849,-7.685991971527013],[-314.32039512249105,-154.67458183202433,39.63046929195012,-202.46835387221657]]}],"costFrames":null}},{"costs":[381554.0948357665,14028.743012970006,63115.82762960031,43487.354261926994],"network":{"training":true,"trainingInProgress":false,"inputCount":10,"hiddenLayerInputCount":7,"hiddenLayers":1,"outputs":[-617.7006514775312,-118.44299478217361,251.22863616554605,-207.53621810593717],"layers":[{"inputs":[-380.0419755136952,-128.265925936075,-0.36353302197813836,0.4400459205649944,1.164188658629712,5.554397021644036,-319.11272187116214,1.164188658629712,5.554397021644036,-319.11272187116214],"outputs":[608.5676825661523,-117.1361812272592,-66.40079545403373,415.1142358470308,260.4692033790577,416.1120505034858,100.05836243800556],"biases":[-19.865679453846926,16.741369793556842,14.31385709305318,6.095686919386818,8.029702592520778,10.12431791573771,14.318536217675103],"weights":[[-0.5992745480433723,0.5508946860701143,-0.20609197936032264,0.2878833495502544,0.1984863063684259,-0.7843344899944313,-0.4416212002547939],[-0.18243615235413513,0.12226515413116412,-0.10436388785578532,0.2385582859301092,-0.4342130969331506,0.2789634739773934,-0.8582519821143042],[-0.884055845254968,0.6676591195161019,0.606941287722321,-0.40964893820218506,0.5116986141526487,-0.7112808073669574,0.6438470616892704],[0.438350508307753,-0.8361646029992638,-0.8421901055949921,0.7973981832891437,-0.16351592315774388,0.8433995630231033,-0.948679736684481],[0.9057765342082771,-0.6534921016766773,-0.7828155967324011,-0.4790135261063071,-0.48325651592081065,-0.332109573462706,0.6952787730242085],[0.9469190332775548,0.05297624823978975,-0.33682059358466865,-0.488629419641603,-0.5982276205662638,0.4802926052087477,-0.9229525372710163],[-0.7735751319617603,0.08251516010755888,0.5440354427894294,-0.70860208004041,-0.21925450684933745,0.16649475126206403,0.2314401844346765],[0.3341453943919839,0.09030116555727408,-0.017503150654437416,-0.1839701448539155,-0.22924862588881156,-0.6260145484723698,-0.2419486436267646],[0.5530678980491306,-0.9191088286886475,-0.3525553637486656,-0.01970253931552879,0.14119813864405373,0.29264901637239915,0.751115284878014],[-0.9367463649319538,0.9978873547434308,0.9914183809273711,-0.8496545852153277,-0.41856571783596186,-0.3193023682954266,0.7712395694929488]],"singularOutputs":[[207.88380365963314,-192.62173500052631,92.6374600666779,-103.31206996119153,-67.40342539215234,308.204346956748,182.15312959123617],[3.5346625520710653,1.0589165892061505,27.700187803164177,-24.50321251516157,63.72444752422203,-25.657190376316823,124.40302139003802],[-19.544295960823952,16.49865365618789,14.093213892564181,6.2446078358415935,7.8436832489758395,10.38289197711487,14.084476549647457],[-19.672785100888508,16.373418971086167,13.943254772745902,6.446578737009143,7.957748077587794,10.495452452852325,13.901073569624424],[-18.811184685468724,15.98058170028076,13.402512053538867,5.538024804963627,7.4671008374768615,9.737679716890076,15.127971879815869],[-14.606115195672027,17.035620908997807,12.44302179121812,3.3816451262418448,4.706908878582324,12.792053731626833,9.192091393538163],[226.99198647831383,-9.590267544001009,-159.29477384986455,232.21962540464915,77.99660505573222,-43.00627533676165,-59.536970987638284],[-19.476671175362426,16.846497386359665,14.293480123570996,5.881510963221424,7.762813942254578,9.395518878268977,14.036862350793982],[-16.793720768155907,11.63627445292188,12.355624630682962,5.98625119369382,8.813973113266991,11.749806740663619,18.490528718912856],[279.0620027625058,-301.6971800994333,-302.06036095778086,277.2312742577633,141.59934809311142,112.01776576239955,-231.7938220179631]]},{"inputs":[608.5676825661523,-117.1361812272592,-66.40079545403373,415.1142358470308,260.4692033790577,416.1120505034858,100.05836243800556],"outputs":[626.9045505636838,-367.93651719464816,-58.09768477268148,-316.9997159869016,-19.099895705857463,-39.853766291440316,315.6257861001874],"biases":[4.271900867831967,14.499618720018141,17.089205840284755,-0.028157686698357054,-5.649997958490927,-11.540488411119917,-9.085127427954568],"weights":[[0.9179919025384355,-0.1765585096119897,-0.017786509558580965,-0.7139624033386369,0.36397439181480107,-0.6929942469925401,-0.5233708843854001],[0.25665719948632115,0.462259460903931,-0.1685813168491055,-0.42947544961879625,0.45988204075482875,-0.8019271822957998,0.9368555488980084],[-0.48908807406401644,-0.3400271388308491,-0.9876334407960934,0.7273567965385126,-0.930707549285978,0.17236560825932834,-0.6725049207315423],[-0.24251451644835265,-0.8907123865657647,-0.6149373514568435,0.34835946675155904,-0.7940703140483378,0.8639476332200897,0.821956430661311],[-0.9259673655047624,-0.9358678917869532,0.24688158621356604,-0.39476820146986724,-0.8111529224746061,0.13933259436384993,0.31872937093241527],[0.6837700156558788,-0.3942223294524301,-0.7021752218894415,-0.5824197579356891,0.44120865505452844,-0.07065666351800681,0.9519259105080724],[0.932069159233391,0.30867580314615695,0.1949316850310674,-0.8101351751371515,0.540745402518245,-0.30554301535006,-0.5748618915615715]],"singularOutputs":[[562.9321056101408,-92.94818431188415,6.264910937278422,-434.5226029258531,215.85305418166726,-433.2743913350457,-327.59173366097514],[-25.791943364478566,-39.64768926643986,36.83617752225158,50.27895641250759,-59.51882402751035,82.39419934534621,-118.82480878743507],[36.74773803276402,37.07769121434568,82.66885192614967,-48.32522755575336,56.14972364917231,-22.985701908457685,35.56973425537174],[-96.39932730943812,-355.24777298871436,-238.18004290351982,144.5808161539542,-335.27988958347845,347.0964731648885,332.1206881855685],[-236.91408118019828,-229.26514552176775,81.39425593029046,-102.85311664293803,-216.93035349404616,24.751361447569458,73.93405791231984],[288.7968441552003,-149.54104314269327,-275.0943655528709,-242.38003741506182,177.94224019613407,-40.94157754933257,387.0227151209572],[97.53321461969372,45.38521410705877,36.59375103177444,-81.08895666434856,48.456101513364835,-42.11262218141732,-66.60486692561975]]},{"inputs":[626.9045505636838,-367.93651719464816,-58.09768477268148,-316.9997159869016,-19.099895705857463,-39.853766291440316,315.6257861001874],"outputs":[-573.7873644877117,-156.1802630060651,191.87207801877554,-196.35523672449742],"biases":[-15.715956751990255,2.847596503953369,-1.0307212465882962,7.954252428132271],"weights":[[-0.5461526971451505,0.4385706741591804,0.7778806986843483,-0.18786674509046364],[-0.2136195552363216,0.4943801396596146,0.9946781597060763,0.6861437013536844],[-0.08905428218975553,-0.1817646657778984,0.4279994950685042,-0.8593865937527227],[-0.3134879838006943,0.3105648351853112,-0.17056689899315858,-0.8988060534292488],[-0.5838124324746681,-0.3318918992526214,-0.8604413340591606,-0.49267562531892417],[0.4286736355163403,0.7548332311340464,0.22308592491480783,0.39244081187424573],[-0.9460711118061704,-0.4990789259720887,0.12882721352060744,-0.6666838248556648]],"singularOutputs":[[-358.10156789491447,277.78954787812614,486.62622855428737,-109.82026496866698],[62.88247840633168,-179.05291025260897,-367.00913905842407,-244.50307134298717],[-10.542109137672416,13.407702759129515,-25.896500993945097,57.88262384984644],[83.65964507813626,-95.60136804530919,53.0389372910095,292.87551609251204],[-4.565200179941142,9.18669716529739,15.403618494950532,17.36430548854183],[-32.80021563716055,-27.23535067867567,-9.921535561052849,-7.685991971527013],[-314.32039512249105,-154.67458183202433,39.63046929195012,-202.46835387221657]]}],"costFrames":null}},{"costs":[452397.3807691833,3790.8877466767112,71142.44890562454,93698.98302086414],"network":{"training":true,"trainingInProgress":false,"inputCount":10,"hiddenLayerInputCount":7,"hiddenLayers":1,"outputs":[-672.6049217550993,-61.57018553388248,266.7254185592827,-305.10289613276143],"layers":[{"inputs":[-380.0419755136952,-128.265925936075,-0.36353302197813836,0.4400459205649944,1.164188658629712,5.554397021644036,-319.11272187116214,1.164188658629712,5.554397021644036,-319.11272187116214],"outputs":[608.5676825661523,-117.1361812272592,-66.40079545403373,415.1142358470308,260.4692033790577,416.1120505034858,100.05836243800556],"biases":[-19.865679453846926,16.741369793556842,14.31385709305318,6.095686919386818,8.029702592520778,10.12431791573771,14.318536217675103],"weights":[[-0.5992745480433723,0.5508946860701143,-0.20609197936032264,0.2878833495502544,0.1984863063684259,-0.7843344899944313,-0.4416212002547939],[-0.18243615235413513,0.12226515413116412,-0.10436388785578532,0.2385582859301092,-0.4342130969331506,0.2789634739773934,-0.8582519821143042],[-0.884055845254968,0.6676591195161019,0.606941287722321,-0.40964893820218506,0.5116986141526487,-0.7112808073669574,0.6438470616892704],[0.438350508307753,-0.8361646029992638,-0.8421901055949921,0.7973981832891437,-0.16351592315774388,0.8433995630231033,-0.948679736684481],[0.9057765342082771,-0.6534921016766773,-0.7828155967324011,-0.4790135261063071,-0.48325651592081065,-0.332109573462706,0.6952787730242085],[0.9469190332775548,0.05297624823978975,-0.33682059358466865,-0.488629419641603,-0.5982276205662638,0.4802926052087477,-0.9229525372710163],[-0.7735751319617603,0.08251516010755888,0.5440354427894294,-0.70860208004041,-0.21925450684933745,0.16649475126206403,0.2314401844346765],[0.3341453943919839,0.09030116555727408,-0.017503150654437416,-0.1839701448539155,-0.22924862588881156,-0.6260145484723698,-0.2419486436267646],[0.5530678980491306,-0.9191088286886475,-0.3525553637486656,-0.01970253931552879,0.14119813864405373,0.29264901637239915,0.751115284878014],[-0.9367463649319538,0.9978873547434308,0.9914183809273711,-0.8496545852153277,-0.41856571783596186,-0.3193023682954266,0.7712395694929488]],"singularOutputs":[[207.88380365963314,-192.62173500052631,92.6374600666779,-103.31206996119153,-67.40342539215234,308.204346956748,182.15312959123617],[3.5346625520710653,1.0589165892061505,27.700187803164177,-24.50321251516157,63.72444752422203,-25.657190376316823,124.40302139003802],[-19.544295960823952,16.49865365618789,14.093213892564181,6.2446078358415935,7.8436832489758395,10.38289197711487,14.084476549647457],[-19.672785100888508,16.373418971086167,13.943254772745902,6.446578737009143,7.957748077587794,10.495452452852325,13.901073569624424],[-18.811184685468724,15.98058170028076,13.402512053538867,5.538024804963627,7.4671008374768615,9.737679716890076,15.127971879815869],[-14.606115195672027,17.035620908997807,12.44302179121812,3.3816451262418448,4.706908878582324,12.792053731626833,9.192091393538163],[226.99198647831383,-9.590267544001009,-159.29477384986455,232.21962540464915,77.99660505573222,-43.00627533676165,-59.536970987638284],[-19.476671175362426,16.846497386359665,14.293480123570996,5.881510963221424,7.762813942254578,9.395518878268977,14.036862350793982],[-16.793720768155907,11.63627445292188,12.355624630682962,5.98625119369382,8.813973113266991,11.749806740663619,18.490528718912856],[279.0620027625058,-301.6971800994333,-302.06036095778086,277.2312742577633,141.59934809311142,112.01776576239955,-231.7938220179631]]},{"inputs":[608.5676825661523,-117.1361812272592,-66.40079545403373,415.1142358470308,260.4692033790577,416.1120505034858,100.05836243800556],"outputs":[626.9045505636838,-367.93651719464816,-58.09768477268148,-316.9997159869016,-19.099895705857463,-39.853766291440316,315.6257861001874],"biases":[4.271900867831967,14.499618720018141,17.089205840284755,-0.028157686698357054,-5.649997958490927,-11.540488411119917,-9.085127427954568],"weights":[[0.9179919025384355,-0.1765585096119897,-0.017786509558580965,-0.7139624033386369,0.36397439181480107,-0.6929942469925401,-0.5233708843854001],[0.25665719948632115,0.462259460903931,-0.1685813168491055,-0.42947544961879625,0.45988204075482875,-0.8019271822957998,0.9368555488980084],[-0.48908807406401644,-0.3400271388308491,-0.9876334407960934,0.7273567965385126,-0.930707549285978,0.17236560825932834,-0.6725049207315423],[-0.24251451644835265,-0.8907123865657647,-0.6149373514568435,0.34835946675155904,-0.7940703140483378,0.8639476332200897,0.821956430661311],[-0.9259673655047624,-0.9358678917869532,0.24688158621356604,-0.39476820146986724,-0.8111529224746061,0.13933259436384993,0.31872937093241527],[0.6837700156558788,-0.3942223294524301,-0.7021752218894415,-0.5824197579356891,0.44120865505452844,-0.07065666351800681,0.9519259105080724],[0.932069159233391,0.30867580314615695,0.1949316850310674,-0.8101351751371515,0.540745402518245,-0.30554301535006,-0.5748618915615715]],"singularOutputs":[[562.9321056101408,-92.94818431188415,6.264910937278422,-434.5226029258531,215.85305418166726,-433.2743913350457,-327.59173366097514],[-25.791943364478566,-39.64768926643986,36.83617752225158,50.27895641250759,-59.51882402751035,82.39419934534621,-118.82480878743507],[36.74773803276402,37.07769121434568,82.66885192614967,-48.32522755575336,56.14972364917231,-22.985701908457685,35.56973425537174],[-96.39932730943812,-355.24777298871436,-238.18004290351982,144.5808161539542,-335.27988958347845,347.0964731648885,332.1206881855685],[-236.91408118019828,-229.26514552176775,81.39425593029046,-102.85311664293803,-216.93035349404616,24.751361447569458,73.93405791231984],[288.7968441552003,-149.54104314269327,-275.0943655528709,-242.38003741506182,177.94224019613407,-40.94157754933257,387.0227151209572],[97.53321461969372,45.38521410705877,36.59375103177444,-81.08895666434856,48.456101513364835,-42.11262218141732,-66.60486692561975]]},{"inputs":[626.9045505636838,-367.93651719464816,-58.09768477268148,-316.9997159869016,-19.099895705857463,-39.853766291440316,315.6257861001874],"outputs":[-573.7873644877117,-156.1802630060651,191.87207801877554,-196.35523672449742],"biases":[-15.715956751990255,2.847596503953369,-1.0307212465882962,7.954252428132271],"weights":[[-0.5461526971451505,0.4385706741591804,0.7778806986843483,-0.18786674509046364],[-0.2136195552363216,0.4943801396596146,0.9946781597060763,0.6861437013536844],[-0.08905428218975553,-0.1817646657778984,0.4279994950685042,-0.8593865937527227],[-0.3134879838006943,0.3105648351853112,-0.17056689899315858,-0.8988060534292488],[-0.5838124324746681,-0.3318918992526214,-0.8604413340591606,-0.49267562531892417],[0.4286736355163403,0.7548332311340464,0.22308592491480783,0.39244081187424573],[-0.9460711118061704,-0.4990789259720887,0.12882721352060744,-0.6666838248556648]],"singularOutputs":[[-358.10156789491447,277.78954787812614,486.62622855428737,-109.82026496866698],[62.88247840633168,-179.05291025260897,-367.00913905842407,-244.50307134298717],[-10.542109137672416,13.407702759129515,-25.896500993945097,57.88262384984644],[83.65964507813626,-95.60136804530919,53.0389372910095,292.87551609251204],[-4.565200179941142,9.18669716529739,15.403618494950532,17.36430548854183],[-32.80021563716055,-27.23535067867567,-9.921535561052849,-7.685991971527013],[-314.32039512249105,-154.67458183202433,39.63046929195012,-202.46835387221657]]}],"costFrames":null}},{"costs":[410435.47744362836,2483.7109418669916,91161.60063078313,54304.41109118041],"network":{"training":true,"trainingInProgress":false,"inputCount":10,"hiddenLayerInputCount":7,"hiddenLayers":1,"outputs":[-640.6523842487659,-48.83684321731255,301.9297942084933,-232.03306866447176],"layers":[{"inputs":[-380.0419755136952,-128.265925936075,-0.36353302197813836,0.4400459205649944,1.164188658629712,5.554397021644036,-319.11272187116214,1.164188658629712,5.554397021644036,-319.11272187116214],"outputs":[608.5676825661523,-117.1361812272592,-66.40079545403373,415.1142358470308,260.4692033790577,416.1120505034858,100.05836243800556],"biases":[-19.865679453846926,16.741369793556842,14.31385709305318,6.095686919386818,8.029702592520778,10.12431791573771,14.318536217675103],"weights":[[-0.5992745480433723,0.5508946860701143,-0.20609197936032264,0.2878833495502544,0.1984863063684259,-0.7843344899944313,-0.4416212002547939],[-0.18243615235413513,0.12226515413116412,-0.10436388785578532,0.2385582859301092,-0.4342130969331506,0.2789634739773934,-0.8582519821143042],[-0.884055845254968,0.6676591195161019,0.606941287722321,-0.40964893820218506,0.5116986141526487,-0.7112808073669574,0.6438470616892704],[0.438350508307753,-0.8361646029992638,-0.8421901055949921,0.7973981832891437,-0.16351592315774388,0.8433995630231033,-0.948679736684481],[0.9057765342082771,-0.6534921016766773,-0.7828155967324011,-0.4790135261063071,-0.48325651592081065,-0.332109573462706,0.6952787730242085],[0.9469190332775548,0.05297624823978975,-0.33682059358466865,-0.488629419641603,-0.5982276205662638,0.4802926052087477,-0.9229525372710163],[-0.7735751319617603,0.08251516010755888,0.5440354427894294,-0.70860208004041,-0.21925450684933745,0.16649475126206403,0.2314401844346765],[0.3341453943919839,0.09030116555727408,-0.017503150654437416,-0.1839701448539155,-0.22924862588881156,-0.6260145484723698,-0.2419486436267646],[0.5530678980491306,-0.9191088286886475,-0.3525553637486656,-0.01970253931552879,0.14119813864405373,0.29264901637239915,0.751115284878014],[-0.9367463649319538,0.9978873547434308,0.9914183809273711,-0.8496545852153277,-0.41856571783596186,-0.3193023682954266,0.7712395694929488]],"singularOutputs":[[207.88380365963314,-192.62173500052631,92.6374600666779,-103.31206996119153,-67.40342539215234,308.204346956748,182.15312959123617],[3.5346625520710653,1.0589165892061505,27.700187803164177,-24.50321251516157,63.72444752422203,-25.657190376316823,124.40302139003802],[-19.544295960823952,16.49865365618789,14.093213892564181,6.2446078358415935,7.8436832489758395,10.38289197711487,14.084476549647457],[-19.672785100888508,16.373418971086167,13.943254772745902,6.446578737009143,7.957748077587794,10.495452452852325,13.901073569624424],[-18.811184685468724,15.98058170028076,13.402512053538867,5.538024804963627,7.4671008374768615,9.737679716890076,15.127971879815869],[-14.606115195672027,17.035620908997807,12.44302179121812,3.3816451262418448,4.706908878582324,12.792053731626833,9.192091393538163],[226.99198647831383,-9.590267544001009,-159.29477384986455,232.21962540464915,77.99660505573222,-43.00627533676165,-59.536970987638284],[-19.476671175362426,16.846497386359665,14.293480123570996,5.881510963221424,7.762813942254578,9.395518878268977,14.036862350793982],[-16.793720768155907,11.63627445292188,12.355624630682962,5.98625119369382,8.813973113266991,11.749806740663619,18.490528718912856],[279.0620027625058,-301.6971800994333,-302.06036095778086,277.2312742577633,141.59934809311142,112.01776576239955,-231.7938220179631]]},{"inputs":[608.5676825661523,-117.1361812272592,-66.40079545403373,415.1142358470308,260.4692033790577,416.1120505034858,100.05836243800556],"outputs":[626.9045505636838,-367.93651719464816,-58.09768477268148,-316.9997159869016,-19.099895705857463,-39.853766291440316,315.6257861001874],"biases":[4.271900867831967,14.499618720018141,17.089205840284755,-0.028157686698357054,-5.649997958490927,-11.540488411119917,-9.085127427954568],"weights":[[0.9179919025384355,-0.1765585096119897,-0.017786509558580965,-0.7139624033386369,0.36397439181480107,-0.6929942469925401,-0.5233708843854001],[0.25665719948632115,0.462259460903931,-0.1685813168491055,-0.42947544961879625,0.45988204075482875,-0.8019271822957998,0.9368555488980084],[-0.48908807406401644,-0.3400271388308491,-0.9876334407960934,0.7273567965385126,-0.930707549285978,0.17236560825932834,-0.6725049207315423],[-0.24251451644835265,-0.8907123865657647,-0.6149373514568435,0.34835946675155904,-0.7940703140483378,0.8639476332200897,0.821956430661311],[-0.9259673655047624,-0.9358678917869532,0.24688158621356604,-0.39476820146986724,-0.8111529224746061,0.13933259436384993,0.31872937093241527],[0.6837700156558788,-0.3942223294524301,-0.7021752218894415,-0.5824197579356891,0.44120865505452844,-0.07065666351800681,0.9519259105080724],[0.932069159233391,0.30867580314615695,0.1949316850310674,-0.8101351751371515,0.540745402518245,-0.30554301535006,-0.5748618915615715]],"singularOutputs":[[562.9321056101408,-92.94818431188415,6.264910937278422,-434.5226029258531,215.85305418166726,-433.2743913350457,-327.59173366097514],[-25.791943364478566,-39.64768926643986,36.83617752225158,50.27895641250759,-59.51882402751035,82.39419934534621,-118.82480878743507],[36.74773803276402,37.07769121434568,82.66885192614967,-48.32522755575336,56.14972364917231,-22.985701908457685,35.56973425537174],[-96.39932730943812,-355.24777298871436,-238.18004290351982,144.5808161539542,-335.27988958347845,347.0964731648885,332.1206881855685],[-236.91408118019828,-229.26514552176775,81.39425593029046,-102.85311664293803,-216.93035349404616,24.751361447569458,73.93405791231984],[288.7968441552003,-149.54104314269327,-275.0943655528709,-242.38003741506182,177.94224019613407,-40.94157754933257,387.0227151209572],[97.53321461969372,45.38521410705877,36.59375103177444,-81.08895666434856,48.456101513364835,-42.11262218141732,-66.60486692561975]]},{"inputs":[626.9045505636838,-367.93651719464816,-58.09768477268148,-316.9997159869016,-19.099895705857463,-39.853766291440316,315.6257861001874],"outputs":[-573.7873644877117,-156.1802630060651,191.87207801877554,-196.35523672449742],"biases":[-15.715956751990255,2.847596503953369,-1.0307212465882962,7.954252428132271],"weights":[[-0.5461526971451505,0.4385706741591804,0.7778806986843483,-0.18786674509046364],[-0.2136195552363216,0.4943801396596146,0.9946781597060763,0.6861437013536844],[-0.08905428218975553,-0.1817646657778984,0.4279994950685042,-0.8593865937527227],[-0.3134879838006943,0.3105648351853112,-0.17056689899315858,-0.8988060534292488],[-0.5838124324746681,-0.3318918992526214,-0.8604413340591606,-0.49267562531892417],[0.4286736355163403,0.7548332311340464,0.22308592491480783,0.39244081187424573],[-0.9460711118061704,-0.4990789259720887,0.12882721352060744,-0.6666838248556648]],"singularOutputs":[[-358.10156789491447,277.78954787812614,486.62622855428737,-109.82026496866698],[62.88247840633168,-179.05291025260897,-367.00913905842407,-244.50307134298717],[-10.542109137672416,13.407702759129515,-25.896500993945097,57.88262384984644],[83.65964507813626,-95.60136804530919,53.0389372910095,292.87551609251204],[-4.565200179941142,9.18669716529739,15.403618494950532,17.36430548854183],[-32.80021563716055,-27.23535067867567,-9.921535561052849,-7.685991971527013],[-314.32039512249105,-154.67458183202433,39.63046929195012,-202.46835387221657]]}],"costFrames":null}},{"costs":[510621.7496090353,1129.358671365482,187454.79272575674,13506.203258602372],"network":{"training":true,"trainingInProgress":false,"inputCount":10,"hiddenLayerInputCount":7,"hiddenLayers":1,"outputs":[-714.578022058498,-32.60593208594997,432.9604978814542,-115.21619189511577],"layers":[{"inputs":[-380.0419755136952,-128.265925936075,-0.36353302197813836,0.4400459205649944,1.164188658629712,5.554397021644036,-319.11272187116214,1.164188658629712,5.554397021644036,-319.11272187116214],"outputs":[608.5676825661523,-117.1361812272592,-66.40079545403373,415.1142358470308,260.4692033790577,416.1120505034858,100.05836243800556],"biases":[-19.865679453846926,16.741369793556842,14.31385709305318,6.095686919386818,8.029702592520778,10.12431791573771,14.318536217675103],"weights":[[-0.5992745480433723,0.5508946860701143,-0.20609197936032264,0.2878833495502544,0.1984863063684259,-0.7843344899944313,-0.4416212002547939],[-0.18243615235413513,0.12226515413116412,-0.10436388785578532,0.2385582859301092,-0.4342130969331506,0.2789634739773934,-0.8582519821143042],[-0.884055845254968,0.6676591195161019,0.606941287722321,-0.40964893820218506,0.5116986141526487,-0.7112808073669574,0.6438470616892704],[0.438350508307753,-0.8361646029992638,-0.8421901055949921,0.7973981832891437,-0.16351592315774388,0.8433995630231033,-0.948679736684481],[0.9057765342082771,-0.6534921016766773,-0.7828155967324011,-0.4790135261063071,-0.48325651592081065,-0.332109573462706,0.6952787730242085],[0.9469190332775548,0.05297624823978975,-0.33682059358466865,-0.488629419641603,-0.5982276205662638,0.4802926052087477,-0.9229525372710163],[-0.7735751319617603,0.08251516010755888,0.5440354427894294,-0.70860208004041,-0.21925450684933745,0.16649475126206403,0.2314401844346765],[0.3341453943919839,0.09030116555727408,-0.017503150654437416,-0.1839701448539155,-0.22924862588881156,-0.6260145484723698,-0.2419486436267646],[0.5530678980491306,-0.9191088286886475,-0.3525553637486656,-0.01970253931552879,0.14119813864405373,0.29264901637239915,0.751115284878014],[-0.9367463649319538,0.9978873547434308,0.9914183809273711,-0.8496545852153277,-0.41856571783596186,-0.3193023682954266,0.7712395694929488]],"singularOutputs":[[207.88380365963314,-192.62173500052631,92.6374600666779,-103.31206996119153,-67.40342539215234,308.204346956748,182.15312959123617],[3.5346625520710653,1.0589165892061505,27.700187803164177,-24.50321251516157,63.72444752422203,-25.657190376316823,124.40302139003802],[-19.544295960823952,16.49865365618789,14.093213892564181,6.2446078358415935,7.8436832489758395,10.38289197711487,14.084476549647457],[-19.672785100888508,16.373418971086167,13.943254772745902,6.446578737009143,7.957748077587794,10.495452452852325,13.901073569624424],[-18.811184685468724,15.98058170028076,13.402512053538867,5.538024804963627,7.4671008374768615,9.737679716890076,15.127971879815869],[-14.606115195672027,17.035620908997807,12.44302179121812,3.3816451262418448,4.706908878582324,12.792053731626833,9.192091393538163],[226.99198647831383,-9.590267544001009,-159.29477384986455,232.21962540464915,77.99660505573222,-43.00627533676165,-59.536970987638284],[-19.476671175362426,16.846497386359665,14.293480123570996,5.881510963221424,7.762813942254578,9.395518878268977,14.036862350793982],[-16.793720768155907,11.63627445292188,12.355624630682962,5.98625119369382,8.813973113266991,11.749806740663619,18.490528718912856],[279.0620027625058,-301.6971800994333,-302.06036095778086,277.2312742577633,141.59934809311142,112.01776576239955,-231.7938220179631]]},{"inputs":[608.5676825661523,-117.1361812272592,-66.40079545403373,415.1142358470308,260.4692033790577,416.1120505034858,100.05836243800556],"outputs":[626.9045505636838,-367.93651719464816,-58.09768477268148,-316.9997159869016,-19.099895705857463,-39.853766291440316,315.6257861001874],"biases":[4.271900867831967,14.499618720018141,17.089205840284755,-0.028157686698357054,-5.649997958490927,-11.540488411119917,-9.085127427954568],"weights":[[0.9179919025384355,-0.1765585096119897,-0.017786509558580965,-0.7139624033386369,0.36397439181480107,-0.6929942469925401,-0.5233708843854001],[0.25665719948632115,0.462259460903931,-0.1685813168491055,-0.42947544961879625,0.45988204075482875,-0.8019271822957998,0.9368555488980084],[-0.48908807406401644,-0.3400271388308491,-0.9876334407960934,0.7273567965385126,-0.930707549285978,0.17236560825932834,-0.6725049207315423],[-0.24251451644835265,-0.8907123865657647,-0.6149373514568435,0.34835946675155904,-0.7940703140483378,0.8639476332200897,0.821956430661311],[-0.9259673655047624,-0.9358678917869532,0.24688158621356604,-0.39476820146986724,-0.8111529224746061,0.13933259436384993,0.31872937093241527],[0.6837700156558788,-0.3942223294524301,-0.7021752218894415,-0.5824197579356891,0.44120865505452844,-0.07065666351800681,0.9519259105080724],[0.932069159233391,0.30867580314615695,0.1949316850310674,-0.8101351751371515,0.540745402518245,-0.30554301535006,-0.5748618915615715]],"singularOutputs":[[562.9321056101408,-92.94818431188415,6.264910937278422,-434.5226029258531,215.85305418166726,-433.2743913350457,-327.59173366097514],[-25.791943364478566,-39.64768926643986,36.83617752225158,50.27895641250759,-59.51882402751035,82.39419934534621,-118.82480878743507],[36.74773803276402,37.07769121434568,82.66885192614967,-48.32522755575336,56.14972364917231,-22.985701908457685,35.56973425537174],[-96.39932730943812,-355.24777298871436,-238.18004290351982,144.5808161539542,-335.27988958347845,347.0964731648885,332.1206881855685],[-236.91408118019828,-229.26514552176775,81.39425593029046,-102.85311664293803,-216.93035349404616,24.751361447569458,73.93405791231984],[288.7968441552003,-149.54104314269327,-275.0943655528709,-242.38003741506182,177.94224019613407,-40.94157754933257,387.0227151209572],[97.53321461969372,45.38521410705877,36.59375103177444,-81.08895666434856,48.456101513364835,-42.11262218141732,-66.60486692561975]]},{"inputs":[626.9045505636838,-367.93651719464816,-58.09768477268148,-316.9997159869016,-19.099895705857463,-39.853766291440316,315.6257861001874],"outputs":[-573.7873644877117,-156.1802630060651,191.87207801877554,-196.35523672449742],"biases":[-15.715956751990255,2.847596503953369,-1.0307212465882962,7.954252428132271],"weights":[[-0.5461526971451505,0.4385706741591804,0.7778806986843483,-0.18786674509046364],[-0.2136195552363216,0.4943801396596146,0.9946781597060763,0.6861437013536844],[-0.08905428218975553,-0.1817646657778984,0.4279994950685042,-0.8593865937527227],[-0.3134879838006943,0.3105648351853112,-0.17056689899315858,-0.8988060534292488],[-0.5838124324746681,-0.3318918992526214,-0.8604413340591606,-0.49267562531892417],[0.4286736355163403,0.7548332311340464,0.22308592491480783,0.39244081187424573],[-0.9460711118061704,-0.4990789259720887,0.12882721352060744,-0.6666838248556648]],"singularOutputs":[[-358.10156789491447,277.78954787812614,486.62622855428737,-109.82026496866698],[62.88247840633168,-179.05291025260897,-367.00913905842407,-244.50307134298717],[-10.542109137672416,13.407702759129515,-25.896500993945097,57.88262384984644],[83.65964507813626,-95.60136804530919,53.0389372910095,292.87551609251204],[-4.565200179941142,9.18669716529739,15.403618494950532,17.36430548854183],[-32.80021563716055,-27.23535067867567,-9.921535561052849,-7.685991971527013],[-314.32039512249105,-154.67458183202433,39.63046929195012,-202.46835387221657]]}],"costFrames":null}},{"costs":[356831.4765344017,43.73266373959758,148212.8198459791,1629.1764999106638],"network":{"training":true,"trainingInProgress":false,"inputCount":10,"hiddenLayerInputCount":7,"hiddenLayers":1,"outputs":[-597.3537281497469,-5.613067649706721,384.9841812931787,-40.36305860450449],"layers":[{"inputs":[-380.0419755136952,-128.265925936075,-0.36353302197813836,0.4400459205649944,1.164188658629712,5.554397021644036,-319.11272187116214,1.164188658629712,5.554397021644036,-319.11272187116214],"outputs":[608.5676825661523,-117.1361812272592,-66.40079545403373,415.1142358470308,260.4692033790577,416.1120505034858,100.05836243800556],"biases":[-19.865679453846926,16.741369793556842,14.31385709305318,6.095686919386818,8.029702592520778,10.12431791573771,14.318536217675103],"weights":[[-0.5992745480433723,0.5508946860701143,-0.20609197936032264,0.2878833495502544,0.1984863063684259,-0.7843344899944313,-0.4416212002547939],[-0.18243615235413513,0.12226515413116412,-0.10436388785578532,0.2385582859301092,-0.4342130969331506,0.2789634739773934,-0.8582519821143042],[-0.884055845254968,0.6676591195161019,0.606941287722321,-0.40964893820218506,0.5116986141526487,-0.7112808073669574,0.6438470616892704],[0.438350508307753,-0.8361646029992638,-0.8421901055949921,0.7973981832891437,-0.16351592315774388,0.8433995630231033,-0.948679736684481],[0.9057765342082771,-0.6534921016766773,-0.7828155967324011,-0.4790135261063071,-0.48325651592081065,-0.332109573462706,0.6952787730242085],[0.9469190332775548,0.05297624823978975,-0.33682059358466865,-0.488629419641603,-0.5982276205662638,0.4802926052087477,-0.9229525372710163],[-0.7735751319617603,0.08251516010755888,0.5440354427894294,-0.70860208004041,-0.21925450684933745,0.16649475126206403,0.2314401844346765],[0.3341453943919839,0.09030116555727408,-0.017503150654437416,-0.1839701448539155,-0.22924862588881156,-0.6260145484723698,-0.2419486436267646],[0.5530678980491306,-0.9191088286886475,-0.3525553637486656,-0.01970253931552879,0.14119813864405373,0.29264901637239915,0.751115284878014],[-0.9367463649319538,0.9978873547434308,0.9914183809273711,-0.8496545852153277,-0.41856571783596186,-0.3193023682954266,0.7712395694929488]],"singularOutputs":[[207.88380365963314,-192.62173500052631,92.6374600666779,-103.31206996119153,-67.40342539215234,308.204346956748,182.15312959123617],[3.5346625520710653,1.0589165892061505,27.700187803164177,-24.50321251516157,63.72444752422203,-25.657190376316823,124.40302139003802],[-19.544295960823952,16.49865365618789,14.093213892564181,6.2446078358415935,7.8436832489758395,10.38289197711487,14.084476549647457],[-19.672785100888508,16.373418971086167,13.943254772745902,6.446578737009143,7.957748077587794,10.495452452852325,13.901073569624424],[-18.811184685468724,15.98058170028076,13.402512053538867,5.538024804963627,7.4671008374768615,9.737679716890076,15.127971879815869],[-14.606115195672027,17.035620908997807,12.44302179121812,3.3816451262418448,4.706908878582324,12.792053731626833,9.192091393538163],[226.99198647831383,-9.590267544001009,-159.29477384986455,232.21962540464915,77.99660505573222,-43.00627533676165,-59.536970987638284],[-19.476671175362426,16.846497386359665,14.293480123570996,5.881510963221424,7.762813942254578,9.395518878268977,14.036862350793982],[-16.793720768155907,11.63627445292188,12.355624630682962,5.98625119369382,8.813973113266991,11.749806740663619,18.490528718912856],[279.0620027625058,-301.6971800994333,-302.06036095778086,277.2312742577633,141.59934809311142,112.01776576239955,-231.7938220179631]]},{"inputs":[608.5676825661523,-117.1361812272592,-66.40079545403373,415.1142358470308,260.4692033790577,416.1120505034858,100.05836243800556],"outputs":[626.9045505636838,-367.93651719464816,-58.09768477268148,-316.9997159869016,-19.099895705857463,-39.853766291440316,315.6257861001874],"biases":[4.271900867831967,14.499618720018141,17.089205840284755,-0.028157686698357054,-5.649997958490927,-11.540488411119917,-9.085127427954568],"weights":[[0.9179919025384355,-0.1765585096119897,-0.017786509558580965,-0.7139624033386369,0.36397439181480107,-0.6929942469925401,-0.5233708843854001],[0.25665719948632115,0.462259460903931,-0.1685813168491055,-0.42947544961879625,0.45988204075482875,-0.8019271822957998,0.9368555488980084],[-0.48908807406401644,-0.3400271388308491,-0.9876334407960934,0.7273567965385126,-0.930707549285978,0.17236560825932834,-0.6725049207315423],[-0.24251451644835265,-0.8907123865657647,-0.6149373514568435,0.34835946675155904,-0.7940703140483378,0.8639476332200897,0.821956430661311],[-0.9259673655047624,-0.9358678917869532,0.24688158621356604,-0.39476820146986724,-0.8111529224746061,0.13933259436384993,0.31872937093241527],[0.6837700156558788,-0.3942223294524301,-0.7021752218894415,-0.5824197579356891,0.44120865505452844,-0.07065666351800681,0.9519259105080724],[0.932069159233391,0.30867580314615695,0.1949316850310674,-0.8101351751371515,0.540745402518245,-0.30554301535006,-0.5748618915615715]],"singularOutputs":[[562.9321056101408,-92.94818431188415,6.264910937278422,-434.5226029258531,215.85305418166726,-433.2743913350457,-327.59173366097514],[-25.791943364478566,-39.64768926643986,36.83617752225158,50.27895641250759,-59.51882402751035,82.39419934534621,-118.82480878743507],[36.74773803276402,37.07769121434568,82.66885192614967,-48.32522755575336,56.14972364917231,-22.985701908457685,35.56973425537174],[-96.39932730943812,-355.24777298871436,-238.18004290351982,144.5808161539542,-335.27988958347845,347.0964731648885,332.1206881855685],[-236.91408118019828,-229.26514552176775,81.39425593029046,-102.85311664293803,-216.93035349404616,24.751361447569458,73.93405791231984],[288.7968441552003,-149.54104314269327,-275.0943655528709,-242.38003741506182,177.94224019613407,-40.94157754933257,387.0227151209572],[97.53321461969372,45.38521410705877,36.59375103177444,-81.08895666434856,48.456101513364835,-42.11262218141732,-66.60486692561975]]},{"inputs":[626.9045505636838,-367.93651719464816,-58.09768477268148,-316.9997159869016,-19.099895705857463,-39.853766291440316,315.6257861001874],"outputs":[-573.7873644877117,-156.1802630060651,191.87207801877554,-196.35523672449742],"biases":[-15.715956751990255,2.847596503953369,-1.0307212465882962,7.954252428132271],"weights":[[-0.5461526971451505,0.4385706741591804,0.7778806986843483,-0.18786674509046364],[-0.2136195552363216,0.4943801396596146,0.9946781597060763,0.6861437013536844],[-0.08905428218975553,-0.1817646657778984,0.4279994950685042,-0.8593865937527227],[-0.3134879838006943,0.3105648351853112,-0.17056689899315858,-0.8988060534292488],[-0.5838124324746681,-0.3318918992526214,-0.8604413340591606,-0.49267562531892417],[0.4286736355163403,0.7548332311340464,0.22308592491480783,0.39244081187424573],[-0.9460711118061704,-0.4990789259720887,0.12882721352060744,-0.6666838248556648]],"singularOutputs":[[-358.10156789491447,277.78954787812614,486.62622855428737,-109.82026496866698],[62.88247840633168,-179.05291025260897,-367.00913905842407,-244.50307134298717],[-10.542109137672416,13.407702759129515,-25.896500993945097,57.88262384984644],[83.65964507813626,-95.60136804530919,53.0389372910095,292.87551609251204],[-4.565200179941142,9.18669716529739,15.403618494950532,17.36430548854183],[-32.80021563716055,-27.23535067867567,-9.921535561052849,-7.685991971527013],[-314.32039512249105,-154.67458183202433,39.63046929195012,-202.46835387221657]]}],"costFrames":null}},{"costs":[304153.9116513612,7.584043506332453,49514.100788327116,73220.14922614697],"network":{"training":true,"trainingInProgress":false,"inputCount":10,"hiddenLayerInputCount":7,"hiddenLayers":1,"outputs":[-551.5015064814975,3.753914215499904,222.51764152158165,-270.5922194486511],"layers":[{"inputs":[-380.0419755136952,-128.265925936075,-0.36353302197813836,0.4400459205649944,1.164188658629712,5.554397021644036,-319.11272187116214,1.164188658629712,5.554397021644036,-319.11272187116214],"outputs":[608.5676825661523,-117.1361812272592,-66.40079545403373,415.1142358470308,260.4692033790577,416.1120505034858,100.05836243800556],"biases":[-19.865679453846926,16.741369793556842,14.31385709305318,6.095686919386818,8.029702592520778,10.12431791573771,14.318536217675103],"weights":[[-0.5992745480433723,0.5508946860701143,-0.20609197936032264,0.2878833495502544,0.1984863063684259,-0.7843344899944313,-0.4416212002547939],[-0.18243615235413513,0.12226515413116412,-0.10436388785578532,0.2385582859301092,-0.4342130969331506,0.2789634739773934,-0.8582519821143042],[-0.884055845254968,0.6676591195161019,0.606941287722321,-0.40964893820218506,0.5116986141526487,-0.7112808073669574,0.6438470616892704],[0.438350508307753,-0.8361646029992638,-0.8421901055949921,0.7973981832891437,-0.16351592315774388,0.8433995630231033,-0.948679736684481],[0.9057765342082771,-0.6534921016766773,-0.7828155967324011,-0.4790135261063071,-0.48325651592081065,-0.332109573462706,0.6952787730242085],[0.9469190332775548,0.05297624823978975,-0.33682059358466865,-0.488629419641603,-0.5982276205662638,0.4802926052087477,-0.9229525372710163],[-0.7735751319617603,0.08251516010755888,0.5440354427894294,-0.70860208004041,-0.21925450684933745,0.16649475126206403,0.2314401844346765],[0.3341453943919839,0.09030116555727408,-0.017503150654437416,-0.1839701448539155,-0.22924862588881156,-0.6260145484723698,-0.2419486436267646],[0.5530678980491306,-0.9191088286886475,-0.3525553637486656,-0.01970253931552879,0.14119813864405373,0.29264901637239915,0.751115284878014],[-0.9367463649319538,0.9978873547434308,0.9914183809273711,-0.8496545852153277,-0.41856571783596186,-0.3193023682954266,0.7712395694929488]],"singularOutputs":[[207.88380365963314,-192.62173500052631,92.6374600666779,-103.31206996119153,-67.40342539215234,308.204346956748,182.15312959123617],[3.5346625520710653,1.0589165892061505,27.700187803164177,-24.50321251516157,63.72444752422203,-25.657190376316823,124.40302139003802],[-19.544295960823952,16.49865365618789,14.093213892564181,6.2446078358415935,7.8436832489758395,10.38289197711487,14.084476549647457],[-19.672785100888508,16.373418971086167,13.943254772745902,6.446578737009143,7.957748077587794,10.495452452852325,13.901073569624424],[-18.811184685468724,15.98058170028076,13.402512053538867,5.538024804963627,7.4671008374768615,9.737679716890076,15.127971879815869],[-14.606115195672027,17.035620908997807,12.44302179121812,3.3816451262418448,4.706908878582324,12.792053731626833,9.192091393538163],[226.99198647831383,-9.590267544001009,-159.29477384986455,232.21962540464915,77.99660505573222,-43.00627533676165,-59.536970987638284],[-19.476671175362426,16.846497386359665,14.293480123570996,5.881510963221424,7.762813942254578,9.395518878268977,14.036862350793982],[-16.793720768155907,11.63627445292188,12.355624630682962,5.98625119369382,8.813973113266991,11.749806740663619,18.490528718912856],[279.0620027625058,-301.6971800994333,-302.06036095778086,277.2312742577633,141.59934809311142,112.01776576239955,-231.7938220179631]]},{"inputs":[608.5676825661523,-117.1361812272592,-66.40079545403373,415.1142358470308,260.4692033790577,416.1120505034858,100.05836243800556],"outputs":[626.9045505636838,-367.93651719464816,-58.09768477268148,-316.9997159869016,-19.099895705857463,-39.853766291440316,315.6257861001874],"biases":[4.271900867831967,14.499618720018141,17.089205840284755,-0.028157686698357054,-5.649997958490927,-11.540488411119917,-9.085127427954568],"weights":[[0.9179919025384355,-0.1765585096119897,-0.017786509558580965,-0.7139624033386369,0.36397439181480107,-0.6929942469925401,-0.5233708843854001],[0.25665719948632115,0.462259460903931,-0.1685813168491055,-0.42947544961879625,0.45988204075482875,-0.8019271822957998,0.9368555488980084],[-0.48908807406401644,-0.3400271388308491,-0.9876334407960934,0.7273567965385126,-0.930707549285978,0.17236560825932834,-0.6725049207315423],[-0.24251451644835265,-0.8907123865657647,-0.6149373514568435,0.34835946675155904,-0.7940703140483378,0.8639476332200897,0.821956430661311],[-0.9259673655047624,-0.9358678917869532,0.24688158621356604,-0.39476820146986724,-0.8111529224746061,0.13933259436384993,0.31872937093241527],[0.6837700156558788,-0.3942223294524301,-0.7021752218894415,-0.5824197579356891,0.44120865505452844,-0.07065666351800681,0.9519259105080724],[0.932069159233391,0.30867580314615695,0.1949316850310674,-0.8101351751371515,0.540745402518245,-0.30554301535006,-0.5748618915615715]],"singularOutputs":[[562.9321056101408,-92.94818431188415,6.264910937278422,-434.5226029258531,215.85305418166726,-433.2743913350457,-327.59173366097514],[-25.791943364478566,-39.64768926643986,36.83617752225158,50.27895641250759,-59.51882402751035,82.39419934534621,-118.82480878743507],[36.74773803276402,37.07769121434568,82.66885192614967,-48.32522755575336,56.14972364917231,-22.985701908457685,35.56973425537174],[-96.39932730943812,-355.24777298871436,-238.18004290351982,144.5808161539542,-335.27988958347845,347.0964731648885,332.1206881855685],[-236.91408118019828,-229.26514552176775,81.39425593029046,-102.85311664293803,-216.93035349404616,24.751361447569458,73.93405791231984],[288.7968441552003,-149.54104314269327,-275.0943655528709,-242.38003741506182,177.94224019613407,-40.94157754933257,387.0227151209572],[97.53321461969372,45.38521410705877,36.59375103177444,-81.08895666434856,48.456101513364835,-42.11262218141732,-66.60486692561975]]},{"inputs":[626.9045505636838,-367.93651719464816,-58.09768477268148,-316.9997159869016,-19.099895705857463,-39.853766291440316,315.6257861001874],"outputs":[-573.7873644877117,-156.1802630060651,191.87207801877554,-196.35523672449742],"biases":[-15.715956751990255,2.847596503953369,-1.0307212465882962,7.954252428132271],"weights":[[-0.5461526971451505,0.4385706741591804,0.7778806986843483,-0.18786674509046364],[-0.2136195552363216,0.4943801396596146,0.9946781597060763,0.6861437013536844],[-0.08905428218975553,-0.1817646657778984,0.4279994950685042,-0.8593865937527227],[-0.3134879838006943,0.3105648351853112,-0.17056689899315858,-0.8988060534292488],[-0.5838124324746681,-0.3318918992526214,-0.8604413340591606,-0.49267562531892417],[0.4286736355163403,0.7548332311340464,0.22308592491480783,0.39244081187424573],[-0.9460711118061704,-0.4990789259720887,0.12882721352060744,-0.6666838248556648]],"singularOutputs":[[-358.10156789491447,277.78954787812614,486.62622855428737,-109.82026496866698],[62.88247840633168,-179.05291025260897,-367.00913905842407,-244.50307134298717],[-10.542109137672416,13.407702759129515,-25.896500993945097,57.88262384984644],[83.65964507813626,-95.60136804530919,53.0389372910095,292.87551609251204],[-4.565200179941142,9.18669716529739,15.403618494950532,17.36430548854183],[-32.80021563716055,-27.23535067867567,-9.921535561052849,-7.685991971527013],[-314.32039512249105,-154.67458183202433,39.63046929195012,-202.46835387221657]]}],"costFrames":null}},{"costs":[329231.93964575406,24705.6350786558,36814.89432324309,38555.378989133416],"network":{"training":true,"trainingInProgress":false,"inputCount":10,"hiddenLayerInputCount":7,"hiddenLayers":1,"outputs":[-573.7873644877117,-156.1802630060651,191.87207801877554,-196.35523672449742],"layers":[{"inputs":[-380.0419755136952,-128.265925936075,-0.36353302197813836,0.4400459205649944,1.164188658629712,5.554397021644036,-319.11272187116214,1.164188658629712,5.554397021644036,-319.11272187116214],"outputs":[608.5676825661523,-117.1361812272592,-66.40079545403373,415.1142358470308,260.4692033790577,416.1120505034858,100.05836243800556],"biases":[-19.865679453846926,16.741369793556842,14.31385709305318,6.095686919386818,8.029702592520778,10.12431791573771,14.318536217675103],"weights":[[-0.5992745480433723,0.5508946860701143,-0.20609197936032264,0.2878833495502544,0.1984863063684259,-0.7843344899944313,-0.4416212002547939],[-0.18243615235413513,0.12226515413116412,-0.10436388785578532,0.2385582859301092,-0.4342130969331506,0.2789634739773934,-0.8582519821143042],[-0.884055845254968,0.6676591195161019,0.606941287722321,-0.40964893820218506,0.5116986141526487,-0.7112808073669574,0.6438470616892704],[0.438350508307753,-0.8361646029992638,-0.8421901055949921,0.7973981832891437,-0.16351592315774388,0.8433995630231033,-0.948679736684481],[0.9057765342082771,-0.6534921016766773,-0.7828155967324011,-0.4790135261063071,-0.48325651592081065,-0.332109573462706,0.6952787730242085],[0.9469190332775548,0.05297624823978975,-0.33682059358466865,-0.488629419641603,-0.5982276205662638,0.4802926052087477,-0.9229525372710163],[-0.7735751319617603,0.08251516010755888,0.5440354427894294,-0.70860208004041,-0.21925450684933745,0.16649475126206403,0.2314401844346765],[0.3341453943919839,0.09030116555727408,-0.017503150654437416,-0.1839701448539155,-0.22924862588881156,-0.6260145484723698,-0.2419486436267646],[0.5530678980491306,-0.9191088286886475,-0.3525553637486656,-0.01970253931552879,0.14119813864405373,0.29264901637239915,0.751115284878014],[-0.9367463649319538,0.9978873547434308,0.9914183809273711,-0.8496545852153277,-0.41856571783596186,-0.3193023682954266,0.7712395694929488]],"singularOutputs":[[207.88380365963314,-192.62173500052631,92.6374600666779,-103.31206996119153,-67.40342539215234,308.204346956748,182.15312959123617],[3.5346625520710653,1.0589165892061505,27.700187803164177,-24.50321251516157,63.72444752422203,-25.657190376316823,124.40302139003802],[-19.544295960823952,16.49865365618789,14.093213892564181,6.2446078358415935,7.8436832489758395,10.38289197711487,14.084476549647457],[-19.672785100888508,16.373418971086167,13.943254772745902,6.446578737009143,7.957748077587794,10.495452452852325,13.901073569624424],[-18.811184685468724,15.98058170028076,13.402512053538867,5.538024804963627,7.4671008374768615,9.737679716890076,15.127971879815869],[-14.606115195672027,17.035620908997807,12.44302179121812,3.3816451262418448,4.706908878582324,12.792053731626833,9.192091393538163],[226.99198647831383,-9.590267544001009,-159.29477384986455,232.21962540464915,77.99660505573222,-43.00627533676165,-59.536970987638284],[-19.476671175362426,16.846497386359665,14.293480123570996,5.881510963221424,7.762813942254578,9.395518878268977,14.036862350793982],[-16.793720768155907,11.63627445292188,12.355624630682962,5.98625119369382,8.813973113266991,11.749806740663619,18.490528718912856],[279.0620027625058,-301.6971800994333,-302.06036095778086,277.2312742577633,141.59934809311142,112.01776576239955,-231.7938220179631]]},{"inputs":[608.5676825661523,-117.1361812272592,-66.40079545403373,415.1142358470308,260.4692033790577,416.1120505034858,100.05836243800556],"outputs":[626.9045505636838,-367.93651719464816,-58.09768477268148,-316.9997159869016,-19.099895705857463,-39.853766291440316,315.6257861001874],"biases":[4.271900867831967,14.499618720018141,17.089205840284755,-0.028157686698357054,-5.649997958490927,-11.540488411119917,-9.085127427954568],"weights":[[0.9179919025384355,-0.1765585096119897,-0.017786509558580965,-0.7139624033386369,0.36397439181480107,-0.6929942469925401,-0.5233708843854001],[0.25665719948632115,0.462259460903931,-0.1685813168491055,-0.42947544961879625,0.45988204075482875,-0.8019271822957998,0.9368555488980084],[-0.48908807406401644,-0.3400271388308491,-0.9876334407960934,0.7273567965385126,-0.930707549285978,0.17236560825932834,-0.6725049207315423],[-0.24251451644835265,-0.8907123865657647,-0.6149373514568435,0.34835946675155904,-0.7940703140483378,0.8639476332200897,0.821956430661311],[-0.9259673655047624,-0.9358678917869532,0.24688158621356604,-0.39476820146986724,-0.8111529224746061,0.13933259436384993,0.31872937093241527],[0.6837700156558788,-0.3942223294524301,-0.7021752218894415,-0.5824197579356891,0.44120865505452844,-0.07065666351800681,0.9519259105080724],[0.932069159233391,0.30867580314615695,0.1949316850310674,-0.8101351751371515,0.540745402518245,-0.30554301535006,-0.5748618915615715]],"singularOutputs":[[562.9321056101408,-92.94818431188415,6.264910937278422,-434.5226029258531,215.85305418166726,-433.2743913350457,-327.59173366097514],[-25.791943364478566,-39.64768926643986,36.83617752225158,50.27895641250759,-59.51882402751035,82.39419934534621,-118.82480878743507],[36.74773803276402,37.07769121434568,82.66885192614967,-48.32522755575336,56.14972364917231,-22.985701908457685,35.56973425537174],[-96.39932730943812,-355.24777298871436,-238.18004290351982,144.5808161539542,-335.27988958347845,347.0964731648885,332.1206881855685],[-236.91408118019828,-229.26514552176775,81.39425593029046,-102.85311664293803,-216.93035349404616,24.751361447569458,73.93405791231984],[288.7968441552003,-149.54104314269327,-275.0943655528709,-242.38003741506182,177.94224019613407,-40.94157754933257,387.0227151209572],[97.53321461969372,45.38521410705877,36.59375103177444,-81.08895666434856,48.456101513364835,-42.11262218141732,-66.60486692561975]]},{"inputs":[626.9045505636838,-367.93651719464816,-58.09768477268148,-316.9997159869016,-19.099895705857463,-39.853766291440316,315.6257861001874],"outputs":[-573.7873644877117,-156.1802630060651,191.87207801877554,-196.35523672449742],"biases":[-15.715956751990255,2.847596503953369,-1.0307212465882962,7.954252428132271],"weights":[[-0.5461526971451505,0.4385706741591804,0.7778806986843483,-0.18786674509046364],[-0.2136195552363216,0.4943801396596146,0.9946781597060763,0.6861437013536844],[-0.08905428218975553,-0.1817646657778984,0.4279994950685042,-0.8593865937527227],[-0.3134879838006943,0.3105648351853112,-0.17056689899315858,-0.8988060534292488],[-0.5838124324746681,-0.3318918992526214,-0.8604413340591606,-0.49267562531892417],[0.4286736355163403,0.7548332311340464,0.22308592491480783,0.39244081187424573],[-0.9460711118061704,-0.4990789259720887,0.12882721352060744,-0.6666838248556648]],"singularOutputs":[[-358.10156789491447,277.78954787812614,486.62622855428737,-109.82026496866698],[62.88247840633168,-179.05291025260897,-367.00913905842407,-244.50307134298717],[-10.542109137672416,13.407702759129515,-25.896500993945097,57.88262384984644],[83.65964507813626,-95.60136804530919,53.0389372910095,292.87551609251204],[-4.565200179941142,9.18669716529739,15.403618494950532,17.36430548854183],[-32.80021563716055,-27.23535067867567,-9.921535561052849,-7.685991971527013],[-314.32039512249105,-154.67458183202433,39.63046929195012,-202.46835387221657]]}],"costFrames":null}}]}