{"inputCount":5,"hiddenLayerInputCount":5,"hiddenLayers":2,"outputs":[1,0,0,1],"layers":[{"inputs":[null,null,null,null,null],"outputs":[null,null,null,null,null],"biases":[0.5510871378560389,0.6998450699592884,-0.8775364025527728,-0.5617833590273684,-0.8262050513361809],"weights":[[-0.5169467977961457,-0.6636496735846098,0.6902882413027627,-0.6887861651441713,-0.9663825933870422],[-0.4101410917247479,-0.21150654535674662,0.06487520261193547,0.7570463926790925,0.5164631096613712],[0.34238294121598,-0.3224623412311365,0.12342092595408616,-0.24642906142285925,-0.6405034291142198],[-0.5878796734647784,0.9823287381444461,0.44063373039288667,0.7562634875691283,-0.3140142999305091],[-0.3970247400204512,0.06479702831167478,0.2524826878929818,-0.1700907989331497,0.3717748487962462]]},{"inputs":[null,null,null,null,null],"outputs":[null,null,null,null,null],"biases":[0.25586612923199015,-0.2154477862590003,-0.7783737121800696,-0.5605560967015102,-0.7297613738201898],"weights":[[0.6273325973021364,0.5008481440173953,0.6395917471892987,-0.08659092501258625,-0.2631902242881028],[0.6151853043053319,0.2825356881632255,0.26537543594500557,0.3435720145237249,0.5963401348642221],[0.5699234667885411,0.5972557136404295,-0.3954531237308956,0.06291620302969059,0.7107477505856326],[0.8827089119129763,0.9175472715308799,-0.31094725048187155,-0.85931732449267,-0.14717104410133053],[-0.3574590286473278,0.6787533277173767,0.33232140306604574,0.860930125787233,-0.48599935385031756]]},{"inputs":[null,null,null,null,null],"outputs":[null,null,null,null,null],"biases":[-0.4869974204378267,0.46547246147508603,-0.5814379453560621,-0.017370081938824944,0.5708523544861646],"weights":[[0.1340097944398264,0.7090827476657708,0.9618053345857374,-0.06880291230182634,-0.07342337388242148],[-0.3884529976419595,0.7866674560447751,-0.018992255610956743,-0.6926975225741059,-0.8337435069000865],[0.8752462324803303,0.1399847991958969,0.7165573115747323,-0.5434834503425905,0.20712374687465918],[-0.10283134652016157,-0.9446123470917647,0.08418274121962055,0.8419330931123135,-0.23169995616796912],[0.7373063061826131,0.053577614142843455,0.6292301035870047,0.2379035119734898,-0.5795648510396869]]},{"inputs":[null,null,null,null,null],"outputs":[null,null,null,null],"biases":[-0.6329885680752008,0.6839450211683611,-0.5739880312925951,0.049233376710089205],"weights":[[-0.7326981190657302,0.5982902231957314,-0.46953233867319843,0.8468423245677239],[-0.4113273884627726,0.5668693367004776,0.3391054497184116,0.18615904693177554],[0.5419587852019252,-0.8701216199291384,-0.48916506247391967,0.5765463210164776],[0.0773558537430199,-0.42090163257520574,0.6959504498834392,0.7984882325018838],[-0.40907037997900875,0.5490908541754058,0.9069363048240857,-0.8321898832513359]]}]}