{"training":true,"trainingInProgress":false,"inputCount":10,"hiddenLayerInputCount":16,"hiddenLayers":2,"outputs":[9.773780702555048e-7,0.0000010220379125007494,0.0000016221084533061263,3.716629079005801e-7],"layers":[{"inputs":[-110.32047178015051,-133.64304599471706,-1.13257476903494,0.07954502228944535,-2.0113774129118127,622.6681011268261,72.43097725057811,-2.0113774129118127,622.6681011268261,72.43097725057811],"outputs":[-0.39853541760802336,0.14117650720172326,-0.2424647048887988,-0.1519345892977065,-0.06592830002391688,0.360654132773926,0.4217463789053443,0.14720771188994786,-0.13137394590729712,-0.2716843621638162,-0.35914360541257695,0.21091416027033175,0.9918535347176524,0.05551814829796102,-0.14279636005550073,-0.04057755421179683],"biases":[0,0,0,0,0,0,0,0,0,0,0,0,0,0,0,0],"weights":[[0.000639854755809125,0.000546623080850062,0.00014663411850591166,0.0008434508392051365,0.0008419215103154569,-0.0006994706551441287,-0.000182996669867343,0.00029613811567151787,0.0000636968028752771,0.00031111088579389697,-0.0009425432078630766,-0.0008008412845509603,0.00006075309902136705,0.00002119750672494884,0.0001888441850776695,-0.0000686960296558288],[0.00037184127011136246,-0.0008021730024778661,0.00010979852069063143,-0.0003282855581962501,0.00019220677766976888,-0.0003568367978003155,-0.0003634874064483191,0.0004007885556935427,-0.00022396196047031657,0.0007888451486630361,0.00024535985895726014,0.0006081401008354941,0.00046738606418806033,0.000033825418971843644,0.0007365408315098833,-0.0008836235404456562],[0.0009369829252840127,-0.00031492504156933806,0.0006226506340677939,0.0007906730075641018,0.0006492649728222574,-0.0005020731784377238,-0.0005625601012572178,-0.0008562438583491205,-0.0008152456813456989,0.00022809093502022544,0.00042892762615364343,-0.00017328077319643902,0.0005776764941578833,-0.00011898562263009718,-0.0006832884545355027,-0.0002468416660097767],[-0.00046025965913437227,-0.00030705262992429793,-0.0003985546086488646,0.00079762532586096,-0.0007687657834331957,0.000920178217074431,-0.0006620682044259353,-0.0004275095404996455,-0.0009935124835289944,0.0009150013490495125,-0.0007977526196215613,-0.00047425414231082265,0.00011130947998028202,-0.00044658909752324827,0.0006481292752607723,-0.00026537760167793845],[0.00041803272779811484,-0.0009607716965750664,0.0006207616332565759,0.0007598533040358895,0.00030580812905933003,0.00038524409738633996,0.0009781856320511804,-0.0001134018745586062,0.0008936161028615282,-0.00011612904327806884,0.000540741165327681,0.000824674250030458,-0.0001431351566364615,-0.000941464378366036,-0.0007107764646597545,0.0008466204975197816],[-0.0009747777428349848,0.00022165837488468125,-0.0004959442380340078,-0.00023629137533330888,0.0005816986963117455,0.0004903945575242605,0.0008776859886986189,-0.0005232389992870664,-0.00015092316155668165,-0.00007306467081400264,-0.0009458684436921546,-0.0003809812429954152,0.0006192165598206285,0.0009596768663759269,-0.00009950378825040875,0.00040669376746045463],[-0.0006339676088352081,-0.00021328394458224043,-0.00040374440124718656,0.0005313253826840112,-0.0008925315976469728,0.000034221225458396076,-0.0004939441928172865,0.0004960286321886353,0.0004298490671863987,-0.00022978733371266169,-0.0004796420695387318,0.0008716852452503179,0.0002383740606339513,0.0008161089049660524,-0.0006193989683168961,-0.0007075495424574864],[-0.0004518647770902341,0.0006519402713992289,-0.0009535695821274395,0.0002051592101987439,0.0007501718459424056,0.00019812844520349936,-0.0006727402198489406,0.0003260056727915057,-0.0007610813206031761,-0.0005990401256889673,0.0006811432099027472,-0.0006311643373422556,0.0008737961340370407,0.0007153633072442753,-0.00013397465124920387,0.0003219427923234777],[-0.000495870901595768,-0.00003889597177784723,-0.0005316512870290469,-0.0007391829927768342,-0.0009173359360344614,-0.00015063981381558867,-0.0003665060095792772,0.0009523211497723161,-0.00034423474181682353,-0.0005524862361999198,-0.00033633538983828833,0.0006031583396586737,0.0009602491620076509,-0.0009089563218208291,-0.0004593581610903424,-0.0007600236488227334],[-0.00020875377026217354,-0.00006944545624903349,0.0007811134600084826,-0.0002521524652714015,-0.000801894771390939,0.0003078500083174077,0.0009732274914096837,-0.000968802640227906,-0.00023170346413008524,-0.0007461841167606597,0.0005628321030172841,0.000035754797653786545,0.0008613054749521819,-0.0003985924709248309,-0.0005397507149064309,0.0007035284645330765]],"error":[-0.000001346008095870721,0.000003916440396715362,-0.0000025911041256473476,5.030896071454389e-7,-0.000001952408589246172,-0.0000018248861023206095,-0.0000035967854127526786,0.000001395301099335288,-0.000004441892030984363,0.0000013494689476733074,-0.000001921411868746208,-8.199187489869682e-7,-0.000002112504926863494,-2.9737224581271108e-8,-0.0000031428515942741024,-0.000004177566233702871],"dW":[[0.002538437668634304,-0.0006628197361346212,0.008499721450812323,-0.003957053273964101,-0.00038252139040932713,0.0020822796354454335,0.008261414695601602,-0.00619069370210261,0.007953888139626867,0.0019545840159558643,0.0029686349999855643,-0.0013640214676433559,0.0026686367881150787,-0.0014147547294742586,-0.0018761434870188621,0.010071331437146922],[0.0029336465565309644,-0.0007660140174165614,0.009823041500586948,-0.004573126161265904,-0.0004420760744452319,0.0024064693641051875,0.009547632811037318,-0.007154521651690644,0.009192227502833512,0.00225889283739803,0.0034308212302846934,-0.001576385715919157,0.0030841163526767316,-0.0016350176298364626,-0.0021682399171188,0.011639335153013195],[0.00002478778690822083,-0.000006472419859222903,0.00008299958935581103,-0.00003864053648095719,-0.000003735312799074581,0.000020333413943750076,0.00008067252923535082,-0.000060451985170998234,0.0000776695393127257,0.000019086469083085583,0.00002898865420143173,-0.000013319639042534668,0.000026059178390156965,-0.00001381504820658949,-0.000018320499077091846,0.00009834632562806817],[-0.0000017409403034826206,4.54582598910652e-7,-0.000005829376007509419,0.000002713871454396706,2.623451872529501e-7,-0.0000014280927931621807,-0.000005665937747880329,0.000004245772234503951,-0.0000054550263742023355,-0.0000013405151254910346,-0.000002035983148873037,9.354887760996033e-7,-0.0000018302349501004283,9.702832409548594e-7,0.0000012867181463726181,-0.000006907235511555345],[0.00005171060411459852,-0.000013502324440780982,0.00017314812825945208,-0.00008060927311263128,-0.000007792356861559066,0.00004241819258155735,0.0001682935728654779,-0.0001261108417904921,0.00016202893844595667,0.000039816900571048324,0.00006047416926632047,-0.00002778652987570391,0.00005436289501255148,-0.000028820018958534732,-0.00003821898576363719,0.00020516345123944133],[-0.013552610732540729,0.0035387663761351144,-0.04537965126394482,0.02112653910419386,0.00204226543166489,-0.01111720239743823,-0.044107341634989715,0.03305185033522092,-0.042465470434233835,-0.010435440916911563,-0.015849415984850998,0.007282452592875731,-0.01424773829302633,0.007553315319694706,0.010016650269627433,-0.05377041012769335],[-0.0015946697875800385,0.0004163894275939875,-0.0053396028462454476,0.0024858571009270273,0.0002403034401538189,-0.0013081071341509395,-0.005189896360478075,0.0038890504710388713,-0.004996705362034021,-0.0012278875766953926,-0.0018649236903959783,0.0008568907761409391,-0.0016764620666542855,0.000888761875781,0.0011786105181474348,-0.006326902630689325],[0.00005171060411459852,-0.000013502324440780982,0.00017314812825945208,-0.00008060927311263128,-0.000007792356861559066,0.00004241819258155735,0.0001682935728654779,-0.0001261108417904921,0.00016202893844595667,0.000039816900571048324,0.00006047416926632047,-0.00002778652987570391,0.00005436289501255148,-0.000028820018958534732,-0.00003821898576363719,0.00020516345123944133],[-0.013552610732540729,0.0035387663761351144,-0.04537965126394482,0.02112653910419386,0.00204226543166489,-0.01111720239743823,-0.044107341634989715,0.03305185033522092,-0.042465470434233835,-0.010435440916911563,-0.015849415984850998,0.007282452592875731,-0.01424773829302633,0.007553315319694706,0.010016650269627433,-0.05377041012769335],[-0.0015946697875800385,0.0004163894275939875,-0.0053396028462454476,0.0024858571009270273,0.0002403034401538189,-0.0013081071341509395,-0.005189896360478075,0.0038890504710388713,-0.004996705362034021,-0.0012278875766953926,-0.0018649236903959783,0.0008568907761409391,-0.0016764620666542855,0.000888761875781,0.0011786105181474348,-0.006326902630689325]],"dB":[-0.00002188622560375625,0.000005714783726586116,-0.00007328398232510022,0.000034117426537660354,0.0000032980717045793088,-0.00001795326410200366,-0.00007122931875313751,0.00005337571242427465,-0.00006857784707574533,-0.000016852281725602137,-0.0000255953558157867,0.00001176049423552341,-0.000023008792975638885,0.000012197912742097552,0.000016175973170144553,-0.00008683428972364311],"velDw":[[0.0026148277614940004,-0.008228701420574112,0.00019022398243864378,-0.0010926000204436299,0.0035006194073331034,-0.001703385732373656,0.0016125993902571466,-0.0012071513170297515,0.003809818357097726,-0.00042342788620622563,0.002777015107485906,0.0011471971522727922,0.0017103131082494584,0.0033939544401553985,0.004268466498534673,0.0028736188191344847],[0.0022945810840153415,-0.006922954342651873,0.0006043511061926399,-0.0010713977172840115,0.002932768840751962,-0.0012308570004779934,0.0018019187487481212,-0.001283872578020844,0.0036193208676305873,-0.00033194840921829335,0.00246736156866916,0.000922579415690169,0.001591507976250815,0.0027233887638231386,0.003557628745231528,0.002929054160509429],[0.000013319472833951203,-0.00003784709939079621,0.0000071332916723004665,-0.000006742104942859513,0.000015962026483218153,-0.000004218722081922551,0.000013795705527208347,-0.000009805789638502577,0.00002376835863483674,-0.0000018167158057435547,0.000014903358316123689,0.000004631115103591429,0.000010623566585320657,0.00001296632060634554,0.00001923075806688536,0.00002038112830080439],[-0.000005109087151803661,0.000015465734554242277,-5.664099978727399e-7,0.000002595885650223254,-0.000006448853977709439,0.00000393097910919752,-0.0000030901767408377376,0.000002372584212340591,-0.000007064456788334111,2.9392879755656715e-7,-0.000005184036725923469,-0.000002003202418835835,-0.0000028585025414257883,-0.00000695203515500126,-0.000007580061830537531,-0.000005681232247738515],[0.000029798026423653743,-0.00010537807865182093,-0.00001832274191897547,9.990014835516493e-8,0.000044846038296155456,-0.000018412268087223406,0.0000011959972472783383,-0.000017391680478843487,0.000038416632447243915,-0.0000065798746688835014,0.000037022041226900914,0.000013486777280028538,0.000027961378902347956,0.000033717171134082094,0.00005272086327484377,0.000012207610250007989],[-0.0061911797371891775,0.01666212719065172,-0.004967222246029823,0.0033932055600539137,-0.007027985847232299,0.0006739984337126282,-0.007967346481366617,0.005438875288404658,-0.012293351882988909,0.0009041790195930318,-0.007145195472636791,-0.0019169847383552715,-0.005491153387573488,-0.004890649035635033,-0.008503905797827012,-0.011058426862780293],[-0.0016249444705179754,0.006391112498302049,0.0016482445477867663,-0.000041266951393262275,-0.0027892327932738277,0.0016456772033440897,0.0004786689459962295,0.00017339293502268815,-0.0015563090983483799,0.0005557356806635654,-0.0018173824827076783,-0.0010284903408059075,-0.0011100054713294627,-0.0026577947034954153,-0.0034859808768267406,-0.00013906417171239674],[0.000029798026423653743,-0.00010537807865182093,-0.00001832274191897547,9.990014835516493e-8,0.000044846038296155456,-0.000018412268087223406,0.0000011959972472783383,-0.000017391680478843487,0.000038416632447243915,-0.0000065798746688835014,0.000037022041226900914,0.000013486777280028538,0.000027961378902347956,0.000033717171134082094,0.00005272086327484377,0.000012207610250007989],[-0.0061911797371891775,0.01666212719065172,-0.004967222246029823,0.0033932055600539137,-0.007027985847232299,0.0006739984337126282,-0.007967346481366617,0.005438875288404658,-0.012293351882988909,0.0009041790195930318,-0.007145195472636791,-0.0019169847383552715,-0.005491153387573488,-0.004890649035635033,-0.008503905797827012,-0.011058426862780293],[-0.0016249444705179754,0.006391112498302049,0.0016482445477867663,-0.000041266951393262275,-0.0027892327932738277,0.0016456772033440897,0.0004786689459962295,0.00017339293502268815,-0.0015563090983483799,0.0005557356806635654,-0.0018173824827076783,-0.0010284903408059075,-0.0011100054713294627,-0.0026577947034954153,-0.0034859808768267406,-0.00013906417171239674]]},{"inputs":[-0.39853541760802336,0.14117650720172326,-0.2424647048887988,-0.1519345892977065,-0.06592830002391688,0.360654132773926,0.4217463789053443,0.14720771188994786,-0.13137394590729712,-0.2716843621638162,-0.35914360541257695,0.21091416027033175,0.9918535347176524,0.05551814829796102,-0.14279636005550073,-0.04057755421179683],"outputs":[0.0006371095593388349,0.0003290085216684064,0.0010785698496988188,0.00003401917452687718,0.0002601445259909562,-0.000009526081195589462,0.0007250986129016389,0.0002970624915009738,0.00044616265708457485,0.0009505120293953813,0.00032549312149750113,0.0001919498507527006,0.00006602315571658988,-0.00015218187719427803,-0.00004960671993469488,0.0012230266398477103],"biases":[0,0,0,0,0,0,0,0,0,0,0,0,0,0,0,0],"weights":[[0.00009137788851409307,0.0005151874488132723,-0.0003233010127736495,0.00002283827905208418,-0.0008784659423854612,-0.0007263414889760354,-0.0006828957819031312,0.0006844312669939143,-0.000575115826275361,-0.00030921335254925484,-0.0009308081417617731,-0.00014585856798364697,-0.0008640270499549811,0.00097902870936859,0.00046123055046650525,-0.00010829081494665284],[0.00041270793354598504,-0.000034593668406759864,-0.0006943034767569416,-0.0007975371453476461,0.0007211912492862522,-0.0005478615906858113,0.0004927485869437307,0.0003800170790695603,0.0004131903110208448,0.0008088411457599727,0.0007932404991635908,-0.00033543534002606246,0.000525431639311456,-0.00026442040035874184,0.00020181740175015712,0.000661159750171871],[0.0004336257344610708,0.00030439365088440385,-0.0009286674807570984,0.00024243086844383347,-0.0009434190718258351,0.00003936088109920238,-0.0007147345338088801,0.0006975729531264963,-0.00019989350632760574,0.0005376963596697807,-0.0006478568421230472,0.0001692333260185181,0.00019797970940422938,0.00016519946430022564,0.0008455024125537911,0.000593670498312474],[0.00018051066746643324,0.0001476881266693371,0.0003898582047087105,-0.0009294105617135072,-0.0007433183488018173,-0.0006190522987244755,0.0007389131430772174,-0.00015445083647640888,-0.00045510162060991504,0.0003624052852502342,0.00010880239123238893,0.00019772593072828415,-0.0009231889759025119,0.0005480894822598809,-0.0005602160480214769,0.0005569386212869661],[-0.0002605494759186408,-0.00005225954742986383,-0.0006489510062718387,-0.0006818667630174408,-0.00018480588115956848,0.00023514708029567568,-0.00004675329324894302,-0.0006332244111400735,0.0006860179067008404,-0.0006303477104878298,0.0005847688830686645,0.000987706665853615,-0.0009715723316869625,0.0007035989887292063,0.00012967867459808926,-0.00025527228643675156],[0.0001320252844048395,-0.00026364381958164933,-0.0002678273295600658,-0.0005741575624403824,-0.0006366866786203475,-0.0003509869137024627,0.0009756236306252027,0.00019369418929350587,0.0006985547765932269,0.0002365095351936673,0.0006320317813372514,-0.0005033085183354238,-0.00013539723767555658,-0.0008926874152561236,0.0004103280249250789,0.0007193612505946553],[-0.0008322657282290298,-0.00088545269894587,0.0005312693579753475,0.000089499107836741,-0.0005096203338774197,-0.00013898354610528124,-0.000860952628164305,0.000049721104345619785,-0.00010241194156996882,0.0005501886571435993,-0.0009648937970502589,0.0007236334490708366,0.00048202479188656826,-0.0008006195021786775,0.00040494727270241307,0.0002614510941388157],[0.0006495048842084305,0.00046361129336507,0.00019987925083109797,0.00044157533627181675,-0.000571157486838996,-0.0003786185473727448,-0.0008698033245873236,-0.00026449583919438055,-0.000498598024273046,-0.00009755292254651927,0.0009647906400093617,-0.00042501842668955103,0.0008852095446026497,0.0006216130537205736,-0.00014669585555137263,0.00032323503470476343],[-0.0003774537844997916,-0.00008268807568746533,-0.0006532572429636197,-0.0003195145047126159,-0.0004992321209579955,-0.00034592696714900203,-0.0008699594417394693,0.00042071806232974954,-0.000545993717932828,0.00015469542412808982,-0.0008982442842216937,0.000546979281843963,-0.000015804978479502677,-0.00078997572285625,0.0003145603952843784,-0.00014038406563808656],[-0.0000577417995817188,-0.0009794451889816368,0.0005267661457780277,0.00022626027921512733,0.0005289462164831115,0.00032018221203073685,0.0009465098749311381,-0.0009683073243053264,-0.000926555180041519,0.000682052570624932,-0.0006048979747505931,0.00040555491739271206,-0.00014890760755424383,-0.0005657305500712181,0.00020634882153287246,-0.0005508486877702931],[-0.00024805136131298306,0.0004937266762784309,0.0007775342582748721,0.0008671947885562597,-0.0006610999563544297,-0.00040721206959612444,0.0006939087839421731,0.0009121977980911468,0.0008623639571584316,-0.000978959384505795,0.0005095873446095419,0.0008049748174922311,0.000946133641244507,0.0005034132644171168,-0.00020290276216136042,-0.0002929466543736384],[0.0003708458702517387,0.0008383654617772528,0.0007018943437287856,0.000664450994186302,0.00016991039133011326,0.0003386525686494921,-0.00013264317912328394,0.0001034467195645339,0.0009685978893073182,-0.000018296267107314168,-0.00020782104100548814,0.000003074937590666368,-0.0006029898836956196,0.00019079176721306212,-0.00019188286837284018,0.0008418168915618683],[0.0006886613101260749,0.0007689170671159994,0.0008495356443223517,0.00019343153835685767,-0.00019323210555255484,-0.00010796949475470477,0.0007977402168115159,0.0005570259530084075,-0.0002569430013086048,0.0005188161341694705,-0.00020837516890027732,0.0008722913678071317,-0.00033997699218727627,-0.00051767653992899,-0.00006687575480726317,0.00047143972214528713],[-0.0008990321985713146,0.0008288695981262904,-0.0008270856534601,0.000555651367607108,-0.0001701389500176561,-0.000703068898570821,-0.0005276785960517375,-0.0002514775157204022,0.00009972247572483167,0.0008384891162357023,0.0005677972783613739,-0.0008511898963640237,-0.0005972748316836338,0.0002945376701568958,0.0005531185342888705,-0.0008571059160547887],[-0.0007505831235307586,0.00020901756393904974,-0.00041866258171567637,-0.0009188403613026334,0.0003123178222503187,0.0008186058915960311,-0.0006282659692764063,-0.0008625088090913171,0.0003557712397070171,0.0008520673239012036,0.0009735725096798544,0.00044243502397799437,-0.00021993481909945268,-0.0009129320482094505,0.00001080378499837008,-0.00029477704567038476],[0.0008494864349421171,0.0005669697186946534,-0.0003487206060624738,0.0007505648634283872,-0.0008268740561729239,-0.0004918006444194483,-0.0006638201059845236,-0.00011126758264882019,-0.0008125570640727457,0.0006797332251279207,-0.0008920159943857036,0.0006898256823540945,0.0007437780049314085,-0.0006073789171717329,0.0009151687481120823,0.0007885161962072226]],"error":[-0.0000271064118072713,-0.001487130390884456,-0.00012178733220146083,0.0005211028028903494,0.0028426002535501377,-0.0005570952651571008,0.0006655120283506469,0.0006027226900473454,-0.001192602160965625,0.0006902666463557953,0.0009792605932557761,-0.0011444668786653777,0.00022891267373138726,0.0023763270581352797,-0.0005185576482191792,0.0010307284949774525],"dW":[[-0.0013878285870127533,-0.0017064291019896253,-0.009105561635728133,0.0037909382153081287,-0.007031293555589383,-0.0008639005627057559,0.003814659872887731,0.004787923275734801,0.006408006489601572,0.002682820123790911,-0.014912188900006977,0.01155119149426357,0.005692226686542133,-0.006804424450122022,0.010660790646135865,-0.0010880968238495621],[0.00039339913304616697,0.00048371083836256144,0.002581096892595546,-0.0010745936647290697,0.0019931170281741323,0.0002448845164214917,-0.0010813178953823096,-0.0013572028155292104,-0.0018164377223195975,-0.0007604823251911119,0.004227065388320545,-0.0032743443693394594,-0.001613540075873471,0.001928807854663067,-0.0030219479819217727,0.0003084360353853785],[-0.0008673421960415176,-0.001066455885517248,-0.005690643570272024,0.0023691979740815415,-0.004394301753535953,-0.0005399063099222841,0.0023840231439702262,0.002992277236047422,0.004004770094052149,0.0016766646252487096,-0.009319573605381524,0.0072190729397611075,0.0035574338508896955,-0.004252516845809284,0.006662604918998819,-0.0006800207875346256],[-0.0008960803622064612,-0.0011017914042841792,-0.005879195056933596,0.0024476980232749778,-0.0045399007737938965,-0.0005577953476271962,0.0024630144043576167,0.003091422141960648,0.004137462529564369,0.0017322185540477335,-0.009628364594774431,0.0074582667881021025,0.003675304427917138,-0.004393418022175246,0.006883360980594132,-0.000702552321774487],[-0.000316498978299564,-0.0003891568975984753,-0.002076553964603682,0.0008645362137440746,-0.0016035101505283357,-0.00019701542972055632,0.0008699460175611848,0.0010919020109021868,0.0014613674382232878,0.0006118261549641432,-0.0034007748472895047,0.002634288081604012,0.001298131446058433,-0.001551771887777378,0.002431229172638841,-0.00024814414133135466],[0.0010381351430738673,0.0012764573640556749,0.00681121834492639,-0.0028357292992530992,0.005259606992991756,0.0006462221218519205,-0.0028534737718888415,-0.0035815023997887796,-0.004793370590686403,-0.002006825539635272,0.011154740219449746,-0.008640618839234756,-0.004257946997879499,0.005089902467903141,-0.00797457375231679,0.0008139272835823962],[0.0012030044221930112,0.0014791752922967455,0.00789292785639334,-0.00328607976514772,0.006094900566444029,0.0007488505475355977,-0.0033066422893939123,-0.004150291273526623,-0.005554619797121508,-0.002325535374520432,0.012926257146712798,-0.010012860795084398,-0.004934164017167869,0.005898244769258248,-0.00924103913940885,0.0009431894566192304],[0.00041014263907898705,0.0005042981113378516,0.0026909512561723845,-0.0011203295700649614,0.0020779463126896973,0.0002553070746673592,-0.0011273399914772826,-0.0014149668816409342,-0.0018937473384501725,-0.0007928493014503003,0.004406974007545093,-0.003413704119009094,-0.0016822141417906782,0.00201090006900181,-0.0031505654597346632,0.000321563417185196],[-0.00027692309502435296,-0.000340495672725505,-0.001816896073259567,0.00075643228094103,-0.0014030029296555387,-0.00017238009063691347,0.0007611656283425207,0.0009553676474625286,0.0012786341243021969,0.0005353217674186511,-0.0029755328160997064,0.0023048896165885455,0.0011358095995200736,-0.0013577341583970808,0.0021272217396019716,-0.00021711553066878852],[-0.0007859522709392857,-0.0009663814684725952,-0.0051566431998510175,0.0021468764422306603,-0.0039819479072349265,-0.0004892424147176584,0.002160310443244621,0.002711486999807887,0.003628969240024563,0.0015193292518593316,-0.00844504057656249,0.006541647341702711,0.003223610273527159,-0.0038534678555076167,0.006037397339086356,-0.0006162087866680671],[-0.0004371164886250961,-0.0005374642835070285,-0.0028679270382634737,0.0011940102810801588,-0.002214606600752528,-0.0002720978541766516,0.001201481756853605,0.0015080250037221145,0.0020182934132021366,0.0008449926187559151,-0.004696807452075696,0.0036382131861664624,0.0017928483135190656,-0.002143150926984584,0.0033577686875845823,-0.00034271167734698746],[0.000613312876668751,0.0007541096581857003,0.004023953860551022,-0.0016753014340976128,0.0031072878290850092,0.0003817772196271606,-0.0016857845717023886,-0.0021158917066486363,-0.002831843161776181,-0.0011855989587652854,0.006590033925859068,-0.005104733070492152,-0.002515523859678002,0.003007029234469265,-0.004711244774701283,0.00048085462381614237],[0.0028160375972297318,0.0034625086651033188,0.01847605975986964,-0.0076921780131803605,0.014267170452453624,0.0017529372774225571,-0.007740311536468386,-0.009715156528186308,-0.013002461086964416,-0.0054436998962972775,0.030258264595774326,-0.023438477809902304,-0.0115500750678151,0.013806831231439946,-0.021631768906225708,0.0022078530403974632],[0.0001584077255307094,0.0001947730111305911,0.0010393151732809233,-0.00043270033917300256,0.0008025567639279456,0.00009860621441548477,-0.00043540794575941193,-0.0005464969112339836,-0.0007314143423062972,-0.00030621896521996697,0.0017020876702208243,-0.0013184610757402948,-0.0006497147349884207,0.0007766617655638995,-0.0012168301002131792,0.00012419613245912632],[-0.00018181127605103558,-0.0002235492592000524,-0.0011928661764465246,0.0004966285611967096,-0.0009211284920876046,-0.00011317454126292459,0.0004997361963001745,0.0006272377212444601,0.0008394753125279676,0.0003514605151430998,-0.001953558327012212,0.001513253787344437,0.0007457052024555772,-0.0008914077023967385,0.0013966075992561272,-0.00014254517730967432],[-0.00012086066990895248,-0.00014860636706044667,-0.0007929684468887841,0.0003301382725310432,-0.000612328393727794,-0.0000752337873138069,0.0003322041007271553,0.0004169618784287633,0.0005580487131924484,0.0002336365171036849,-0.001298645349382132,0.0010059489733154337,0.0004957141948559508,-0.0005925712332794348,0.000928407377761584,-0.00009475817999925158]],"dB":[0.002855707123560703,0.003511285030446116,0.018736332044535783,-0.007800537737687079,0.014468152106423318,0.0017776309077745319,-0.00784934931799798,-0.009852013954409428,-0.01318562677799219,-0.00552038530581969,0.030684512819623474,-0.02376865568591947,-0.011712780994567682,0.014001328086035098,-0.021936495670902133,0.002238955069861532],"velDw":[[-0.0014598422879226226,0.004318109844371207,0.00015431573468090284,0.00015689238293750414,-0.004212777722757754,0.001205302330327442,-0.0006640572902628984,-0.002057402154628527,0.0010333144415134083,-0.0020160511866742243,-0.0023206031018533873,0.0023581121697015357,-0.0006450006700388212,-0.0034885873214920444,0.0017396476038680942,-0.0030419755709642443],[0.00025575932519217564,-0.0008467277956709522,0.00015784653338266514,-0.00004619035352646109,0.0012118201054561084,-0.000247372836400407,0.00013184508473751497,0.0003177586717485602,-0.0004752006193788989,0.00034280824687066513,0.0008222803889228899,-0.0007802393084247413,0.000006108573906220212,0.0010173235542518414,-0.0005830985194745983,0.0006459782231098608],[-0.000575281803990124,0.001649733034611642,-0.0002715663139076136,0.00010897511030667884,-0.0020718288314982053,0.00046153874368994876,-0.00010851578055663108,-0.0005768766800517584,0.00071336748617213,-0.0007330113983598706,-0.0015078255402178001,0.0014050700099032692,-0.00005194274788515498,-0.0017882849339331268,0.0010636694633321137,-0.001240349276000195],[-0.0009401822577321154,0.002879718470847617,0.00011583587040671155,0.000005371450402894126,-0.0028674329185218246,0.0008136339237139756,-0.0003674003715828638,-0.0012809038569214903,0.0006889524483736309,-0.0014063349224809243,-0.0015627793074084323,0.001585472475757421,-0.0004499310570467755,-0.0024350321314648687,0.0011151668035526048,-0.0020154333611405503],[-0.0007100791239656961,0.002456206406050093,0.00046154076615468546,-0.00016130342368603744,-0.002134518182200987,0.0007130005374786376,-0.0004704278409717884,-0.0012520717917892095,0.00033847991599630044,-0.0012722712634693214,-0.0007048925990092642,0.0008622512353300104,-0.0006003947179714713,-0.001778166638448322,0.0004973372814840629,-0.0016275961429044145],[0.0022486494431275426,-0.006778247410698494,-0.0009780315744346306,0.00005557253880486882,0.005544862154774862,-0.001893813873787893,0.0010462431551448562,0.0034212214118566763,-0.0007866967596170359,0.003432586378017289,0.002323398818845669,-0.0025988777977535267,0.0014884016355996674,0.004615208401450194,-0.0017529885760795122,0.00457033947230441],[0.002125865873981316,-0.006551242215818903,-0.0008505490869050981,0.00012036523162202873,0.0056337041412514305,-0.0018452834314146263,0.0009685526490611539,0.0031965752092655586,-0.0009246230856355535,0.003329684578972839,0.002462409490041919,-0.0027020649881660712,0.0013850388732481826,0.0047364089999818075,-0.001797330714604296,0.00443563921625708],[-0.00007669753198967844,0.00001619810946540922,0.00036080164910072,-0.0000012750034977432908,0.000755474363400974,-0.00002029063839823022,-0.000013263737049708956,-0.00019556750660614387,-0.0005303170857457247,-0.00009474969500283628,0.0007066273054190395,-0.0006116871106245404,-0.000230556537255644,0.0006666347770986966,-0.00045031398369606556,0.00008106044347644221],[-0.00027273099200883185,0.0009204075705240481,-0.000023468796138272264,-0.000017672946715539435,-0.0010899722099088102,0.0002685351652554192,-0.00012316446693966102,-0.00036941509976638233,0.0003351073994310514,-0.0004371771994133198,-0.000629790002982601,0.0006243159557353229,-0.00010511161720770292,-0.0009326393659228932,0.00043191556184095305,-0.0006592301977032317],[-0.0010568487357920679,0.0027858388136686066,0.00031258794019785395,0.00003974186580382955,-0.002019123940452082,0.000745524381907848,-0.0001414319291734313,-0.0012584705261269287,0.00012808591047123595,-0.0014899974750083784,-0.0010764549566338365,0.0011059060032440602,-0.0005874764575983492,-0.0017785349833791798,0.0007860702060944943,-0.0018853485951338584],[-0.0006256425689037312,0.002294420219326289,0.00011255989785327196,-0.00017649401898704,-0.002590045295465375,0.0006820397683295865,-0.0003169047516839487,-0.000931543965634137,0.0007067195040529116,-0.0011655948499196974,-0.0012940383163510135,0.001337991077807837,-0.000373225338234797,-0.0022427709612153407,0.0008425677938579524,-0.001593288835200724],[0.0016931759964746741,-0.005174121952896342,-0.001102713724664806,0.00021257143164530546,0.003717254061552601,-0.001447547484461267,0.0007660053872580766,0.002672734898024281,-0.0001855761071270471,0.0027708004894962954,0.001143432292647272,-0.0014540830644466946,0.0013712347232947883,0.0031286899529944126,-0.0008547701094389911,0.003386148958265754],[0.003843409669089473,-0.012279249216246539,-0.0012818894498111341,0.0003946332897483521,0.0114302905850158,-0.0035030788470497808,0.0017214843418252024,0.005682500020587436,-0.0022724513597869684,0.006247411830266214,0.005310091912226146,-0.005676036247922343,0.0024127159164966288,0.009723708086266396,-0.0037247580318353728,0.008380040857902761],[0.0004556564964559732,-0.0014127304201438573,-0.000362249217168304,0.00009756676484399068,0.000931933874747698,-0.0003964018913924459,0.0001928137191024235,0.0007287043044270768,0.000021321196684508627,0.0007896669629523696,0.0002079638352158271,-0.00030888059654455603,0.0004163154794961914,0.0007985967812649817,-0.00014683650570442095,0.0009057060415085797],[-0.0009925170582351258,0.0032696005304421612,0.0007061871653577016,-0.0001327901591442383,-0.0025758956859869985,0.0009340697593087371,-0.0006938112101482636,-0.001796806391210732,0.00030039910201908905,-0.0016662699722396468,-0.0007222604067363199,0.0009609970054192966,-0.0008475019832565835,-0.002084522895024826,0.0005697382718803258,-0.0021513837857060534],[0.00026325716521784627,-0.0006485719531750115,-0.0002494783776428491,-0.000044046115718361635,0.00015625858087019447,-0.00016527908080829346,0.0001454957925126471,0.000459331353867143,0.00016329846097260978,0.0003355084157139864,-0.00010772088487598446,0.0000369878065206757,0.00023500615437339003,0.00008164568080658451,0.00001504957161390947,0.00040247228427139637]]},{"inputs":[0.0006371095593388349,0.0003290085216684064,0.0010785698496988188,0.00003401917452687718,0.0002601445259909562,-0.000009526081195589462,0.0007250986129016389,0.0002970624915009738,0.00044616265708457485,0.0009505120293953813,0.00032549312149750113,0.0001919498507527006,0.00006602315571658988,-0.00015218187719427803,-0.00004960671993469488,0.0012230266398477103],"outputs":[9.773780702555048e-7,0.0000010220379125007494,0.0000016221084533061263,3.716629079005801e-7],"biases":[0,0,0,0],"weights":[[0.00043368188937257406,0.0006300600001443008,0.0003126287735104211,-0.00014335707454596566],[-0.0007981163896882984,-0.0008437494212404637,-0.0006295951508233962,-0.000903168271613225],[0.000030687134888773436,-0.00048764047988332173,0.0002724274660877111,-0.0009125424130612671],[0.0003365401722820914,-0.0002541903706634829,-0.0006847496810271697,0.0006151219409719448],[0.00026308659625736244,-0.0008879326232912899,0.0009279233179680399,0.0007636577160334457],[-0.00018859096774678536,-0.00013603787408502846,-0.00014519334729696176,-0.0003593488241983822],[-0.0009623394757214246,-0.0001338279576250949,0.000804477228824511,0.0006895463176224655],[-0.00040301305444323234,0.000644421105266217,0.0009009758457492445,0.0007491810040075502],[0.00041245441671741733,0.0009461544308408498,-0.0006619493902157013,0.0000030472433735087194],[0.0009065419938980175,0.000556682797251351,-0.000255654186750431,0.0005960616364595598],[0.0006239952159593779,-0.0005890426061128701,0.0006713418383635425,-0.0009051190671800145],[-0.00044038569902751985,0.000534439091619631,-0.0006778028170903621,0.0005081607290721353],[0.00021998328830313035,0.00044282166310740615,-0.0001951055086487586,0.0006468565571844217],[0.0007556945943839686,-0.0007592222072027318,0.0003096715160876988,0.0005517387404608807],[-0.00013287212401719742,0.00026375780420419867,-0.0008597621878480712,0.0007378344678502881],[0.000487317209951277,0.0004695746181877583,0.0005993900778007527,0.00041359582541318106]],"error":[1,-1,1,1],"dW":[[0.005003052146110213,-0.005003052146110213,0.005003052146110213,-0.005003052146110213],[0.003944246405358963,-0.003944246405358963,0.003944246405358963,-0.003944246405358963],[0.013548046358503438,-0.013548046358503438,0.013548046358503438,-0.013548046358503438],[0.0032117958781838793,-0.0032117958781838793,0.0032117958781838793,-0.0032117958781838793],[0.004334115364712881,-0.004334115364712881,0.004334115364712881,-0.004334115364712881],[0.0010663950529175032,-0.0010663950529175032,0.0010663950529175032,-0.0010663950529175032],[0.008490417987522881,-0.008490417987522881,0.008490417987522881,-0.008490417987522881],[0.004214371790271086,-0.004214371790271086,0.004214371790271086,-0.004214371790271086],[0.008260647017475089,-0.008260647017475089,0.008260647017475089,-0.008260647017475089],[0.008542358380898759,-0.008542358380898759,0.008542358380898759,-0.008542358380898759],[0.0060945112766676674,-0.0060945112766676674,0.0060945112766676674,-0.0060945112766676674],[0.003640678785201852,-0.003640678785201852,0.003640678785201852,-0.003640678785201852],[0.005421010075067093,-0.005421010075067093,0.005421010075067093,-0.005421010075067093],[-0.0039234803642604794,0.0039234803642604794,-0.0039234803642604794,0.0039234803642604794],[-0.0007381329153755645,0.0007381329153755645,-0.0007381329153755645,0.0007381329153755645],[0.011314590803757326,-0.011314590803757326,0.011314590803757326,-0.011314590803757326]],"dB":[11,-11,11,-11],"velDw":[[0.004062094775449203,-0.0004546266157700504,0.004135387702761142,0.0027869279088210542],[0.0026556903449314237,0.0005238771373341925,0.002294779919529719,0.001924504050978797],[0.008253464868689286,-0.0007798481107522099,0.008381795380230931,0.005153062081379594],[0.0032040587811617565,0.000566106507204675,0.0033163943532524554,0.0027782486063104165],[0.0005868426395332962,-0.0010064544006401167,0.0007129209615673146,-0.00030531326272845237],[-0.00016083207832982312,-0.0002513181861662728,-0.00014074535117432384,-0.00039028510786858004],[0.005261267366602464,-0.0007008120065555815,0.005676206610355638,0.003207030729455025],[0.004304160087197376,0.0008085564580362075,0.004246837802741753,0.0033798465302950697],[0.004067421024791157,0.0005718312025561414,0.004141709158982758,0.0021442258156277186],[0.006342072155123736,-0.0007254997690056598,0.006357701976550817,0.0041123914786069605],[0.0002661675408211623,-0.0008659010593591734,0.0003629845736177042,-0.0010022021359526944],[0.001738483943285316,0.00006821310440734135,0.0017967057873941226,0.0009928744031744937],[0.001608792602775771,-0.00043423022045796023,0.0020338911816885786,0.0005722863513882555],[-0.002605097755734668,0.0005854480199447142,-0.0032977230581305466,-0.0015592272328076155],[0.0009214935315589053,0.0004907602836867241,0.0009702777503935866,0.0009777060918403464],[0.008978045976758258,0.00009786105803084237,0.009107312836433621,0.005998805723586387]]}],"cost":1.000001949111519,"epic":[{"layers":[{"inputs":[-110.32047178015051,-133.64304599471706,-1.13257476903494,0.07954502228944535,-2.0113774129118127,622.6681011268261,72.43097725057811,-2.0113774129118127,622.6681011268261,72.43097725057811],"outputs":[-0.39853541760802336,0.14117650720172326,-0.2424647048887988,-0.1519345892977065,-0.06592830002391688,0.360654132773926,0.4217463789053443,0.14720771188994786,-0.13137394590729712,-0.2716843621638162,-0.35914360541257695,0.21091416027033175,0.9918535347176524,0.05551814829796102,-0.14279636005550073,-0.04057755421179683],"biases":[0,0,0,0,0,0,0,0,0,0,0,0,0,0,0,0],"weights":[[0.000639854755809125,0.000546623080850062,0.00014663411850591166,0.0008434508392051365,0.0008419215103154569,-0.0006994706551441287,-0.000182996669867343,0.00029613811567151787,0.0000636968028752771,0.00031111088579389697,-0.0009425432078630766,-0.0008008412845509603,0.00006075309902136705,0.00002119750672494884,0.0001888441850776695,-0.0000686960296558288],[0.00037184127011136246,-0.0008021730024778661,0.00010979852069063143,-0.0003282855581962501,0.00019220677766976888,-0.0003568367978003155,-0.0003634874064483191,0.0004007885556935427,-0.00022396196047031657,0.0007888451486630361,0.00024535985895726014,0.0006081401008354941,0.00046738606418806033,0.000033825418971843644,0.0007365408315098833,-0.0008836235404456562],[0.0009369829252840127,-0.00031492504156933806,0.0006226506340677939,0.0007906730075641018,0.0006492649728222574,-0.0005020731784377238,-0.0005625601012572178,-0.0008562438583491205,-0.0008152456813456989,0.00022809093502022544,0.00042892762615364343,-0.00017328077319643902,0.0005776764941578833,-0.00011898562263009718,-0.0006832884545355027,-0.0002468416660097767],[-0.00046025965913437227,-0.00030705262992429793,-0.0003985546086488646,0.00079762532586096,-0.0007687657834331957,0.000920178217074431,-0.0006620682044259353,-0.0004275095404996455,-0.0009935124835289944,0.0009150013490495125,-0.0007977526196215613,-0.00047425414231082265,0.00011130947998028202,-0.00044658909752324827,0.0006481292752607723,-0.00026537760167793845],[0.00041803272779811484,-0.0009607716965750664,0.0006207616332565759,0.0007598533040358895,0.00030580812905933003,0.00038524409738633996,0.0009781856320511804,-0.0001134018745586062,0.0008936161028615282,-0.00011612904327806884,0.000540741165327681,0.000824674250030458,-0.0001431351566364615,-0.000941464378366036,-0.0007107764646597545,0.0008466204975197816],[-0.0009747777428349848,0.00022165837488468125,-0.0004959442380340078,-0.00023629137533330888,0.0005816986963117455,0.0004903945575242605,0.0008776859886986189,-0.0005232389992870664,-0.00015092316155668165,-0.00007306467081400264,-0.0009458684436921546,-0.0003809812429954152,0.0006192165598206285,0.0009596768663759269,-0.00009950378825040875,0.00040669376746045463],[-0.0006339676088352081,-0.00021328394458224043,-0.00040374440124718656,0.0005313253826840112,-0.0008925315976469728,0.000034221225458396076,-0.0004939441928172865,0.0004960286321886353,0.0004298490671863987,-0.00022978733371266169,-0.0004796420695387318,0.0008716852452503179,0.0002383740606339513,0.0008161089049660524,-0.0006193989683168961,-0.0007075495424574864],[-0.0004518647770902341,0.0006519402713992289,-0.0009535695821274395,0.0002051592101987439,0.0007501718459424056,0.00019812844520349936,-0.0006727402198489406,0.0003260056727915057,-0.0007610813206031761,-0.0005990401256889673,0.0006811432099027472,-0.0006311643373422556,0.0008737961340370407,0.0007153633072442753,-0.00013397465124920387,0.0003219427923234777],[-0.000495870901595768,-0.00003889597177784723,-0.0005316512870290469,-0.0007391829927768342,-0.0009173359360344614,-0.00015063981381558867,-0.0003665060095792772,0.0009523211497723161,-0.00034423474181682353,-0.0005524862361999198,-0.00033633538983828833,0.0006031583396586737,0.0009602491620076509,-0.0009089563218208291,-0.0004593581610903424,-0.0007600236488227334],[-0.00020875377026217354,-0.00006944545624903349,0.0007811134600084826,-0.0002521524652714015,-0.000801894771390939,0.0003078500083174077,0.0009732274914096837,-0.000968802640227906,-0.00023170346413008524,-0.0007461841167606597,0.0005628321030172841,0.000035754797653786545,0.0008613054749521819,-0.0003985924709248309,-0.0005397507149064309,0.0007035284645330765]],"error":[-0.000001346008095870721,0.000003916440396715362,-0.0000025911041256473476,5.030896071454389e-7,-0.000001952408589246172,-0.0000018248861023206095,-0.0000035967854127526786,0.000001395301099335288,-0.000004441892030984363,0.0000013494689476733074,-0.000001921411868746208,-8.199187489869682e-7,-0.000002112504926863494,-2.9737224581271108e-8,-0.0000031428515942741024,-0.000004177566233702871],"dW":[[0.002538437668634304,-0.0006628197361346212,0.008499721450812323,-0.003957053273964101,-0.00038252139040932713,0.0020822796354454335,0.008261414695601602,-0.00619069370210261,0.007953888139626867,0.0019545840159558643,0.0029686349999855643,-0.0013640214676433559,0.0026686367881150787,-0.0014147547294742586,-0.0018761434870188621,0.010071331437146922],[0.0029336465565309644,-0.0007660140174165614,0.009823041500586948,-0.004573126161265904,-0.0004420760744452319,0.0024064693641051875,0.009547632811037318,-0.007154521651690644,0.009192227502833512,0.00225889283739803,0.0034308212302846934,-0.001576385715919157,0.0030841163526767316,-0.0016350176298364626,-0.0021682399171188,0.011639335153013195],[0.00002478778690822083,-0.000006472419859222903,0.00008299958935581103,-0.00003864053648095719,-0.000003735312799074581,0.000020333413943750076,0.00008067252923535082,-0.000060451985170998234,0.0000776695393127257,0.000019086469083085583,0.00002898865420143173,-0.000013319639042534668,0.000026059178390156965,-0.00001381504820658949,-0.000018320499077091846,0.00009834632562806817],[-0.0000017409403034826206,4.54582598910652e-7,-0.000005829376007509419,0.000002713871454396706,2.623451872529501e-7,-0.0000014280927931621807,-0.000005665937747880329,0.000004245772234503951,-0.0000054550263742023355,-0.0000013405151254910346,-0.000002035983148873037,9.354887760996033e-7,-0.0000018302349501004283,9.702832409548594e-7,0.0000012867181463726181,-0.000006907235511555345],[0.00005171060411459852,-0.000013502324440780982,0.00017314812825945208,-0.00008060927311263128,-0.000007792356861559066,0.00004241819258155735,0.0001682935728654779,-0.0001261108417904921,0.00016202893844595667,0.000039816900571048324,0.00006047416926632047,-0.00002778652987570391,0.00005436289501255148,-0.000028820018958534732,-0.00003821898576363719,0.00020516345123944133],[-0.013552610732540729,0.0035387663761351144,-0.04537965126394482,0.02112653910419386,0.00204226543166489,-0.01111720239743823,-0.044107341634989715,0.03305185033522092,-0.042465470434233835,-0.010435440916911563,-0.015849415984850998,0.007282452592875731,-0.01424773829302633,0.007553315319694706,0.010016650269627433,-0.05377041012769335],[-0.0015946697875800385,0.0004163894275939875,-0.0053396028462454476,0.0024858571009270273,0.0002403034401538189,-0.0013081071341509395,-0.005189896360478075,0.0038890504710388713,-0.004996705362034021,-0.0012278875766953926,-0.0018649236903959783,0.0008568907761409391,-0.0016764620666542855,0.000888761875781,0.0011786105181474348,-0.006326902630689325],[0.00005171060411459852,-0.000013502324440780982,0.00017314812825945208,-0.00008060927311263128,-0.000007792356861559066,0.00004241819258155735,0.0001682935728654779,-0.0001261108417904921,0.00016202893844595667,0.000039816900571048324,0.00006047416926632047,-0.00002778652987570391,0.00005436289501255148,-0.000028820018958534732,-0.00003821898576363719,0.00020516345123944133],[-0.013552610732540729,0.0035387663761351144,-0.04537965126394482,0.02112653910419386,0.00204226543166489,-0.01111720239743823,-0.044107341634989715,0.03305185033522092,-0.042465470434233835,-0.010435440916911563,-0.015849415984850998,0.007282452592875731,-0.01424773829302633,0.007553315319694706,0.010016650269627433,-0.05377041012769335],[-0.0015946697875800385,0.0004163894275939875,-0.0053396028462454476,0.0024858571009270273,0.0002403034401538189,-0.0013081071341509395,-0.005189896360478075,0.0038890504710388713,-0.004996705362034021,-0.0012278875766953926,-0.0018649236903959783,0.0008568907761409391,-0.0016764620666542855,0.000888761875781,0.0011786105181474348,-0.006326902630689325]],"dB":[-0.00002188622560375625,0.000005714783726586116,-0.00007328398232510022,0.000034117426537660354,0.0000032980717045793088,-0.00001795326410200366,-0.00007122931875313751,0.00005337571242427465,-0.00006857784707574533,-0.000016852281725602137,-0.0000255953558157867,0.00001176049423552341,-0.000023008792975638885,0.000012197912742097552,0.000016175973170144553,-0.00008683428972364311],"velDw":[[0.0026148277614940004,-0.008228701420574112,0.00019022398243864378,-0.0010926000204436299,0.0035006194073331034,-0.001703385732373656,0.0016125993902571466,-0.0012071513170297515,0.003809818357097726,-0.00042342788620622563,0.002777015107485906,0.0011471971522727922,0.0017103131082494584,0.0033939544401553985,0.004268466498534673,0.0028736188191344847],[0.0022945810840153415,-0.006922954342651873,0.0006043511061926399,-0.0010713977172840115,0.002932768840751962,-0.0012308570004779934,0.0018019187487481212,-0.001283872578020844,0.0036193208676305873,-0.00033194840921829335,0.00246736156866916,0.000922579415690169,0.001591507976250815,0.0027233887638231386,0.003557628745231528,0.002929054160509429],[0.000013319472833951203,-0.00003784709939079621,0.0000071332916723004665,-0.000006742104942859513,0.000015962026483218153,-0.000004218722081922551,0.000013795705527208347,-0.000009805789638502577,0.00002376835863483674,-0.0000018167158057435547,0.000014903358316123689,0.000004631115103591429,0.000010623566585320657,0.00001296632060634554,0.00001923075806688536,0.00002038112830080439],[-0.000005109087151803661,0.000015465734554242277,-5.664099978727399e-7,0.000002595885650223254,-0.000006448853977709439,0.00000393097910919752,-0.0000030901767408377376,0.000002372584212340591,-0.000007064456788334111,2.9392879755656715e-7,-0.000005184036725923469,-0.000002003202418835835,-0.0000028585025414257883,-0.00000695203515500126,-0.000007580061830537531,-0.000005681232247738515],[0.000029798026423653743,-0.00010537807865182093,-0.00001832274191897547,9.990014835516493e-8,0.000044846038296155456,-0.000018412268087223406,0.0000011959972472783383,-0.000017391680478843487,0.000038416632447243915,-0.0000065798746688835014,0.000037022041226900914,0.000013486777280028538,0.000027961378902347956,0.000033717171134082094,0.00005272086327484377,0.000012207610250007989],[-0.0061911797371891775,0.01666212719065172,-0.004967222246029823,0.0033932055600539137,-0.007027985847232299,0.0006739984337126282,-0.007967346481366617,0.005438875288404658,-0.012293351882988909,0.0009041790195930318,-0.007145195472636791,-0.0019169847383552715,-0.005491153387573488,-0.004890649035635033,-0.008503905797827012,-0.011058426862780293],[-0.0016249444705179754,0.006391112498302049,0.0016482445477867663,-0.000041266951393262275,-0.0027892327932738277,0.0016456772033440897,0.0004786689459962295,0.00017339293502268815,-0.0015563090983483799,0.0005557356806635654,-0.0018173824827076783,-0.0010284903408059075,-0.0011100054713294627,-0.0026577947034954153,-0.0034859808768267406,-0.00013906417171239674],[0.000029798026423653743,-0.00010537807865182093,-0.00001832274191897547,9.990014835516493e-8,0.000044846038296155456,-0.000018412268087223406,0.0000011959972472783383,-0.000017391680478843487,0.000038416632447243915,-0.0000065798746688835014,0.000037022041226900914,0.000013486777280028538,0.000027961378902347956,0.000033717171134082094,0.00005272086327484377,0.000012207610250007989],[-0.0061911797371891775,0.01666212719065172,-0.004967222246029823,0.0033932055600539137,-0.007027985847232299,0.0006739984337126282,-0.007967346481366617,0.005438875288404658,-0.012293351882988909,0.0009041790195930318,-0.007145195472636791,-0.0019169847383552715,-0.005491153387573488,-0.004890649035635033,-0.008503905797827012,-0.011058426862780293],[-0.0016249444705179754,0.006391112498302049,0.0016482445477867663,-0.000041266951393262275,-0.0027892327932738277,0.0016456772033440897,0.0004786689459962295,0.00017339293502268815,-0.0015563090983483799,0.0005557356806635654,-0.0018173824827076783,-0.0010284903408059075,-0.0011100054713294627,-0.0026577947034954153,-0.0034859808768267406,-0.00013906417171239674]]},{"inputs":[-0.39853541760802336,0.14117650720172326,-0.2424647048887988,-0.1519345892977065,-0.06592830002391688,0.360654132773926,0.4217463789053443,0.14720771188994786,-0.13137394590729712,-0.2716843621638162,-0.35914360541257695,0.21091416027033175,0.9918535347176524,0.05551814829796102,-0.14279636005550073,-0.04057755421179683],"outputs":[0.0006371095593388349,0.0003290085216684064,0.0010785698496988188,0.00003401917452687718,0.0002601445259909562,-0.000009526081195589462,0.0007250986129016389,0.0002970624915009738,0.00044616265708457485,0.0009505120293953813,0.00032549312149750113,0.0001919498507527006,0.00006602315571658988,-0.00015218187719427803,-0.00004960671993469488,0.0012230266398477103],"biases":[0,0,0,0,0,0,0,0,0,0,0,0,0,0,0,0],"weights":[[0.00009137788851409307,0.0005151874488132723,-0.0003233010127736495,0.00002283827905208418,-0.0008784659423854612,-0.0007263414889760354,-0.0006828957819031312,0.0006844312669939143,-0.000575115826275361,-0.00030921335254925484,-0.0009308081417617731,-0.00014585856798364697,-0.0008640270499549811,0.00097902870936859,0.00046123055046650525,-0.00010829081494665284],[0.00041270793354598504,-0.000034593668406759864,-0.0006943034767569416,-0.0007975371453476461,0.0007211912492862522,-0.0005478615906858113,0.0004927485869437307,0.0003800170790695603,0.0004131903110208448,0.0008088411457599727,0.0007932404991635908,-0.00033543534002606246,0.000525431639311456,-0.00026442040035874184,0.00020181740175015712,0.000661159750171871],[0.0004336257344610708,0.00030439365088440385,-0.0009286674807570984,0.00024243086844383347,-0.0009434190718258351,0.00003936088109920238,-0.0007147345338088801,0.0006975729531264963,-0.00019989350632760574,0.0005376963596697807,-0.0006478568421230472,0.0001692333260185181,0.00019797970940422938,0.00016519946430022564,0.0008455024125537911,0.000593670498312474],[0.00018051066746643324,0.0001476881266693371,0.0003898582047087105,-0.0009294105617135072,-0.0007433183488018173,-0.0006190522987244755,0.0007389131430772174,-0.00015445083647640888,-0.00045510162060991504,0.0003624052852502342,0.00010880239123238893,0.00019772593072828415,-0.0009231889759025119,0.0005480894822598809,-0.0005602160480214769,0.0005569386212869661],[-0.0002605494759186408,-0.00005225954742986383,-0.0006489510062718387,-0.0006818667630174408,-0.00018480588115956848,0.00023514708029567568,-0.00004675329324894302,-0.0006332244111400735,0.0006860179067008404,-0.0006303477104878298,0.0005847688830686645,0.000987706665853615,-0.0009715723316869625,0.0007035989887292063,0.00012967867459808926,-0.00025527228643675156],[0.0001320252844048395,-0.00026364381958164933,-0.0002678273295600658,-0.0005741575624403824,-0.0006366866786203475,-0.0003509869137024627,0.0009756236306252027,0.00019369418929350587,0.0006985547765932269,0.0002365095351936673,0.0006320317813372514,-0.0005033085183354238,-0.00013539723767555658,-0.0008926874152561236,0.0004103280249250789,0.0007193612505946553],[-0.0008322657282290298,-0.00088545269894587,0.0005312693579753475,0.000089499107836741,-0.0005096203338774197,-0.00013898354610528124,-0.000860952628164305,0.000049721104345619785,-0.00010241194156996882,0.0005501886571435993,-0.0009648937970502589,0.0007236334490708366,0.00048202479188656826,-0.0008006195021786775,0.00040494727270241307,0.0002614510941388157],[0.0006495048842084305,0.00046361129336507,0.00019987925083109797,0.00044157533627181675,-0.000571157486838996,-0.0003786185473727448,-0.0008698033245873236,-0.00026449583919438055,-0.000498598024273046,-0.00009755292254651927,0.0009647906400093617,-0.00042501842668955103,0.0008852095446026497,0.0006216130537205736,-0.00014669585555137263,0.00032323503470476343],[-0.0003774537844997916,-0.00008268807568746533,-0.0006532572429636197,-0.0003195145047126159,-0.0004992321209579955,-0.00034592696714900203,-0.0008699594417394693,0.00042071806232974954,-0.000545993717932828,0.00015469542412808982,-0.0008982442842216937,0.000546979281843963,-0.000015804978479502677,-0.00078997572285625,0.0003145603952843784,-0.00014038406563808656],[-0.0000577417995817188,-0.0009794451889816368,0.0005267661457780277,0.00022626027921512733,0.0005289462164831115,0.00032018221203073685,0.0009465098749311381,-0.0009683073243053264,-0.000926555180041519,0.000682052570624932,-0.0006048979747505931,0.00040555491739271206,-0.00014890760755424383,-0.0005657305500712181,0.00020634882153287246,-0.0005508486877702931],[-0.00024805136131298306,0.0004937266762784309,0.0007775342582748721,0.0008671947885562597,-0.0006610999563544297,-0.00040721206959612444,0.0006939087839421731,0.0009121977980911468,0.0008623639571584316,-0.000978959384505795,0.0005095873446095419,0.0008049748174922311,0.000946133641244507,0.0005034132644171168,-0.00020290276216136042,-0.0002929466543736384],[0.0003708458702517387,0.0008383654617772528,0.0007018943437287856,0.000664450994186302,0.00016991039133011326,0.0003386525686494921,-0.00013264317912328394,0.0001034467195645339,0.0009685978893073182,-0.000018296267107314168,-0.00020782104100548814,0.000003074937590666368,-0.0006029898836956196,0.00019079176721306212,-0.00019188286837284018,0.0008418168915618683],[0.0006886613101260749,0.0007689170671159994,0.0008495356443223517,0.00019343153835685767,-0.00019323210555255484,-0.00010796949475470477,0.0007977402168115159,0.0005570259530084075,-0.0002569430013086048,0.0005188161341694705,-0.00020837516890027732,0.0008722913678071317,-0.00033997699218727627,-0.00051767653992899,-0.00006687575480726317,0.00047143972214528713],[-0.0008990321985713146,0.0008288695981262904,-0.0008270856534601,0.000555651367607108,-0.0001701389500176561,-0.000703068898570821,-0.0005276785960517375,-0.0002514775157204022,0.00009972247572483167,0.0008384891162357023,0.0005677972783613739,-0.0008511898963640237,-0.0005972748316836338,0.0002945376701568958,0.0005531185342888705,-0.0008571059160547887],[-0.0007505831235307586,0.00020901756393904974,-0.00041866258171567637,-0.0009188403613026334,0.0003123178222503187,0.0008186058915960311,-0.0006282659692764063,-0.0008625088090913171,0.0003557712397070171,0.0008520673239012036,0.0009735725096798544,0.00044243502397799437,-0.00021993481909945268,-0.0009129320482094505,0.00001080378499837008,-0.00029477704567038476],[0.0008494864349421171,0.0005669697186946534,-0.0003487206060624738,0.0007505648634283872,-0.0008268740561729239,-0.0004918006444194483,-0.0006638201059845236,-0.00011126758264882019,-0.0008125570640727457,0.0006797332251279207,-0.0008920159943857036,0.0006898256823540945,0.0007437780049314085,-0.0006073789171717329,0.0009151687481120823,0.0007885161962072226]],"error":[-0.0000271064118072713,-0.001487130390884456,-0.00012178733220146083,0.0005211028028903494,0.0028426002535501377,-0.0005570952651571008,0.0006655120283506469,0.0006027226900473454,-0.001192602160965625,0.0006902666463557953,0.0009792605932557761,-0.0011444668786653777,0.00022891267373138726,0.0023763270581352797,-0.0005185576482191792,0.0010307284949774525],"dW":[[-0.0013878285870127533,-0.0017064291019896253,-0.009105561635728133,0.0037909382153081287,-0.007031293555589383,-0.0008639005627057559,0.003814659872887731,0.004787923275734801,0.006408006489601572,0.002682820123790911,-0.014912188900006977,0.01155119149426357,0.005692226686542133,-0.006804424450122022,0.010660790646135865,-0.0010880968238495621],[0.00039339913304616697,0.00048371083836256144,0.002581096892595546,-0.0010745936647290697,0.0019931170281741323,0.0002448845164214917,-0.0010813178953823096,-0.0013572028155292104,-0.0018164377223195975,-0.0007604823251911119,0.004227065388320545,-0.0032743443693394594,-0.001613540075873471,0.001928807854663067,-0.0030219479819217727,0.0003084360353853785],[-0.0008673421960415176,-0.001066455885517248,-0.005690643570272024,0.0023691979740815415,-0.004394301753535953,-0.0005399063099222841,0.0023840231439702262,0.002992277236047422,0.004004770094052149,0.0016766646252487096,-0.009319573605381524,0.0072190729397611075,0.0035574338508896955,-0.004252516845809284,0.006662604918998819,-0.0006800207875346256],[-0.0008960803622064612,-0.0011017914042841792,-0.005879195056933596,0.0024476980232749778,-0.0045399007737938965,-0.0005577953476271962,0.0024630144043576167,0.003091422141960648,0.004137462529564369,0.0017322185540477335,-0.009628364594774431,0.0074582667881021025,0.003675304427917138,-0.004393418022175246,0.006883360980594132,-0.000702552321774487],[-0.000316498978299564,-0.0003891568975984753,-0.002076553964603682,0.0008645362137440746,-0.0016035101505283357,-0.00019701542972055632,0.0008699460175611848,0.0010919020109021868,0.0014613674382232878,0.0006118261549641432,-0.0034007748472895047,0.002634288081604012,0.001298131446058433,-0.001551771887777378,0.002431229172638841,-0.00024814414133135466],[0.0010381351430738673,0.0012764573640556749,0.00681121834492639,-0.0028357292992530992,0.005259606992991756,0.0006462221218519205,-0.0028534737718888415,-0.0035815023997887796,-0.004793370590686403,-0.002006825539635272,0.011154740219449746,-0.008640618839234756,-0.004257946997879499,0.005089902467903141,-0.00797457375231679,0.0008139272835823962],[0.0012030044221930112,0.0014791752922967455,0.00789292785639334,-0.00328607976514772,0.006094900566444029,0.0007488505475355977,-0.0033066422893939123,-0.004150291273526623,-0.005554619797121508,-0.002325535374520432,0.012926257146712798,-0.010012860795084398,-0.004934164017167869,0.005898244769258248,-0.00924103913940885,0.0009431894566192304],[0.00041014263907898705,0.0005042981113378516,0.0026909512561723845,-0.0011203295700649614,0.0020779463126896973,0.0002553070746673592,-0.0011273399914772826,-0.0014149668816409342,-0.0018937473384501725,-0.0007928493014503003,0.004406974007545093,-0.003413704119009094,-0.0016822141417906782,0.00201090006900181,-0.0031505654597346632,0.000321563417185196],[-0.00027692309502435296,-0.000340495672725505,-0.001816896073259567,0.00075643228094103,-0.0014030029296555387,-0.00017238009063691347,0.0007611656283425207,0.0009553676474625286,0.0012786341243021969,0.0005353217674186511,-0.0029755328160997064,0.0023048896165885455,0.0011358095995200736,-0.0013577341583970808,0.0021272217396019716,-0.00021711553066878852],[-0.0007859522709392857,-0.0009663814684725952,-0.0051566431998510175,0.0021468764422306603,-0.0039819479072349265,-0.0004892424147176584,0.002160310443244621,0.002711486999807887,0.003628969240024563,0.0015193292518593316,-0.00844504057656249,0.006541647341702711,0.003223610273527159,-0.0038534678555076167,0.006037397339086356,-0.0006162087866680671],[-0.0004371164886250961,-0.0005374642835070285,-0.0028679270382634737,0.0011940102810801588,-0.002214606600752528,-0.0002720978541766516,0.001201481756853605,0.0015080250037221145,0.0020182934132021366,0.0008449926187559151,-0.004696807452075696,0.0036382131861664624,0.0017928483135190656,-0.002143150926984584,0.0033577686875845823,-0.00034271167734698746],[0.000613312876668751,0.0007541096581857003,0.004023953860551022,-0.0016753014340976128,0.0031072878290850092,0.0003817772196271606,-0.0016857845717023886,-0.0021158917066486363,-0.002831843161776181,-0.0011855989587652854,0.006590033925859068,-0.005104733070492152,-0.002515523859678002,0.003007029234469265,-0.004711244774701283,0.00048085462381614237],[0.0028160375972297318,0.0034625086651033188,0.01847605975986964,-0.0076921780131803605,0.014267170452453624,0.0017529372774225571,-0.007740311536468386,-0.009715156528186308,-0.013002461086964416,-0.0054436998962972775,0.030258264595774326,-0.023438477809902304,-0.0115500750678151,0.013806831231439946,-0.021631768906225708,0.0022078530403974632],[0.0001584077255307094,0.0001947730111305911,0.0010393151732809233,-0.00043270033917300256,0.0008025567639279456,0.00009860621441548477,-0.00043540794575941193,-0.0005464969112339836,-0.0007314143423062972,-0.00030621896521996697,0.0017020876702208243,-0.0013184610757402948,-0.0006497147349884207,0.0007766617655638995,-0.0012168301002131792,0.00012419613245912632],[-0.00018181127605103558,-0.0002235492592000524,-0.0011928661764465246,0.0004966285611967096,-0.0009211284920876046,-0.00011317454126292459,0.0004997361963001745,0.0006272377212444601,0.0008394753125279676,0.0003514605151430998,-0.001953558327012212,0.001513253787344437,0.0007457052024555772,-0.0008914077023967385,0.0013966075992561272,-0.00014254517730967432],[-0.00012086066990895248,-0.00014860636706044667,-0.0007929684468887841,0.0003301382725310432,-0.000612328393727794,-0.0000752337873138069,0.0003322041007271553,0.0004169618784287633,0.0005580487131924484,0.0002336365171036849,-0.001298645349382132,0.0010059489733154337,0.0004957141948559508,-0.0005925712332794348,0.000928407377761584,-0.00009475817999925158]],"dB":[0.002855707123560703,0.003511285030446116,0.018736332044535783,-0.007800537737687079,0.014468152106423318,0.0017776309077745319,-0.00784934931799798,-0.009852013954409428,-0.01318562677799219,-0.00552038530581969,0.030684512819623474,-0.02376865568591947,-0.011712780994567682,0.014001328086035098,-0.021936495670902133,0.002238955069861532],"velDw":[[-0.0014598422879226226,0.004318109844371207,0.00015431573468090284,0.00015689238293750414,-0.004212777722757754,0.001205302330327442,-0.0006640572902628984,-0.002057402154628527,0.0010333144415134083,-0.0020160511866742243,-0.0023206031018533873,0.0023581121697015357,-0.0006450006700388212,-0.0034885873214920444,0.0017396476038680942,-0.0030419755709642443],[0.00025575932519217564,-0.0008467277956709522,0.00015784653338266514,-0.00004619035352646109,0.0012118201054561084,-0.000247372836400407,0.00013184508473751497,0.0003177586717485602,-0.0004752006193788989,0.00034280824687066513,0.0008222803889228899,-0.0007802393084247413,0.000006108573906220212,0.0010173235542518414,-0.0005830985194745983,0.0006459782231098608],[-0.000575281803990124,0.001649733034611642,-0.0002715663139076136,0.00010897511030667884,-0.0020718288314982053,0.00046153874368994876,-0.00010851578055663108,-0.0005768766800517584,0.00071336748617213,-0.0007330113983598706,-0.0015078255402178001,0.0014050700099032692,-0.00005194274788515498,-0.0017882849339331268,0.0010636694633321137,-0.001240349276000195],[-0.0009401822577321154,0.002879718470847617,0.00011583587040671155,0.000005371450402894126,-0.0028674329185218246,0.0008136339237139756,-0.0003674003715828638,-0.0012809038569214903,0.0006889524483736309,-0.0014063349224809243,-0.0015627793074084323,0.001585472475757421,-0.0004499310570467755,-0.0024350321314648687,0.0011151668035526048,-0.0020154333611405503],[-0.0007100791239656961,0.002456206406050093,0.00046154076615468546,-0.00016130342368603744,-0.002134518182200987,0.0007130005374786376,-0.0004704278409717884,-0.0012520717917892095,0.00033847991599630044,-0.0012722712634693214,-0.0007048925990092642,0.0008622512353300104,-0.0006003947179714713,-0.001778166638448322,0.0004973372814840629,-0.0016275961429044145],[0.0022486494431275426,-0.006778247410698494,-0.0009780315744346306,0.00005557253880486882,0.005544862154774862,-0.001893813873787893,0.0010462431551448562,0.0034212214118566763,-0.0007866967596170359,0.003432586378017289,0.002323398818845669,-0.0025988777977535267,0.0014884016355996674,0.004615208401450194,-0.0017529885760795122,0.00457033947230441],[0.002125865873981316,-0.006551242215818903,-0.0008505490869050981,0.00012036523162202873,0.0056337041412514305,-0.0018452834314146263,0.0009685526490611539,0.0031965752092655586,-0.0009246230856355535,0.003329684578972839,0.002462409490041919,-0.0027020649881660712,0.0013850388732481826,0.0047364089999818075,-0.001797330714604296,0.00443563921625708],[-0.00007669753198967844,0.00001619810946540922,0.00036080164910072,-0.0000012750034977432908,0.000755474363400974,-0.00002029063839823022,-0.000013263737049708956,-0.00019556750660614387,-0.0005303170857457247,-0.00009474969500283628,0.0007066273054190395,-0.0006116871106245404,-0.000230556537255644,0.0006666347770986966,-0.00045031398369606556,0.00008106044347644221],[-0.00027273099200883185,0.0009204075705240481,-0.000023468796138272264,-0.000017672946715539435,-0.0010899722099088102,0.0002685351652554192,-0.00012316446693966102,-0.00036941509976638233,0.0003351073994310514,-0.0004371771994133198,-0.000629790002982601,0.0006243159557353229,-0.00010511161720770292,-0.0009326393659228932,0.00043191556184095305,-0.0006592301977032317],[-0.0010568487357920679,0.0027858388136686066,0.00031258794019785395,0.00003974186580382955,-0.002019123940452082,0.000745524381907848,-0.0001414319291734313,-0.0012584705261269287,0.00012808591047123595,-0.0014899974750083784,-0.0010764549566338365,0.0011059060032440602,-0.0005874764575983492,-0.0017785349833791798,0.0007860702060944943,-0.0018853485951338584],[-0.0006256425689037312,0.002294420219326289,0.00011255989785327196,-0.00017649401898704,-0.002590045295465375,0.0006820397683295865,-0.0003169047516839487,-0.000931543965634137,0.0007067195040529116,-0.0011655948499196974,-0.0012940383163510135,0.001337991077807837,-0.000373225338234797,-0.0022427709612153407,0.0008425677938579524,-0.001593288835200724],[0.0016931759964746741,-0.005174121952896342,-0.001102713724664806,0.00021257143164530546,0.003717254061552601,-0.001447547484461267,0.0007660053872580766,0.002672734898024281,-0.0001855761071270471,0.0027708004894962954,0.001143432292647272,-0.0014540830644466946,0.0013712347232947883,0.0031286899529944126,-0.0008547701094389911,0.003386148958265754],[0.003843409669089473,-0.012279249216246539,-0.0012818894498111341,0.0003946332897483521,0.0114302905850158,-0.0035030788470497808,0.0017214843418252024,0.005682500020587436,-0.0022724513597869684,0.006247411830266214,0.005310091912226146,-0.005676036247922343,0.0024127159164966288,0.009723708086266396,-0.0037247580318353728,0.008380040857902761],[0.0004556564964559732,-0.0014127304201438573,-0.000362249217168304,0.00009756676484399068,0.000931933874747698,-0.0003964018913924459,0.0001928137191024235,0.0007287043044270768,0.000021321196684508627,0.0007896669629523696,0.0002079638352158271,-0.00030888059654455603,0.0004163154794961914,0.0007985967812649817,-0.00014683650570442095,0.0009057060415085797],[-0.0009925170582351258,0.0032696005304421612,0.0007061871653577016,-0.0001327901591442383,-0.0025758956859869985,0.0009340697593087371,-0.0006938112101482636,-0.001796806391210732,0.00030039910201908905,-0.0016662699722396468,-0.0007222604067363199,0.0009609970054192966,-0.0008475019832565835,-0.002084522895024826,0.0005697382718803258,-0.0021513837857060534],[0.00026325716521784627,-0.0006485719531750115,-0.0002494783776428491,-0.000044046115718361635,0.00015625858087019447,-0.00016527908080829346,0.0001454957925126471,0.000459331353867143,0.00016329846097260978,0.0003355084157139864,-0.00010772088487598446,0.0000369878065206757,0.00023500615437339003,0.00008164568080658451,0.00001504957161390947,0.00040247228427139637]]},{"inputs":[0.0006371095593388349,0.0003290085216684064,0.0010785698496988188,0.00003401917452687718,0.0002601445259909562,-0.000009526081195589462,0.0007250986129016389,0.0002970624915009738,0.00044616265708457485,0.0009505120293953813,0.00032549312149750113,0.0001919498507527006,0.00006602315571658988,-0.00015218187719427803,-0.00004960671993469488,0.0012230266398477103],"outputs":[9.773780702555048e-7,0.0000010220379125007494,0.0000016221084533061263,3.716629079005801e-7],"biases":[0,0,0,0],"weights":[[0.00043368188937257406,0.0006300600001443008,0.0003126287735104211,-0.00014335707454596566],[-0.0007981163896882984,-0.0008437494212404637,-0.0006295951508233962,-0.000903168271613225],[0.000030687134888773436,-0.00048764047988332173,0.0002724274660877111,-0.0009125424130612671],[0.0003365401722820914,-0.0002541903706634829,-0.0006847496810271697,0.0006151219409719448],[0.00026308659625736244,-0.0008879326232912899,0.0009279233179680399,0.0007636577160334457],[-0.00018859096774678536,-0.00013603787408502846,-0.00014519334729696176,-0.0003593488241983822],[-0.0009623394757214246,-0.0001338279576250949,0.000804477228824511,0.0006895463176224655],[-0.00040301305444323234,0.000644421105266217,0.0009009758457492445,0.0007491810040075502],[0.00041245441671741733,0.0009461544308408498,-0.0006619493902157013,0.0000030472433735087194],[0.0009065419938980175,0.000556682797251351,-0.000255654186750431,0.0005960616364595598],[0.0006239952159593779,-0.0005890426061128701,0.0006713418383635425,-0.0009051190671800145],[-0.00044038569902751985,0.000534439091619631,-0.0006778028170903621,0.0005081607290721353],[0.00021998328830313035,0.00044282166310740615,-0.0001951055086487586,0.0006468565571844217],[0.0007556945943839686,-0.0007592222072027318,0.0003096715160876988,0.0005517387404608807],[-0.00013287212401719742,0.00026375780420419867,-0.0008597621878480712,0.0007378344678502881],[0.000487317209951277,0.0004695746181877583,0.0005993900778007527,0.00041359582541318106]],"error":[1,-1,1,1],"dW":[[0.005003052146110213,-0.005003052146110213,0.005003052146110213,-0.005003052146110213],[0.003944246405358963,-0.003944246405358963,0.003944246405358963,-0.003944246405358963],[0.013548046358503438,-0.013548046358503438,0.013548046358503438,-0.013548046358503438],[0.0032117958781838793,-0.0032117958781838793,0.0032117958781838793,-0.0032117958781838793],[0.004334115364712881,-0.004334115364712881,0.004334115364712881,-0.004334115364712881],[0.0010663950529175032,-0.0010663950529175032,0.0010663950529175032,-0.0010663950529175032],[0.008490417987522881,-0.008490417987522881,0.008490417987522881,-0.008490417987522881],[0.004214371790271086,-0.004214371790271086,0.004214371790271086,-0.004214371790271086],[0.008260647017475089,-0.008260647017475089,0.008260647017475089,-0.008260647017475089],[0.008542358380898759,-0.008542358380898759,0.008542358380898759,-0.008542358380898759],[0.0060945112766676674,-0.0060945112766676674,0.0060945112766676674,-0.0060945112766676674],[0.003640678785201852,-0.003640678785201852,0.003640678785201852,-0.003640678785201852],[0.005421010075067093,-0.005421010075067093,0.005421010075067093,-0.005421010075067093],[-0.0039234803642604794,0.0039234803642604794,-0.0039234803642604794,0.0039234803642604794],[-0.0007381329153755645,0.0007381329153755645,-0.0007381329153755645,0.0007381329153755645],[0.011314590803757326,-0.011314590803757326,0.011314590803757326,-0.011314590803757326]],"dB":[11,-11,11,-11],"velDw":[[0.004062094775449203,-0.0004546266157700504,0.004135387702761142,0.0027869279088210542],[0.0026556903449314237,0.0005238771373341925,0.002294779919529719,0.001924504050978797],[0.008253464868689286,-0.0007798481107522099,0.008381795380230931,0.005153062081379594],[0.0032040587811617565,0.000566106507204675,0.0033163943532524554,0.0027782486063104165],[0.0005868426395332962,-0.0010064544006401167,0.0007129209615673146,-0.00030531326272845237],[-0.00016083207832982312,-0.0002513181861662728,-0.00014074535117432384,-0.00039028510786858004],[0.005261267366602464,-0.0007008120065555815,0.005676206610355638,0.003207030729455025],[0.004304160087197376,0.0008085564580362075,0.004246837802741753,0.0033798465302950697],[0.004067421024791157,0.0005718312025561414,0.004141709158982758,0.0021442258156277186],[0.006342072155123736,-0.0007254997690056598,0.006357701976550817,0.0041123914786069605],[0.0002661675408211623,-0.0008659010593591734,0.0003629845736177042,-0.0010022021359526944],[0.001738483943285316,0.00006821310440734135,0.0017967057873941226,0.0009928744031744937],[0.001608792602775771,-0.00043423022045796023,0.0020338911816885786,0.0005722863513882555],[-0.002605097755734668,0.0005854480199447142,-0.0032977230581305466,-0.0015592272328076155],[0.0009214935315589053,0.0004907602836867241,0.0009702777503935866,0.0009777060918403464],[0.008978045976758258,0.00009786105803084237,0.009107312836433621,0.005998805723586387]]}],"cost":2.0000002217058883},{"layers":[{"inputs":[-110.32047178015051,-133.64304599471706,-1.13257476903494,0.07954502228944535,-2.0113774129118127,622.6681011268261,72.43097725057811,-2.0113774129118127,622.6681011268261,72.43097725057811],"outputs":[-0.39853541760802336,0.14117650720172326,-0.2424647048887988,-0.1519345892977065,-0.06592830002391688,0.360654132773926,0.4217463789053443,0.14720771188994786,-0.13137394590729712,-0.2716843621638162,-0.35914360541257695,0.21091416027033175,0.9918535347176524,0.05551814829796102,-0.14279636005550073,-0.04057755421179683],"biases":[0,0,0,0,0,0,0,0,0,0,0,0,0,0,0,0],"weights":[[0.000639854755809125,0.000546623080850062,0.00014663411850591166,0.0008434508392051365,0.0008419215103154569,-0.0006994706551441287,-0.000182996669867343,0.00029613811567151787,0.0000636968028752771,0.00031111088579389697,-0.0009425432078630766,-0.0008008412845509603,0.00006075309902136705,0.00002119750672494884,0.0001888441850776695,-0.0000686960296558288],[0.00037184127011136246,-0.0008021730024778661,0.00010979852069063143,-0.0003282855581962501,0.00019220677766976888,-0.0003568367978003155,-0.0003634874064483191,0.0004007885556935427,-0.00022396196047031657,0.0007888451486630361,0.00024535985895726014,0.0006081401008354941,0.00046738606418806033,0.000033825418971843644,0.0007365408315098833,-0.0008836235404456562],[0.0009369829252840127,-0.00031492504156933806,0.0006226506340677939,0.0007906730075641018,0.0006492649728222574,-0.0005020731784377238,-0.0005625601012572178,-0.0008562438583491205,-0.0008152456813456989,0.00022809093502022544,0.00042892762615364343,-0.00017328077319643902,0.0005776764941578833,-0.00011898562263009718,-0.0006832884545355027,-0.0002468416660097767],[-0.00046025965913437227,-0.00030705262992429793,-0.0003985546086488646,0.00079762532586096,-0.0007687657834331957,0.000920178217074431,-0.0006620682044259353,-0.0004275095404996455,-0.0009935124835289944,0.0009150013490495125,-0.0007977526196215613,-0.00047425414231082265,0.00011130947998028202,-0.00044658909752324827,0.0006481292752607723,-0.00026537760167793845],[0.00041803272779811484,-0.0009607716965750664,0.0006207616332565759,0.0007598533040358895,0.00030580812905933003,0.00038524409738633996,0.0009781856320511804,-0.0001134018745586062,0.0008936161028615282,-0.00011612904327806884,0.000540741165327681,0.000824674250030458,-0.0001431351566364615,-0.000941464378366036,-0.0007107764646597545,0.0008466204975197816],[-0.0009747777428349848,0.00022165837488468125,-0.0004959442380340078,-0.00023629137533330888,0.0005816986963117455,0.0004903945575242605,0.0008776859886986189,-0.0005232389992870664,-0.00015092316155668165,-0.00007306467081400264,-0.0009458684436921546,-0.0003809812429954152,0.0006192165598206285,0.0009596768663759269,-0.00009950378825040875,0.00040669376746045463],[-0.0006339676088352081,-0.00021328394458224043,-0.00040374440124718656,0.0005313253826840112,-0.0008925315976469728,0.000034221225458396076,-0.0004939441928172865,0.0004960286321886353,0.0004298490671863987,-0.00022978733371266169,-0.0004796420695387318,0.0008716852452503179,0.0002383740606339513,0.0008161089049660524,-0.0006193989683168961,-0.0007075495424574864],[-0.0004518647770902341,0.0006519402713992289,-0.0009535695821274395,0.0002051592101987439,0.0007501718459424056,0.00019812844520349936,-0.0006727402198489406,0.0003260056727915057,-0.0007610813206031761,-0.0005990401256889673,0.0006811432099027472,-0.0006311643373422556,0.0008737961340370407,0.0007153633072442753,-0.00013397465124920387,0.0003219427923234777],[-0.000495870901595768,-0.00003889597177784723,-0.0005316512870290469,-0.0007391829927768342,-0.0009173359360344614,-0.00015063981381558867,-0.0003665060095792772,0.0009523211497723161,-0.00034423474181682353,-0.0005524862361999198,-0.00033633538983828833,0.0006031583396586737,0.0009602491620076509,-0.0009089563218208291,-0.0004593581610903424,-0.0007600236488227334],[-0.00020875377026217354,-0.00006944545624903349,0.0007811134600084826,-0.0002521524652714015,-0.000801894771390939,0.0003078500083174077,0.0009732274914096837,-0.000968802640227906,-0.00023170346413008524,-0.0007461841167606597,0.0005628321030172841,0.000035754797653786545,0.0008613054749521819,-0.0003985924709248309,-0.0005397507149064309,0.0007035284645330765]],"error":[-0.000001346008095870721,0.000003916440396715362,-0.0000025911041256473476,5.030896071454389e-7,-0.000001952408589246172,-0.0000018248861023206095,-0.0000035967854127526786,0.000001395301099335288,-0.000004441892030984363,0.0000013494689476733074,-0.000001921411868746208,-8.199187489869682e-7,-0.000002112504926863494,-2.9737224581271108e-8,-0.0000031428515942741024,-0.000004177566233702871],"dW":[[0.002538437668634304,-0.0006628197361346212,0.008499721450812323,-0.003957053273964101,-0.00038252139040932713,0.0020822796354454335,0.008261414695601602,-0.00619069370210261,0.007953888139626867,0.0019545840159558643,0.0029686349999855643,-0.0013640214676433559,0.0026686367881150787,-0.0014147547294742586,-0.0018761434870188621,0.010071331437146922],[0.0029336465565309644,-0.0007660140174165614,0.009823041500586948,-0.004573126161265904,-0.0004420760744452319,0.0024064693641051875,0.009547632811037318,-0.007154521651690644,0.009192227502833512,0.00225889283739803,0.0034308212302846934,-0.001576385715919157,0.0030841163526767316,-0.0016350176298364626,-0.0021682399171188,0.011639335153013195],[0.00002478778690822083,-0.000006472419859222903,0.00008299958935581103,-0.00003864053648095719,-0.000003735312799074581,0.000020333413943750076,0.00008067252923535082,-0.000060451985170998234,0.0000776695393127257,0.000019086469083085583,0.00002898865420143173,-0.000013319639042534668,0.000026059178390156965,-0.00001381504820658949,-0.000018320499077091846,0.00009834632562806817],[-0.0000017409403034826206,4.54582598910652e-7,-0.000005829376007509419,0.000002713871454396706,2.623451872529501e-7,-0.0000014280927931621807,-0.000005665937747880329,0.000004245772234503951,-0.0000054550263742023355,-0.0000013405151254910346,-0.000002035983148873037,9.354887760996033e-7,-0.0000018302349501004283,9.702832409548594e-7,0.0000012867181463726181,-0.000006907235511555345],[0.00005171060411459852,-0.000013502324440780982,0.00017314812825945208,-0.00008060927311263128,-0.000007792356861559066,0.00004241819258155735,0.0001682935728654779,-0.0001261108417904921,0.00016202893844595667,0.000039816900571048324,0.00006047416926632047,-0.00002778652987570391,0.00005436289501255148,-0.000028820018958534732,-0.00003821898576363719,0.00020516345123944133],[-0.013552610732540729,0.0035387663761351144,-0.04537965126394482,0.02112653910419386,0.00204226543166489,-0.01111720239743823,-0.044107341634989715,0.03305185033522092,-0.042465470434233835,-0.010435440916911563,-0.015849415984850998,0.007282452592875731,-0.01424773829302633,0.007553315319694706,0.010016650269627433,-0.05377041012769335],[-0.0015946697875800385,0.0004163894275939875,-0.0053396028462454476,0.0024858571009270273,0.0002403034401538189,-0.0013081071341509395,-0.005189896360478075,0.0038890504710388713,-0.004996705362034021,-0.0012278875766953926,-0.0018649236903959783,0.0008568907761409391,-0.0016764620666542855,0.000888761875781,0.0011786105181474348,-0.006326902630689325],[0.00005171060411459852,-0.000013502324440780982,0.00017314812825945208,-0.00008060927311263128,-0.000007792356861559066,0.00004241819258155735,0.0001682935728654779,-0.0001261108417904921,0.00016202893844595667,0.000039816900571048324,0.00006047416926632047,-0.00002778652987570391,0.00005436289501255148,-0.000028820018958534732,-0.00003821898576363719,0.00020516345123944133],[-0.013552610732540729,0.0035387663761351144,-0.04537965126394482,0.02112653910419386,0.00204226543166489,-0.01111720239743823,-0.044107341634989715,0.03305185033522092,-0.042465470434233835,-0.010435440916911563,-0.015849415984850998,0.007282452592875731,-0.01424773829302633,0.007553315319694706,0.010016650269627433,-0.05377041012769335],[-0.0015946697875800385,0.0004163894275939875,-0.0053396028462454476,0.0024858571009270273,0.0002403034401538189,-0.0013081071341509395,-0.005189896360478075,0.0038890504710388713,-0.004996705362034021,-0.0012278875766953926,-0.0018649236903959783,0.0008568907761409391,-0.0016764620666542855,0.000888761875781,0.0011786105181474348,-0.006326902630689325]],"dB":[-0.00002188622560375625,0.000005714783726586116,-0.00007328398232510022,0.000034117426537660354,0.0000032980717045793088,-0.00001795326410200366,-0.00007122931875313751,0.00005337571242427465,-0.00006857784707574533,-0.000016852281725602137,-0.0000255953558157867,0.00001176049423552341,-0.000023008792975638885,0.000012197912742097552,0.000016175973170144553,-0.00008683428972364311],"velDw":[[0.0026148277614940004,-0.008228701420574112,0.00019022398243864378,-0.0010926000204436299,0.0035006194073331034,-0.001703385732373656,0.0016125993902571466,-0.0012071513170297515,0.003809818357097726,-0.00042342788620622563,0.002777015107485906,0.0011471971522727922,0.0017103131082494584,0.0033939544401553985,0.004268466498534673,0.0028736188191344847],[0.0022945810840153415,-0.006922954342651873,0.0006043511061926399,-0.0010713977172840115,0.002932768840751962,-0.0012308570004779934,0.0018019187487481212,-0.001283872578020844,0.0036193208676305873,-0.00033194840921829335,0.00246736156866916,0.000922579415690169,0.001591507976250815,0.0027233887638231386,0.003557628745231528,0.002929054160509429],[0.000013319472833951203,-0.00003784709939079621,0.0000071332916723004665,-0.000006742104942859513,0.000015962026483218153,-0.000004218722081922551,0.000013795705527208347,-0.000009805789638502577,0.00002376835863483674,-0.0000018167158057435547,0.000014903358316123689,0.000004631115103591429,0.000010623566585320657,0.00001296632060634554,0.00001923075806688536,0.00002038112830080439],[-0.000005109087151803661,0.000015465734554242277,-5.664099978727399e-7,0.000002595885650223254,-0.000006448853977709439,0.00000393097910919752,-0.0000030901767408377376,0.000002372584212340591,-0.000007064456788334111,2.9392879755656715e-7,-0.000005184036725923469,-0.000002003202418835835,-0.0000028585025414257883,-0.00000695203515500126,-0.000007580061830537531,-0.000005681232247738515],[0.000029798026423653743,-0.00010537807865182093,-0.00001832274191897547,9.990014835516493e-8,0.000044846038296155456,-0.000018412268087223406,0.0000011959972472783383,-0.000017391680478843487,0.000038416632447243915,-0.0000065798746688835014,0.000037022041226900914,0.000013486777280028538,0.000027961378902347956,0.000033717171134082094,0.00005272086327484377,0.000012207610250007989],[-0.0061911797371891775,0.01666212719065172,-0.004967222246029823,0.0033932055600539137,-0.007027985847232299,0.0006739984337126282,-0.007967346481366617,0.005438875288404658,-0.012293351882988909,0.0009041790195930318,-0.007145195472636791,-0.0019169847383552715,-0.005491153387573488,-0.004890649035635033,-0.008503905797827012,-0.011058426862780293],[-0.0016249444705179754,0.006391112498302049,0.0016482445477867663,-0.000041266951393262275,-0.0027892327932738277,0.0016456772033440897,0.0004786689459962295,0.00017339293502268815,-0.0015563090983483799,0.0005557356806635654,-0.0018173824827076783,-0.0010284903408059075,-0.0011100054713294627,-0.0026577947034954153,-0.0034859808768267406,-0.00013906417171239674],[0.000029798026423653743,-0.00010537807865182093,-0.00001832274191897547,9.990014835516493e-8,0.000044846038296155456,-0.000018412268087223406,0.0000011959972472783383,-0.000017391680478843487,0.000038416632447243915,-0.0000065798746688835014,0.000037022041226900914,0.000013486777280028538,0.000027961378902347956,0.000033717171134082094,0.00005272086327484377,0.000012207610250007989],[-0.0061911797371891775,0.01666212719065172,-0.004967222246029823,0.0033932055600539137,-0.007027985847232299,0.0006739984337126282,-0.007967346481366617,0.005438875288404658,-0.012293351882988909,0.0009041790195930318,-0.007145195472636791,-0.0019169847383552715,-0.005491153387573488,-0.004890649035635033,-0.008503905797827012,-0.011058426862780293],[-0.0016249444705179754,0.006391112498302049,0.0016482445477867663,-0.000041266951393262275,-0.0027892327932738277,0.0016456772033440897,0.0004786689459962295,0.00017339293502268815,-0.0015563090983483799,0.0005557356806635654,-0.0018173824827076783,-0.0010284903408059075,-0.0011100054713294627,-0.0026577947034954153,-0.0034859808768267406,-0.00013906417171239674]]},{"inputs":[-0.39853541760802336,0.14117650720172326,-0.2424647048887988,-0.1519345892977065,-0.06592830002391688,0.360654132773926,0.4217463789053443,0.14720771188994786,-0.13137394590729712,-0.2716843621638162,-0.35914360541257695,0.21091416027033175,0.9918535347176524,0.05551814829796102,-0.14279636005550073,-0.04057755421179683],"outputs":[0.0006371095593388349,0.0003290085216684064,0.0010785698496988188,0.00003401917452687718,0.0002601445259909562,-0.000009526081195589462,0.0007250986129016389,0.0002970624915009738,0.00044616265708457485,0.0009505120293953813,0.00032549312149750113,0.0001919498507527006,0.00006602315571658988,-0.00015218187719427803,-0.00004960671993469488,0.0012230266398477103],"biases":[0,0,0,0,0,0,0,0,0,0,0,0,0,0,0,0],"weights":[[0.00009137788851409307,0.0005151874488132723,-0.0003233010127736495,0.00002283827905208418,-0.0008784659423854612,-0.0007263414889760354,-0.0006828957819031312,0.0006844312669939143,-0.000575115826275361,-0.00030921335254925484,-0.0009308081417617731,-0.00014585856798364697,-0.0008640270499549811,0.00097902870936859,0.00046123055046650525,-0.00010829081494665284],[0.00041270793354598504,-0.000034593668406759864,-0.0006943034767569416,-0.0007975371453476461,0.0007211912492862522,-0.0005478615906858113,0.0004927485869437307,0.0003800170790695603,0.0004131903110208448,0.0008088411457599727,0.0007932404991635908,-0.00033543534002606246,0.000525431639311456,-0.00026442040035874184,0.00020181740175015712,0.000661159750171871],[0.0004336257344610708,0.00030439365088440385,-0.0009286674807570984,0.00024243086844383347,-0.0009434190718258351,0.00003936088109920238,-0.0007147345338088801,0.0006975729531264963,-0.00019989350632760574,0.0005376963596697807,-0.0006478568421230472,0.0001692333260185181,0.00019797970940422938,0.00016519946430022564,0.0008455024125537911,0.000593670498312474],[0.00018051066746643324,0.0001476881266693371,0.0003898582047087105,-0.0009294105617135072,-0.0007433183488018173,-0.0006190522987244755,0.0007389131430772174,-0.00015445083647640888,-0.00045510162060991504,0.0003624052852502342,0.00010880239123238893,0.00019772593072828415,-0.0009231889759025119,0.0005480894822598809,-0.0005602160480214769,0.0005569386212869661],[-0.0002605494759186408,-0.00005225954742986383,-0.0006489510062718387,-0.0006818667630174408,-0.00018480588115956848,0.00023514708029567568,-0.00004675329324894302,-0.0006332244111400735,0.0006860179067008404,-0.0006303477104878298,0.0005847688830686645,0.000987706665853615,-0.0009715723316869625,0.0007035989887292063,0.00012967867459808926,-0.00025527228643675156],[0.0001320252844048395,-0.00026364381958164933,-0.0002678273295600658,-0.0005741575624403824,-0.0006366866786203475,-0.0003509869137024627,0.0009756236306252027,0.00019369418929350587,0.0006985547765932269,0.0002365095351936673,0.0006320317813372514,-0.0005033085183354238,-0.00013539723767555658,-0.0008926874152561236,0.0004103280249250789,0.0007193612505946553],[-0.0008322657282290298,-0.00088545269894587,0.0005312693579753475,0.000089499107836741,-0.0005096203338774197,-0.00013898354610528124,-0.000860952628164305,0.000049721104345619785,-0.00010241194156996882,0.0005501886571435993,-0.0009648937970502589,0.0007236334490708366,0.00048202479188656826,-0.0008006195021786775,0.00040494727270241307,0.0002614510941388157],[0.0006495048842084305,0.00046361129336507,0.00019987925083109797,0.00044157533627181675,-0.000571157486838996,-0.0003786185473727448,-0.0008698033245873236,-0.00026449583919438055,-0.000498598024273046,-0.00009755292254651927,0.0009647906400093617,-0.00042501842668955103,0.0008852095446026497,0.0006216130537205736,-0.00014669585555137263,0.00032323503470476343],[-0.0003774537844997916,-0.00008268807568746533,-0.0006532572429636197,-0.0003195145047126159,-0.0004992321209579955,-0.00034592696714900203,-0.0008699594417394693,0.00042071806232974954,-0.000545993717932828,0.00015469542412808982,-0.0008982442842216937,0.000546979281843963,-0.000015804978479502677,-0.00078997572285625,0.0003145603952843784,-0.00014038406563808656],[-0.0000577417995817188,-0.0009794451889816368,0.0005267661457780277,0.00022626027921512733,0.0005289462164831115,0.00032018221203073685,0.0009465098749311381,-0.0009683073243053264,-0.000926555180041519,0.000682052570624932,-0.0006048979747505931,0.00040555491739271206,-0.00014890760755424383,-0.0005657305500712181,0.00020634882153287246,-0.0005508486877702931],[-0.00024805136131298306,0.0004937266762784309,0.0007775342582748721,0.0008671947885562597,-0.0006610999563544297,-0.00040721206959612444,0.0006939087839421731,0.0009121977980911468,0.0008623639571584316,-0.000978959384505795,0.0005095873446095419,0.0008049748174922311,0.000946133641244507,0.0005034132644171168,-0.00020290276216136042,-0.0002929466543736384],[0.0003708458702517387,0.0008383654617772528,0.0007018943437287856,0.000664450994186302,0.00016991039133011326,0.0003386525686494921,-0.00013264317912328394,0.0001034467195645339,0.0009685978893073182,-0.000018296267107314168,-0.00020782104100548814,0.000003074937590666368,-0.0006029898836956196,0.00019079176721306212,-0.00019188286837284018,0.0008418168915618683],[0.0006886613101260749,0.0007689170671159994,0.0008495356443223517,0.00019343153835685767,-0.00019323210555255484,-0.00010796949475470477,0.0007977402168115159,0.0005570259530084075,-0.0002569430013086048,0.0005188161341694705,-0.00020837516890027732,0.0008722913678071317,-0.00033997699218727627,-0.00051767653992899,-0.00006687575480726317,0.00047143972214528713],[-0.0008990321985713146,0.0008288695981262904,-0.0008270856534601,0.000555651367607108,-0.0001701389500176561,-0.000703068898570821,-0.0005276785960517375,-0.0002514775157204022,0.00009972247572483167,0.0008384891162357023,0.0005677972783613739,-0.0008511898963640237,-0.0005972748316836338,0.0002945376701568958,0.0005531185342888705,-0.0008571059160547887],[-0.0007505831235307586,0.00020901756393904974,-0.00041866258171567637,-0.0009188403613026334,0.0003123178222503187,0.0008186058915960311,-0.0006282659692764063,-0.0008625088090913171,0.0003557712397070171,0.0008520673239012036,0.0009735725096798544,0.00044243502397799437,-0.00021993481909945268,-0.0009129320482094505,0.00001080378499837008,-0.00029477704567038476],[0.0008494864349421171,0.0005669697186946534,-0.0003487206060624738,0.0007505648634283872,-0.0008268740561729239,-0.0004918006444194483,-0.0006638201059845236,-0.00011126758264882019,-0.0008125570640727457,0.0006797332251279207,-0.0008920159943857036,0.0006898256823540945,0.0007437780049314085,-0.0006073789171717329,0.0009151687481120823,0.0007885161962072226]],"error":[-0.0000271064118072713,-0.001487130390884456,-0.00012178733220146083,0.0005211028028903494,0.0028426002535501377,-0.0005570952651571008,0.0006655120283506469,0.0006027226900473454,-0.001192602160965625,0.0006902666463557953,0.0009792605932557761,-0.0011444668786653777,0.00022891267373138726,0.0023763270581352797,-0.0005185576482191792,0.0010307284949774525],"dW":[[-0.0013878285870127533,-0.0017064291019896253,-0.009105561635728133,0.0037909382153081287,-0.007031293555589383,-0.0008639005627057559,0.003814659872887731,0.004787923275734801,0.006408006489601572,0.002682820123790911,-0.014912188900006977,0.01155119149426357,0.005692226686542133,-0.006804424450122022,0.010660790646135865,-0.0010880968238495621],[0.00039339913304616697,0.00048371083836256144,0.002581096892595546,-0.0010745936647290697,0.0019931170281741323,0.0002448845164214917,-0.0010813178953823096,-0.0013572028155292104,-0.0018164377223195975,-0.0007604823251911119,0.004227065388320545,-0.0032743443693394594,-0.001613540075873471,0.001928807854663067,-0.0030219479819217727,0.0003084360353853785],[-0.0008673421960415176,-0.001066455885517248,-0.005690643570272024,0.0023691979740815415,-0.004394301753535953,-0.0005399063099222841,0.0023840231439702262,0.002992277236047422,0.004004770094052149,0.0016766646252487096,-0.009319573605381524,0.0072190729397611075,0.0035574338508896955,-0.004252516845809284,0.006662604918998819,-0.0006800207875346256],[-0.0008960803622064612,-0.0011017914042841792,-0.005879195056933596,0.0024476980232749778,-0.0045399007737938965,-0.0005577953476271962,0.0024630144043576167,0.003091422141960648,0.004137462529564369,0.0017322185540477335,-0.009628364594774431,0.0074582667881021025,0.003675304427917138,-0.004393418022175246,0.006883360980594132,-0.000702552321774487],[-0.000316498978299564,-0.0003891568975984753,-0.002076553964603682,0.0008645362137440746,-0.0016035101505283357,-0.00019701542972055632,0.0008699460175611848,0.0010919020109021868,0.0014613674382232878,0.0006118261549641432,-0.0034007748472895047,0.002634288081604012,0.001298131446058433,-0.001551771887777378,0.002431229172638841,-0.00024814414133135466],[0.0010381351430738673,0.0012764573640556749,0.00681121834492639,-0.0028357292992530992,0.005259606992991756,0.0006462221218519205,-0.0028534737718888415,-0.0035815023997887796,-0.004793370590686403,-0.002006825539635272,0.011154740219449746,-0.008640618839234756,-0.004257946997879499,0.005089902467903141,-0.00797457375231679,0.0008139272835823962],[0.0012030044221930112,0.0014791752922967455,0.00789292785639334,-0.00328607976514772,0.006094900566444029,0.0007488505475355977,-0.0033066422893939123,-0.004150291273526623,-0.005554619797121508,-0.002325535374520432,0.012926257146712798,-0.010012860795084398,-0.004934164017167869,0.005898244769258248,-0.00924103913940885,0.0009431894566192304],[0.00041014263907898705,0.0005042981113378516,0.0026909512561723845,-0.0011203295700649614,0.0020779463126896973,0.0002553070746673592,-0.0011273399914772826,-0.0014149668816409342,-0.0018937473384501725,-0.0007928493014503003,0.004406974007545093,-0.003413704119009094,-0.0016822141417906782,0.00201090006900181,-0.0031505654597346632,0.000321563417185196],[-0.00027692309502435296,-0.000340495672725505,-0.001816896073259567,0.00075643228094103,-0.0014030029296555387,-0.00017238009063691347,0.0007611656283425207,0.0009553676474625286,0.0012786341243021969,0.0005353217674186511,-0.0029755328160997064,0.0023048896165885455,0.0011358095995200736,-0.0013577341583970808,0.0021272217396019716,-0.00021711553066878852],[-0.0007859522709392857,-0.0009663814684725952,-0.0051566431998510175,0.0021468764422306603,-0.0039819479072349265,-0.0004892424147176584,0.002160310443244621,0.002711486999807887,0.003628969240024563,0.0015193292518593316,-0.00844504057656249,0.006541647341702711,0.003223610273527159,-0.0038534678555076167,0.006037397339086356,-0.0006162087866680671],[-0.0004371164886250961,-0.0005374642835070285,-0.0028679270382634737,0.0011940102810801588,-0.002214606600752528,-0.0002720978541766516,0.001201481756853605,0.0015080250037221145,0.0020182934132021366,0.0008449926187559151,-0.004696807452075696,0.0036382131861664624,0.0017928483135190656,-0.002143150926984584,0.0033577686875845823,-0.00034271167734698746],[0.000613312876668751,0.0007541096581857003,0.004023953860551022,-0.0016753014340976128,0.0031072878290850092,0.0003817772196271606,-0.0016857845717023886,-0.0021158917066486363,-0.002831843161776181,-0.0011855989587652854,0.006590033925859068,-0.005104733070492152,-0.002515523859678002,0.003007029234469265,-0.004711244774701283,0.00048085462381614237],[0.0028160375972297318,0.0034625086651033188,0.01847605975986964,-0.0076921780131803605,0.014267170452453624,0.0017529372774225571,-0.007740311536468386,-0.009715156528186308,-0.013002461086964416,-0.0054436998962972775,0.030258264595774326,-0.023438477809902304,-0.0115500750678151,0.013806831231439946,-0.021631768906225708,0.0022078530403974632],[0.0001584077255307094,0.0001947730111305911,0.0010393151732809233,-0.00043270033917300256,0.0008025567639279456,0.00009860621441548477,-0.00043540794575941193,-0.0005464969112339836,-0.0007314143423062972,-0.00030621896521996697,0.0017020876702208243,-0.0013184610757402948,-0.0006497147349884207,0.0007766617655638995,-0.0012168301002131792,0.00012419613245912632],[-0.00018181127605103558,-0.0002235492592000524,-0.0011928661764465246,0.0004966285611967096,-0.0009211284920876046,-0.00011317454126292459,0.0004997361963001745,0.0006272377212444601,0.0008394753125279676,0.0003514605151430998,-0.001953558327012212,0.001513253787344437,0.0007457052024555772,-0.0008914077023967385,0.0013966075992561272,-0.00014254517730967432],[-0.00012086066990895248,-0.00014860636706044667,-0.0007929684468887841,0.0003301382725310432,-0.000612328393727794,-0.0000752337873138069,0.0003322041007271553,0.0004169618784287633,0.0005580487131924484,0.0002336365171036849,-0.001298645349382132,0.0010059489733154337,0.0004957141948559508,-0.0005925712332794348,0.000928407377761584,-0.00009475817999925158]],"dB":[0.002855707123560703,0.003511285030446116,0.018736332044535783,-0.007800537737687079,0.014468152106423318,0.0017776309077745319,-0.00784934931799798,-0.009852013954409428,-0.01318562677799219,-0.00552038530581969,0.030684512819623474,-0.02376865568591947,-0.011712780994567682,0.014001328086035098,-0.021936495670902133,0.002238955069861532],"velDw":[[-0.0014598422879226226,0.004318109844371207,0.00015431573468090284,0.00015689238293750414,-0.004212777722757754,0.001205302330327442,-0.0006640572902628984,-0.002057402154628527,0.0010333144415134083,-0.0020160511866742243,-0.0023206031018533873,0.0023581121697015357,-0.0006450006700388212,-0.0034885873214920444,0.0017396476038680942,-0.0030419755709642443],[0.00025575932519217564,-0.0008467277956709522,0.00015784653338266514,-0.00004619035352646109,0.0012118201054561084,-0.000247372836400407,0.00013184508473751497,0.0003177586717485602,-0.0004752006193788989,0.00034280824687066513,0.0008222803889228899,-0.0007802393084247413,0.000006108573906220212,0.0010173235542518414,-0.0005830985194745983,0.0006459782231098608],[-0.000575281803990124,0.001649733034611642,-0.0002715663139076136,0.00010897511030667884,-0.0020718288314982053,0.00046153874368994876,-0.00010851578055663108,-0.0005768766800517584,0.00071336748617213,-0.0007330113983598706,-0.0015078255402178001,0.0014050700099032692,-0.00005194274788515498,-0.0017882849339331268,0.0010636694633321137,-0.001240349276000195],[-0.0009401822577321154,0.002879718470847617,0.00011583587040671155,0.000005371450402894126,-0.0028674329185218246,0.0008136339237139756,-0.0003674003715828638,-0.0012809038569214903,0.0006889524483736309,-0.0014063349224809243,-0.0015627793074084323,0.001585472475757421,-0.0004499310570467755,-0.0024350321314648687,0.0011151668035526048,-0.0020154333611405503],[-0.0007100791239656961,0.002456206406050093,0.00046154076615468546,-0.00016130342368603744,-0.002134518182200987,0.0007130005374786376,-0.0004704278409717884,-0.0012520717917892095,0.00033847991599630044,-0.0012722712634693214,-0.0007048925990092642,0.0008622512353300104,-0.0006003947179714713,-0.001778166638448322,0.0004973372814840629,-0.0016275961429044145],[0.0022486494431275426,-0.006778247410698494,-0.0009780315744346306,0.00005557253880486882,0.005544862154774862,-0.001893813873787893,0.0010462431551448562,